-0.004434,0.101610,0.115105,0.185929,0.303410,0.170110,0.247470,-0.131987,0.256277,-0.095948,0.248086,0.040360,-0.020314,-0.312371,0.118591,0.077184,0.112185,0.182572,-0.413170,-0.322370,-0.123244,0.036774,-0.054609,-0.140249,-0.061403,0.149816,0.099862,0.165368,-0.092530,-0.461853,0.162034,0.134861,-0.021127,0.376120,0.570907,0.526891,-0.047426,0.259385,0.210876,0.025062,-0.084637,0.531573,0.733912,0.873398,1.214889,1.049423,0.031318,0.146046,0.086397,0.857822,0.388856,0.826419,0.846165,0.708190,0.681878,-0.030424,0.083602,0.095503,0.231298,0.186782,0.295544,0.241092,0.388324,0.370272,-0.143418,0.027031,-0.190021,-0.051287,0.091098,-0.081715,0.197962,0.179061,0.093426,0.295017,-0.315829,0.104601,0.258465,0.359833,-0.274627,-0.101839,-0.043915,0.366542,-0.058717,-0.347260,0.291835,0.134734,-0.092275,0.066192,0.378758,0.174492,0.251878,-0.155959,-0.639750,-0.326411,0.266045,0.905697,-0.003944,-0.007125,0.064662,0.413889,0.881228,-0.024784,0.003619,0.237502,0.714585,-0.359379,-0.002862,-0.234102,-0.189897,-0.124662,0.134936,0.425047,-0.249724,0.138376,0.036752,-0.267915,0.059693,-0.185643,0.007574,0.285691,0.330425,-0.414909,0.184898,-0.020325,-0.222861,-0.518632,0.005783,0.233170,0.327995,0.394447,0.055757,0.387026,0.816413,0.304120,0.092067,0.072440,0.532056,0.269985,-0.029600,-0.108543,0.145531,0.520130,0.340417,0.173658,0.947203,0.096193,-0.724111,0.580469,0.219219,-0.024056,-0.060821,0.108024,-0.407666,0.210033,-0.329741,-0.357089,0.061674,0.384731,-0.556847,-0.282363,-0.584304,-0.186389,-0.304991,-0.335546,-0.847511,-0.410401,-0.502803,-0.725260,-0.318205,-0.699056,-0.416279,-0.613593,-0.595138,-0.741217,-0.706355,-0.514053,0.171850,-0.069026,-0.577326,-0.603269,0.002415,-0.697087,-0.132422,-0.258327,-0.681412,-0.097406,0.442334,0.136935,-0.300909,0.074568,0.881431,-0.047045,0.128025,-0.392857,-0.084313,0.181719,0.116118,0.224664,0.207253,0.174591,0.295186,0.119670,-0.208243,-0.200161,-0.201351,0.492452,-0.265224,0.051435,0.338295,0.329020,0.329920,-0.315757,-0.113459,-0.173279,-0.138030,0.149110,0.117119,-0.069216,-0.135140,-0.413890,0.009613,-0.212869,0.197787,0.075256,0.053708,0.189615,0.192033,0.342471,0.346932,-0.083260,-0.022033,-0.003538,-0.420394,-0.636679,-0.240303,-0.627049,-0.540602,-0.285907,-0.334677,0.087278,-0.195186,-0.408482,-0.100090,0.368128,-0.278326,-0.201534,0.083783,-0.053570,-0.114947,-0.152159,-0.132004,0.110213,-0.092834,0.093016,-0.228344,-0.113837,-0.023449,-0.031126,0.178883,0.108255,0.072209,-0.066291,-0.092871,-0.043118,0.010400,-0.093748,-0.126702,0.088967,0.061308,-0.236986,-0.100299,0.128519,-0.079565,-0.262024,-0.144487,0.414829,0.009895,0.065789,-0.291805,-0.045455,0.058832,0.061385,-0.172000,-0.014761,0.354456,0.227581,0.282900,0.073491,0.018532,-0.434064,-0.293698,-0.568575,-0.927859,-0.412130,-0.372532,0.115641,0.293154,0.292725,0.125454,0.829378,0.723448,0.395192,0.049117,-0.075412,0.040419,0.208643,-0.075840,-0.016790,-0.000221,0.440425,-0.047809,0.104038,0.030265,0.113310,0.198058,-0.101018,0.108003,-0.007673,-0.295640,0.306617,-0.157221,-0.865262,-0.466113,0.119954,-0.718280,-0.618721,-0.141441,-0.050216,0.023633,-0.237985,-0.486411,0.121754,0.269230,0.144203,-0.222499,0.028800,-0.036084,0.050556,-0.447597,-0.033451,0.119855,0.191628,0.104584,-0.260574,0.299421,0.601142,0.259150,0.267932,0.513074,0.412185,0.053462,0.001576,-0.044962,0.388816,0.442336,-0.304887,0.426946,0.128384,-0.123521,0.018687,-0.435494,0.488456,0.261200,0.179600,-0.077832,0.021686,0.530132,0.006804,-0.096671,-0.029189,0.218352,-0.392041,-0.054080,-0.038518,-0.346434,-0.020457,0.114478,-1.004383,0.087128,-0.599927,-0.213943,-0.476099,-0.805891,0.049899,0.278477,0.141942,0.153060,-0.407659,-0.093794,-0.059452,0.015737,0.178573,-0.268812,-0.751969,-0.015816,-0.175976,0.032661,-0.812906,0.350914,0.213296,-0.094551,-0.584244,0.484420,0.198674,-0.993566,-0.067125,0.340364,0.296196,-0.069508,-0.056620,0.325379,0.598218,-0.394100,-0.220355,0.523482,-0.479193,0.185832,-0.224875,-0.448444,0.387937,0.209274,0.714098,0.362083,-0.180647,-0.181820,-0.300931,-0.015806,0.304070,0.159584,0.234415,1.330911,0.269002,0.296446,-0.562013,-0.100582,0.723664,0.124244,0.872324,-0.288351,-0.138487,-0.079122,-0.013998,-0.102928,-0.250907,0.069638,0.175233,-0.022916,-0.082882,-0.019793,-0.042743,0.463218,-0.087074,0.026554,-0.177729,-0.229830,-0.060524,0.206990,0.003270,0.290421,-0.169683,-0.068621,0.178112,0.043866,0.195587,0.125017,-0.423596,0.262476,0.017100,0.354644,0.122994,-0.081721,-0.031579,-0.017943,-0.167816,0.038759,-0.863185,0.422589,-0.498225,0.022840,0.383267,0.077947,-0.011122,-0.211270,-0.346027,-0.780527,-0.596163,-0.391918,-0.149024,-0.075820,-0.281977,0.105278,0.143754,0.214745,-0.242735,-0.023633,-0.369955,-0.150619,0.071611,0.010663,-0.518079,-0.059636,0.029337,0.008536,-0.097122,-0.021815,0.129447,0.047062,0.076646,0.234511,0.141143,-0.347348,0.038539,-0.073270,-0.184906,-0.010088,0.156855,0.031754,-0.084648,0.203089,-0.096622,0.133153,0.532772,0.271061,0.049907,0.252493,-0.016783,0.369901,0.100323,0.094481,0.120571,-0.343040,-0.116660,0.345568,-0.364876,0.223735,-0.137420,0.102079,0.650065,-0.035575,0.416426,0.546073,0.771111,0.478773,0.009438,0.051500,0.227246,0.623247,0.297100,-0.340843,0.204441,-0.051464,-0.149277,0.112982,0.698653,0.192013,0.584996,0.421532,0.548498,0.773792,-0.019481,0.181517,-0.332650,0.313351,0.261920,-0.062470,0.500704,0.457011,0.135701,0.358320,0.225157,-0.052413,0.281574,0.145703,0.450800,0.463261,-0.015945,0.001312,0.016714,0.030202,0.100957,-0.086956,0.027329,0.029089,-0.202089,-0.327837,-0.011827,-0.528995,0.117529,0.812800,-0.042309,-0.441494,0.220418,-0.161701,-0.099548,-0.432084,-0.615484,0.647764,0.481049,-0.259594,-0.444359,0.574725,0.406445,-0.328617,-0.335393,-0.036601,1.130376,-0.110597,0.153744,0.355098,0.355677,0.477769,0.382904,-0.116719,-0.057789,-0.081808,-0.008254,0.071367,0.545922,0.751676,0.385532,-0.052842,-0.100582,-0.145448,0.350435,0.040866,0.276614,0.358790,-0.100690,0.028046,-0.042429,0.127720,-0.068331,0.149753,0.134360,0.093000,-0.059179,-0.221789,0.214049,0.259453,-0.070023,-0.003707,-0.577526,0.881471,0.436684,-0.173677,-0.238865,0.071998,0.458636,0.500273,-0.735792,-0.077157,0.159477,-0.128829,-0.594773,0.689897,1.025388,0.601028,0.538774,0.231412,0.490499,0.289953,0.558500,0.121386,0.640808,-0.028429,-0.072266,0.430145,0.613338,0.015527,-0.085143,-0.086208,0.761010,0.198869,0.120036,0.338568,0.400942,0.284249,0.199287,-0.177241,0.091632,0.095299,0.171404,-0.117282,0.090071,0.611456,0.487735,0.024687,-0.261500,0.252340,0.285473,0.153518,0.511806,0.583417,0.430380,0.138690,0.068030,0.227909,0.508332,0.407529,0.621872,0.103748,-0.127820,-0.182028,-0.355639,0.325199,0.300343,-0.074732,0.106559,0.028202,-0.190826,-0.138219,-0.154680,-0.103421,0.155522,-0.531514,0.074399,0.405306,-0.399693,0.044192,0.087249,0.095094,0.038863,-0.040947,0.467283,0.455376,0.144543,-0.166089,-0.143964,0.026919,0.052572,-0.367332,0.049827,-0.285460,-0.440798,-0.163098,0.021472,-0.074422,-0.833918,0.101725,0.132054,-0.184607,-0.591545,0.559750,0.168917,0.352347,0.008108,0.320928,-0.637811,-0.360963,-0.082978,-0.246527,-0.084112,0.059297,0.062203,0.267962,-0.174468,0.433005,-0.116434,-0.342924,0.189780,0.114420,0.326571,-0.103426,-0.135790,-0.269218,-0.274000,-0.376008,0.118067,0.064247,0.116114,-0.040620,-0.012229,-0.016275,0.014905,0.250924,-0.109940,-0.303643,-0.106647,-0.229776,-0.153114,-0.100425,0.005129,-0.234890,0.063045,-0.070278,0.186345,0.062962,0.127829,0.076710,-0.298462,0.105278,-0.070121,-0.216752,0.058378,0.178086,-0.374586,0.080420,0.190078,0.148180,-0.174244,0.380897,0.160496,-0.082204,0.078677,0.227440,0.450785,-0.082999,-0.368583,-0.090881,-0.437589,-0.054406,-0.599969,-0.061232,0.046026,-0.350235,-0.139991,0.060349,0.283655,0.244948,0.198350,0.059277,-0.210477,0.014307,0.072757,0.177946,-0.179112,0.079705,0.243205,0.126465,0.145774,-0.057591,0.085138,0.298440,0.338177,-0.236522,0.161518,0.194748,0.155109,-0.107665,0.122586,-0.111677,0.337398,0.276496,-0.089433,0.228225,0.051620,0.106544,0.000018,0.409166,-0.000003,-0.057544,-0.232222,-0.012569,0.273812,0.067822,0.060209,0.088032,0.100263,-0.059037,-0.262877,0.107049,0.254559,0.124079,0.141859,0.137267,0.294956,0.684958,0.422165,0.383223,0.041265,0.311573,0.009801,-0.024152,-0.189946,0.365886,0.435116,-0.117332,0.235795,0.443794,-0.082800,-0.182478,-0.362788,-0.256043,0.208063,0.003299,0.238720,0.216308,0.088275,-0.283813,-0.578659,-0.911297,-0.785346,-0.294175,-0.046368,0.419572,0.049682,-0.019497,0.077118,-0.271865,-0.529094,-0.088176,0.015266,-0.223313,-0.254598,0.071716,0.487792,-0.063903,-0.494286,-0.067506,0.311074,0.563015,-0.433092,-0.039067,-0.414378,0.133591,-0.281765,-0.224207,-0.000099,0.098886,0.010764,-0.371780,-0.730921,-0.887232,-0.329449,-0.452699,-0.869164,-0.352871,-0.267952,-0.440369,-0.686966,-1.066397,-1.218446,-0.959873,-0.656530,-0.459277,0.065688,-0.244314,0.093869,-0.419861,-0.533668,-0.786775,-1.126733,-0.461039,-0.159281,-0.252030,-0.321729,-0.697258,-0.275706,-0.584886,-0.530500,-0.304190,0.264796,-0.089412,0.079977,0.152259,-0.030265,-0.146422,-0.158312,0.008036,-0.240993,0.004724,-0.184956,-0.022470,0.255223,0.019068,0.249669,-0.082792,0.085181,-0.229849,-0.032284,0.313132,-0.222991,-0.264385,-0.056823,-0.192135,0.091282,-0.192906,0.160629,-0.129170,-0.024696,-0.262350,0.062158,0.159327,-0.054011,-0.107483,-0.152074,-0.069907,0.185935,0.142689,0.158647,0.097645,0.076807,0.252057,-0.043719,-0.295909,-0.160634,0.066227,0.150391,-0.087056,-0.100353,0.230251,-0.067401,-0.650119,0.140105,0.030466,0.109768,-0.108296,-0.047562,-0.169520,0.180405,0.061547,-0.006271,-0.128480,-0.333774,-0.436441,0.181392,0.091900,0.153591,0.077010,0.412441,0.405843,0.063202,-0.159473,0.240646,-0.105835,-0.265156,0.005933,-0.154344,-0.180705,0.404312,-0.499776,0.128957,0.005658,0.360440,0.017937,0.254144,-0.021192,-0.300090,-0.462467,-0.098018,0.059556,0.062714,0.031553,-0.472467,-0.460983,0.413789,0.424076,-0.089301,-0.014272,-0.366409,0.055413,0.043597,0.438775,-0.229279,0.417412,-0.029921,0.050120,0.632382,0.340716,0.179513,-0.140776,0.172099,0.572556,-0.135763,0.317290,0.271405,-0.289232,0.014648,-0.035432,0.325290,0.657023,-0.001473,0.170655,0.572210,0.045738,0.202496,0.672983,0.565758,0.229418,0.089502,0.270862,-0.485994,-0.552705,-0.000762,-0.445999,0.052521,0.187286,0.143115,0.028029,0.082929,-0.012086,0.231573,-0.070928,0.234740,-0.049932,0.136389,0.533450,0.109830,-0.040448,-0.278115,0.300109,0.067243,-0.443839,0.035502,-0.118529,0.137021,-0.134523,0.547903,-0.111131,0.066669,0.209578,0.208828,0.281782,0.632622,0.540994,0.251623,0.677849,0.175078,0.342147,-0.082782,0.610480,0.819429,0.395228,0.245904,0.513123,-0.104601,-0.266037,-0.873160,0.474467,0.413946,0.377028,0.321796,0.099302,-0.442310,-0.405701,-0.615588,-0.445378,0.200656,0.021958,-0.037684,0.175350,-0.018968,-0.354584,0.251626,0.105396,0.479027,0.056800,-0.167013,0.093839,0.249037,-0.058751,0.136161,-0.152943,0.064015,-0.287330,-0.214726,-0.056179,0.015226,0.270511,-0.255705,-0.313630,-0.130109,-0.222862,0.101576,-0.015636,0.013693,0.036831,-0.027226,-0.078474,-0.215036,0.159896,0.076827,-0.376949,0.208265,-0.105077,-0.624721,-0.238478,-0.306623,-0.318467,-0.569594,-0.251995,-0.112193,-1.168048,-0.469095,0.083336,-0.574725,-0.282595,-0.455756,-0.556145,-0.188961,-0.096500,0.144062,-0.292425,-0.205857,-0.431942,-0.833149,-0.406007,-0.453576,-0.543841,-0.494419,-0.510144,0.033177,0.092868,-0.632341,-0.169597,0.316836,-0.159562,-0.417188,-0.660962,-0.273508,-0.139090,0.186131,0.128437,-0.788002,0.200739,-0.368576,0.151368,0.301999,0.157554,-0.145978,-0.308883,-0.220460,0.447607,0.247699,-0.563053,-0.009151,-0.229217,-0.145658,0.186091,0.450821,0.299238,0.054784,-0.114840,0.167955,0.420916,0.097350,-0.231027,-0.072385,-0.179070,-0.320096,-0.137435,0.520519,0.135053,-0.095673,-0.112938,-0.291941,-0.205324,0.266960,-0.215602,0.068392,0.535322,0.457799,-0.017709,-0.885261,-0.275394,-0.218906,-0.194172,-0.092424,0.564281,0.716472,-0.154353,-0.559362,-0.110864,-0.212737,-0.159987,-0.256719,0.250737,0.516373,0.129901,0.111207,0.232401,-0.102382,-0.393485,-0.154363,0.044533,0.236750,-0.133961,0.150763,-0.217484,-0.538370,0.014191,0.155115,-0.371052,-0.018343,-0.176924,0.106844,-0.348030,0.042486,-0.045594,-0.180906,0.473283,-0.131231,-0.100663,0.021629,-0.032039,0.306784,0.192504,-0.381839,-0.152327,0.089345,0.228363,0.202944,-0.240948,0.188690,0.140973,-0.148971,0.118694,0.059785,0.303348,0.273831,-0.210548,0.286526,0.085491,-0.397292,0.119543,-0.026573,-0.088272,-0.172736,0.344965,0.284072,0.357124,0.054753,-0.585812,-0.612904,0.202129,0.054727,0.817922,0.324070,0.328446,0.039074,0.116237,-1.016825,-0.227051,-0.003253,0.359295,0.313384,0.297716,0.182119,-0.329984,-0.161991,0.131669,0.071382,-0.005492,0.308244,0.115034,0.004400,0.272759,-0.260133,-0.400516,-0.247827,-0.326190,0.064943,0.018395,-0.231425,-0.101932,-0.363562,0.232352,-0.023814,0.179838,-0.269559,0.081894,0.082200,0.032871,-0.153896,-0.067252,0.309876,-0.193205,-0.064503,-0.118472,0.076322,-0.516289,-0.185085,0.032473,-0.319686,-0.346200,-0.092205,0.119305,-0.042411,0.401518,0.527171,-0.034402,0.207092,-0.507699,-0.057842,-0.005598,0.521841,0.289269,0.748643,-0.286713,-0.099364,-0.529803,-0.006072,0.269806,0.280265,0.194156,0.738812,0.092597,-0.338612,0.288195,-0.043954,0.063683,-0.368737,-0.080718,-0.474250,-0.129501,-0.023182,-0.385649,-0.053352,0.198513,-0.146726,0.139804,0.204431,0.463713,0.560543,0.170086,0.068253,0.230959,0.172935,0.101810,0.386729,0.388127,0.102175,0.175995,0.005234,-0.129913,0.208028,0.205880,0.276434,0.266125,0.136276,-0.321659,0.330472,-0.044575,0.100385,0.080922,0.647216,-0.130696,-0.061788,0.458880,0.639212,-0.019716,-0.364525,-0.577738,0.017758,0.713379,0.402152,0.346097,0.891626,-0.178809,0.284096,0.009912,-0.161768,0.227862,0.135651,0.379098,1.173810,0.029627,-0.237163,0.209414,0.163746,-0.447254,-0.421978,-0.522311,-0.068919,0.134410,0.007283,-0.204115,-0.159607,0.157825,0.201142,0.078880,-0.137389,-0.105005,0.058908,-0.127346,-0.107444,-0.373770,0.191209,-0.213324,0.222724,-0.155926,0.110098,0.082040,0.195997,0.115731,-0.009218,0.259965,-0.163692,0.067993,0.020306,0.199731,0.232127,-0.045279,-0.165935,-0.147998,0.347377,0.086693,-0.419782,0.365978,0.348585,0.419927,-0.071885,0.127752,0.522228,-0.052923,-0.420585,0.173042,-0.176387,-0.328113,0.062484,0.210261,-0.093698,0.088525,-0.375365,-0.607732,-0.431788,0.028183,0.574531,0.286117,-0.087844,-0.149511,0.705012,-0.369533,-0.070728,0.083436,0.522424,-0.118238,-0.066387,-0.105181,-0.366919,-0.024349,-0.129145,0.348345,0.630611,-0.373413,0.168409,-0.054387,-0.136837,0.079618,-0.183758,0.194978,0.137675,0.555688,-0.023524,-0.134068,-0.470106,0.303923,0.312240,0.243664,0.348011,0.278549,-0.076017,-0.267853,0.091019,0.654586,0.983048,0.604353,0.562516,0.703216,-0.085237,-0.032903,0.517879,0.983070,0.957534,0.835026,0.792765,1.119450,-0.140046,0.281630,0.124201,0.444548,0.759735,0.802422,0.375334,0.923928,-0.144932,-0.252184,0.661986,-0.060106,0.424591,0.079366,0.157466,0.231878,0.152264,0.070996,-0.119589,-0.307543,0.293856,0.252506,0.108832,0.265092,-0.004695,0.024740,-0.017843,0.061559,0.054285,0.147109,0.060691,0.014560,-0.071462,0.039665,-0.051294,-0.050518,-0.002301,0.044462,-0.042234,-0.116205,0.194708,-0.040338,-0.062323,-0.421406,0.180550,-0.189530,-0.128103,-0.802066,0.391546,-0.536203,0.093897,-0.150002,-0.514972,0.042863,0.098935,0.056313,0.128563,-0.385069,0.234403,0.135905,0.016252,-0.049255,0.618963,0.275568,-0.080088,-0.503877,0.305252,0.810992,0.912242,0.416382,0.495204,0.890685,-0.210197,-0.158825,0.469865,0.394702,0.226905,0.466169,0.360569,0.533980,-0.135600,-0.304911,0.450058,0.551353,0.069683,0.008382,0.162608,0.111329,-0.159340,-0.378618,0.722592,0.709250,0.120598,0.123634,-0.398188,0.332313,-0.163516,0.317830,0.105341,-0.367244,-0.158418,-0.725930,0.801123,-0.224427,0.070874,-0.032490,-0.122909,-0.593095,-0.490196,-0.850269,-0.751779,-0.058162,-0.665599,-0.100334,-0.826551,-0.404612,-0.734888,-0.764278,-0.640581,0.229181,-0.226477,-0.182887,-0.633315,-0.816908,-0.437325,-0.714650,-0.590949,-0.321046,0.629974,0.071017,-0.293009,-0.751236,-0.504161,-0.345466,-0.212409,-0.304590,0.493377,0.373007,-0.260051,0.114073,0.158012,0.346415,0.129586,0.522942,0.441243,0.152730,0.168947,-0.404500,0.091237,0.081138,0.192675,-0.468153,0.025011,-0.192657,-0.200903,0.040487,-0.729214,-0.169589,0.047849,-0.698629,-0.260858,-0.289289,-0.121969,-0.116626,-0.223351,0.487886,-0.094083,-0.027260,0.029711,-0.117107,0.219910,-0.211873,0.219518,-0.206188,0.330501,-0.237466,0.119351,0.343894,-0.067582,-0.148647,-0.619457,0.365274,0.125619,-0.441875,-0.043977,0.222204,-0.013196,0.174852,-0.479872,-0.176060,-0.151762,-0.068028,0.075590,-0.256002,-0.010164,-0.188221,-0.519831,0.041345,0.094930,0.123562,-0.067351,-0.309124,-0.688186,-0.256130,-0.206426,0.476453,0.090876,-0.431859,0.054268,0.065450,0.557874,0.647088,-0.149515,-0.279850,-0.020450,-0.073885,-0.037493,0.219406,0.288882,0.262098,0.380403,0.045375,-0.623993,-0.198512,-0.032264,0.285242,0.091002,0.021024,-0.112632,-0.204288,0.004959,0.009902,0.032802,-0.210658,-0.287613,-0.095212,0.234006,-0.027213,0.305935,0.423639,-0.250024,-0.209841,0.111420,0.103529,0.250152,-0.003713,-0.257337,0.165542,-0.183627,-0.405437,-0.166257,-0.010990,0.266422,-0.061232,-0.221155,0.471358,-0.152109,-0.048457,0.417995,0.293634,-0.093031,0.438221,0.361222,0.193290,-0.144690,0.177860,-0.081516,0.017364,-0.071661,-0.273659,-0.310875,0.348900,-0.006190,-0.044527,-0.153498,0.076480,0.109556,-0.010386,-0.052825,-0.167482,0.062535,-0.029999,-0.252096,-0.025255,0.151862,-0.068119,-0.221588,-0.035307,0.022442,-0.655256,-0.162458,-0.192714,-0.318918,-0.235037,-0.013240,0.177502,0.240161,0.043625,-0.438359,-0.174950,0.060169,0.198494,0.211382,0.659414,0.060566,0.104980,-0.263127,-0.175613,-0.536555,0.072152,0.419199,-0.077911,0.180394,0.425887,-0.059820,-0.087201,0.297055,-0.082066,-0.109397,-0.078105,-0.161498,-0.069888,-0.433912,-0.401069,-0.521334,-0.369298,-0.534039,-0.434222,0.142564,-0.268354,-0.408359,-0.528386,-0.346956,-0.305956,-0.187451,-0.515565,0.094745,0.194976,0.555909,0.008997,0.133418,-0.390369,-0.788505,0.138940,-0.103143,-0.279695,-0.051560,-0.561259,0.061383,0.100491,0.226571,0.377361,0.144081,0.151426,0.733227,-0.398655,0.432483,0.474187,0.153255,-0.254711,-0.207819,0.182719,0.455643,-0.135696,0.345998,0.562978,0.766151,-0.132225,-0.016016,0.116526,0.795457,0.607771,0.593158,0.347025,0.034332,-0.118394,-0.264196,-0.194109,0.885025,0.100581,0.115268,0.651280,0.159691,-0.486286,-0.418322,0.189703,0.516590,0.253708,-0.042671,0.053566,0.411985,0.017362,-0.265040,-0.196470,0.610026,-0.239615,-0.068800,0.394686,0.237565,0.126614,-0.044175,0.083813,0.160963,0.177954,-0.196456,-0.167582,-0.156725,-0.077353,0.201776,-0.084770,0.316329,-0.011190,0.016973,-0.151767,0.184219,-0.046117,0.106578,-0.289805,-0.085713,-0.013430,-0.051523,0.024495,0.356462,0.274032,-0.011067,-0.094149,-0.124187,0.039884,-0.052452,0.019171,0.158983,0.112461,-0.313898,0.141738,0.105458,0.445291,-0.065910,-0.172618,0.119222,-0.259444,0.090167,0.116777,0.159493,-0.115143,-0.028681,-0.157588,-0.145914,0.207252,-0.170734,0.270945,0.011905,-0.069994,0.026480,0.315580,0.348878,-0.221032,0.210908,0.019622,-0.011953,0.215175,-0.543496,0.037375,-0.377390,-0.196234,0.128352,-0.027322,-0.171611,0.280142,0.094338,0.110415,-0.149398,0.247557,-0.224535,-0.384583,-0.015195,0.178446,0.099064,-0.402086,0.052564,-0.108281,0.040141,-0.086593,-0.165199,-0.100909,0.018724,0.021386,-0.280576,-0.435539,0.163972,0.082702,0.199935,0.476046,-0.290127,-0.311972,-0.259787,-0.562556,0.127486,-0.014615,0.187702,0.229096,0.454099,-0.246556,0.188593,-0.027227,-0.145241,-0.067124,0.348664,0.192727,0.837105,0.766696,0.397706,0.264623,0.016424,-0.146431,0.477606,0.440862,0.695749,0.561774,0.626766,-0.262919,0.239512,-0.190102,0.262058,0.296184,0.397002,0.054511,0.544460,0.197407,0.012294,-0.088383,0.126514,0.189504,-0.596965,-0.141094,0.306882,0.110370,0.170257,0.203964,0.012535,-0.063001,-0.491076,-0.305882,0.339018,0.096840,0.282550,-0.034970,0.069055,0.126119,-0.130625,-0.082895,0.171014,-0.014976,0.095103,0.848090,0.549045,-0.328480,-0.040780,-0.015999,0.048843,-0.334564,-0.125720,0.381849,0.707729,0.301280,-0.188437,-0.328810,0.114456,-0.351731,-0.317237,0.648435,0.489715,0.057597,-0.618892,-0.196151,-0.395858,0.329110,-0.007468,0.509488,-0.509023,-0.643179,-0.103224,-0.039560,-0.010837,-0.290917,0.176578,-0.306098,-0.687342,-0.064460,-0.037489,0.460400,0.149917,-0.081472,0.533313,-0.295923,-0.709368,-0.100820,0.118194,0.443232,0.096565,0.002148,0.413269,-0.014024,-0.213762,0.168586,0.187491,-0.201772,0.311010,-0.059355,-0.140475,-0.338995,-0.067306,0.193488,0.305404,0.242477,0.342351,0.016800,0.300161,-0.030275,0.535259,-0.236687,-0.200946,0.542444,-0.309737,-0.072810,0.096861,0.604507,0.875756,0.295187,0.381226,0.199489,0.546247,0.154751,0.072340,-0.266209,0.444608,0.816290,-0.044851,0.500614,-0.060135,-0.531558,-0.203783,0.362192,0.039480,0.045428,-0.528926,-0.110741,-0.319157,-0.183580,-0.291395,-0.370744,-0.197652,-0.177291,-0.099397,-0.343005,-0.456802,0.125211,0.001159,0.496494,-0.534850,-0.514952,0.036756,-0.397105,-0.150004,0.301841,0.081230,0.035060,-0.222957,0.112743,-0.154278,-0.000761,0.117607,0.340454,-0.001907,0.177174,-0.306336,-0.122181,0.062406,-0.115696,-0.166735,-0.209594,0.081398,-0.133303,0.581928,0.121465,-0.200538,-0.133113,0.032577,-0.141504,0.074443,-0.107241,-0.085444,0.159794,-0.088511,-0.242774,0.021604,0.014137,-0.116421,0.091138,0.184354,0.291319,-0.583857,-0.542696,0.631958,0.105901,0.059665,-0.451071,0.607399,0.886338,-0.515067,-0.357275,0.877656,0.130934,-0.056216,-0.267227,0.460267,0.517119,0.596830,0.163510,-0.148451,-0.059562,-0.166359,-0.391415,0.071884,0.304410,0.135916,-0.234622,0.205434,-0.330100,-0.228537,-0.072948,0.234486,0.426013,0.294916,-0.232444,-0.081458,-0.238028,-0.270441,-0.057726,0.159502,-0.013642,0.007262,-0.006642,0.293752,0.058137,-0.003476,0.242502,-0.054812,-0.112658,-0.123198,0.059928,0.008274,-0.251952,0.257108,0.067320,0.155752,-0.283058,-0.088216,0.078219,0.173919,-0.055368,0.388311,0.119330,0.016384,0.138103,0.372657,0.213164,-0.038063,-0.379264,0.150396,0.060546,-0.427521,-0.318210,0.322828,0.454356,0.186868,0.121470,-0.051486,-0.334436,0.114864,-0.372864,0.080274,0.414215,-0.328842,-0.335962,-0.173736,-0.033931,0.387602,0.194708,0.097527,0.341203,-0.053185,-0.259815,-0.231979,0.154490,-0.087037,-0.215052,-0.415935,-0.392812,0.080245,-0.267832,-0.118508,-0.136616,0.416727,-0.313307,0.093478,-0.257855,-0.048715,-0.531680,-0.044050,-0.400035,-0.437772,-0.387758,-0.561848,-0.151978,-0.692038,0.041527,-0.229867,-0.411735,-0.125000,-0.519881,-0.437402,-0.385212,-0.651371,-0.363031,-0.055976,-0.099911,-0.045180,-0.343885,-0.112745,0.109673,-0.246566,-0.028020,-0.099078,0.140672,0.883049,0.319881,-0.396677,-0.480905,0.687659,0.451939,0.187527,-0.078132,0.145641,-0.072371,-0.344861,-0.240646,0.403319,0.210795,0.186734,0.009796,0.295298,-0.044827,-0.387166,-0.000066,0.033572,0.276662,0.177779,0.070230,0.323358,-0.202935,0.237626,-0.300745,-0.324964,0.051005,-0.186612,0.226712,-0.373472,0.022410,0.071193,0.322904,-0.057842,0.240550,-0.359930,-0.185141,-0.894669,0.066735,0.574168,0.834980,0.618891,0.396127,0.608726,-0.260365,-1.131985,-0.566003,0.059965,0.314315,0.772616,0.461520,-0.127575,-0.017717,-0.429408,-0.239862,-0.277662,-0.091461,-0.230433,0.324923,0.196580,0.022443,-0.437704,0.191190,0.160522,-0.046444,-0.414695,-0.338376,0.597377,0.249523,0.609769,0.712602,0.137664,0.017096,-0.316995,-0.309740,-0.696221,0.261102,0.796209,0.783510,0.301306,-0.206821,-0.177902,-0.652002,-0.639549,-0.104215,0.253889,0.108418,-0.058016,-0.066758,-0.017823,-0.290188,0.119556,-0.012593,0.070662,0.050372,-0.161405,-0.022385,0.300220,-0.081293,0.080943,0.098772,0.151484,0.064333,0.239019,-0.523872,0.145715,-0.275944,0.183602,0.068410,0.120105,0.069699,-0.128911,0.226452,0.151007,0.043225,0.214378,0.168164,0.301119,-0.036034,-0.144424,0.017285,-0.105159,-0.485575,0.034569,-0.292343,0.120216,0.210555,0.174220,0.395927,0.036712,-0.205191,-0.418334,-0.245551,0.065214,-0.116048,0.641757,-0.244425,-0.181257,0.069290,-0.507407,-0.271618,0.078751,0.335563,-0.380677,0.525309,0.084394,-0.329485,-0.091898,0.068954,-0.243096,0.080378,-0.319739,0.357465,0.220644,0.355269,-0.314500,-0.153837,0.058192,0.196427,0.466714,0.441666,0.328166,-0.027114,-0.083364,0.138921,-0.274300,-0.296279,-0.516928,-0.293299,0.264675,0.046072,0.328447,0.191351,0.003858,-0.331592,0.087649,-0.430206,0.378597,-0.031928,0.092652,-0.161238,-0.361560,0.453765,-0.009468,0.193192,0.249332,0.175643,0.010167,-0.064058,0.297219,-0.225373,-0.255541,-0.091363,0.180716,0.340625,-0.319125,-0.142208,0.078677,0.214312,0.256345,-0.090431,0.498778,-0.278554,0.148680,-0.145429,-0.169545,-0.228114,-0.259292,-0.580845,0.051231,-1.023883,-0.229913,0.203668,-0.270141,-0.045125,-0.144088,-0.250161,-0.580805,-0.271319,0.274814,-0.140456,0.139536,0.046292,-0.089178,-0.215108,-0.074838,-0.074932,0.370298,-0.315584,0.662179,0.200404,0.162908,-0.719939,-0.143500,-0.273353,-0.102746,-0.426078,0.130764,0.607096,-0.145273,-0.321013,0.095605,0.147723,0.141362,-0.467397,-0.147095,0.026116,0.192397,-0.132456,0.385782,0.245445,0.239729,-0.021238,-0.205102,-0.554388,-0.282140,-0.490128,-0.230582,0.191127,-0.009220,-0.288906,-0.412813,0.258023,-0.263876,0.091985,0.152032,-0.110927,0.200380,-0.116863,0.672425,-0.594811,0.250822,0.774177,-0.097340,0.120019,0.307061,0.347660,-0.132346,-0.286260,-0.095274,0.056019,-0.011727,0.376757,-0.118121,0.194471,0.302168,0.089554,0.041581,-0.349246,-0.017461,0.749604,0.003722,0.193588,-0.950534,-0.354990,-0.152785,0.408263,-0.063276,0.210275,-0.229558,0.598060,0.145672,0.118433,0.253395,0.693366,0.258675,-0.347326,0.089673,-0.070171,-0.008978,-0.068032,-0.383439,-0.420297,-0.536572,-0.105492,0.072430,0.345204,0.863205,0.173752,0.528924,-0.136002,0.349068,0.327061,-0.099353,-0.173667,0.186499,0.463884,-0.758052,-0.503885,-0.317762,-0.129311,0.533478,-0.427945,-0.418380,-0.316044,0.088792,-0.617073,-0.094186,0.363346,0.009118,-0.201802,-0.245521,-0.147028,-0.407090,0.051899,0.079992,0.027722,-0.567380,0.765765,0.126764,-0.020631,-0.261113,0.061007,0.105776,0.534664,0.207263,0.273682,-0.185629,0.766177,-0.632532,-0.503645,0.241679,-0.014528,0.224231,-0.289753,0.242133,0.753771,-0.623155,-0.618583,-0.103265,-0.120172,0.123102,-0.044545,-0.893079,-0.748442,-0.273328,-0.128967,-0.014264,-0.395284,-0.201854,0.328142,0.089533,0.938973,0.401159,0.220518,0.194456,0.598570,-0.042263,-0.024581,0.729743,0.768001,-0.474404,0.309904,0.228975,0.362802,-0.215632,-0.386053,-0.450606,0.110524,0.154251,-0.194761,-0.102137,-0.914576,-0.294687,-0.533041,-0.373597,-0.450694,-0.260361,0.034748,-0.026200,-0.099953,0.391354,-0.196405,-0.168911,-0.147093,-0.005936,0.007089,0.210582,-0.061015,-0.100196,-0.487977,-0.315650,-0.208803,0.126575,0.239899,0.193794,0.216814,-0.155061,0.148587,-0.171580,-0.123768,0.004433,-0.499682,0.295671,0.036321,-0.184016,-0.059069,0.403207,0.135269,0.127934,-0.487205,0.176619,0.100277,0.037886,-0.529021,-0.256875,0.263316,-0.054995,0.038914,0.157612,0.234439,-0.009751,0.394872,-0.451513,-0.736353,-0.360527,0.081731,0.043415,-0.095040,-0.277128,0.303819,-0.054456,-0.024081,0.108704,-0.073198,-0.025036,0.366076,0.507724,0.326945,0.534949,0.369310,0.322181,0.258874,-0.052459,-0.160286,-0.050253,0.821473,-0.483296,-0.232255,-0.463365,-0.241470,0.266101,0.727614,-0.157443,0.268023,0.678612,0.519441,0.362954,-0.352403,0.186759,-0.170467,0.076316,0.010330,0.207370,0.131301,0.255440,0.645010,0.493257,0.062717,-0.162564,0.199687,-0.902783,-0.235734,-0.707840,-0.124043,-0.246350,-0.277870,-0.061517,0.233118,-0.185731,0.523012,0.196877,0.741969,0.339517,0.083813,0.199023,-0.154474,0.059777,0.153992,0.623261,-0.034999,0.788656,0.509352,0.006550,-0.339861,-0.533071,0.007267,-0.951378,-0.368728,-0.601054,-0.675588,-0.070622,-0.663211,-0.124482,0.190516,-0.592068,-0.095268,-0.448825,-0.385313,0.002521,0.332635,0.057345,0.233295,0.196887,-0.023689,-0.376933,0.201192,0.161897,-0.041421,-0.340136,0.625332,-0.164423,0.109417,0.070981,0.288960,-0.268704,0.050645,-0.170595,-0.128646,0.031111,-0.002556,-0.107166,0.041641,0.176614,-0.099371,0.130256,0.138567,0.086880,0.103330,-0.585984,0.164382,0.292212,0.067884,-0.269858,-0.112048,0.057310,-0.006435,-0.040512,0.099390,-0.184177,0.363272,0.042798,-0.028024,0.686165,0.076421,0.406311,0.294088,-0.921533,-0.217716,0.001706,-0.605217,0.667656,-0.093376,-0.157001,-0.707196,-0.491620,-0.244298,-0.074583,0.048729,-0.056021,-0.108005,-0.112993,-0.000260,-0.042189,-0.273231,-0.034564,0.224354,0.175448,0.326880,-0.079745,-0.046467,-0.445193,-0.193957,-0.489483,-0.084858,-0.322032,-0.068723,0.345926,0.356793,-0.108885,0.080240,-0.288032,-0.347886,0.006159,-0.295861,0.080897,-0.105568,0.071533,-0.298722,0.438673,0.837237,0.400342,0.196318,0.273153,0.518905,-0.212585,-0.154235,-0.017901,-0.510000,-0.344189,-0.363560,0.036851,-0.003462,-0.121264,-0.185173,-0.343519,-0.518673,0.068938,0.205318,-0.158770,0.068766,-0.048383,0.400681,0.292497,0.352253,0.340638,-0.077615,-0.171525,-0.042080,-0.089482,0.549460,0.334806,0.068253,0.397537,-0.136426,-0.336312,-0.050899,0.327802,-0.068139,0.454170,0.752541,0.020779,0.175815,0.145021,0.113226,-0.030589,0.141644,0.404268,0.307539,0.216558,0.214895,-0.252763,-0.413542,-0.153037,-0.117391,0.288292,0.208503,-0.876934,-0.873236,-0.507794,-0.390391,-0.093793,-0.045564,0.299239,-0.443383,-0.938374,-0.988518,-0.957247,-0.423062,0.620453,0.250254,0.229497,-0.106736,-0.737942,-0.647812,-0.360832,0.338194,-0.010859,-0.110054,0.333502,0.853443,0.282724,0.052850,0.206503,0.415533,0.417076,0.248360,0.946423,0.959499,0.316825,0.063856,0.037601,-0.347682,-0.086181,0.004968,0.144712,0.553173,0.395716,0.205327,0.438294,0.049614,0.354297,-0.057463,0.115951,-0.118473,0.015352,-0.078647,-0.089451,-0.026438,-0.051767,0.926240,0.257368,0.160928,-0.470034,-0.607158,-0.033628,0.144347,-0.222059,-0.394291,-0.234908,0.424461,0.088086,0.314042,-0.293088,-0.277606,0.137056,-0.369440,0.176728,0.179688,0.574322,0.805723,-0.055284,-0.100160,-0.025143,-0.409293,-0.071636,0.222470,0.329306,0.054584,-0.296052,-0.280135,-0.282830,-0.647976,0.110449,-0.161434,0.262815,-0.208559,0.347624,-0.245480,-0.376242,-0.249788,-0.107257,-0.144331,-0.091130,0.107574,0.198438,-0.005328,-0.475838,-0.040665,-0.090931,-0.052688,-0.209763,-0.079737,0.273602,0.077111,0.094934,0.411604,0.409234,-0.115697,0.568805,0.265519,-0.590243,-0.244037,0.398822,-0.193095,0.938698,0.717364,0.794308,-0.301390,0.245288,-0.473304,0.054052,-0.001989,0.872364,0.115644,0.229261,0.091551,-0.024848,0.682487,0.175877,-0.215041,0.357322,0.086091,0.165504,-0.250912,0.401860,-0.073539,0.563052,0.163574,0.287889,-0.297312,-0.390644,-0.213342,0.120087,0.367414,0.055959,-0.048518,0.250427,0.114305,-0.164609,-0.529882,-0.052897,-0.163179,0.166840,-0.279334,-0.040887,-0.826741,-0.600035,-0.390350,-0.510887,0.622420,-0.178978,-0.621082,0.311037,-0.231092,0.288127,-0.119728,1.020037,0.916474,-0.061711,0.049961,0.290144,0.113669,-0.337867,0.180323,0.143036,0.541867,-0.231957,-0.075001,0.234662,0.192829,-0.250355,-0.681574,0.080922,0.446547,0.032523,-0.354910,-0.249940,-0.092902,0.441926,-0.078873,-0.050353,0.415555,0.151718,0.049028,0.031560,0.453862,-0.193057,0.098374,-0.057601,-0.209322,0.133444,-0.022371,-0.623439,0.335259,-0.557203,-0.542563,-0.426325,-0.617221,-0.125649,-0.021200,-0.340435,0.161782,0.106880,0.333548,0.084013,-0.479701,-0.003525,-0.102545,0.507965,-0.545926,0.263105,-0.214296,0.057933,0.270711,-0.144682,-0.210030,-0.288731,-0.121346,0.131789,0.016517,-0.160083,-0.017999,-0.258687,-0.419288,0.009679,0.002688,0.034441,-0.008305,0.086180,0.093902,-0.413732,-0.253018,0.040942,0.251522,-0.201133,0.226601,-0.365721,0.015939,-0.037219,0.031252,-0.050987,0.161588,-0.136099,0.440395,0.369782,-0.331312,0.401807,0.013251,0.642613,-0.121843,-0.304591,-0.720048,0.053416,-0.026965,0.138790,-0.113849,0.590468,-0.172569,-0.484104,-0.170800,-0.346285,0.167673,0.626852,0.409577,0.014677,-0.011148,-0.489344,-0.437720,0.220200,-0.027799,0.388668,0.229332,-0.127256,0.304806,-0.251932,-0.034537,-0.085131,0.011936,0.337881,0.308263,0.059269,0.163818,-0.230984,-0.286634,0.168728,-0.102607,0.134796,0.272612,-0.136012,0.180272,0.589035,0.319878,-0.087661,0.111772,-0.140905,0.129822,-0.115598,-0.043067,0.004966,-0.270965,0.295949,-0.373496,0.010157,-0.008149,-0.489611,-0.855122,0.671399,-0.161431,-0.140570,-0.017154,-0.135994,0.236816,-0.253582,0.178921,-0.185359,0.554361,-0.168206,-0.259699,-0.150488,-0.289903,-0.255403,0.265944,0.518624,0.264647,-0.068568,-0.059616,-0.241218,-0.168041,0.024392,-0.130915,0.362418,1.131284,0.568184,-0.153875,0.031405,-0.047593,-0.422983,0.151382,1.238180,0.572546,0.432759,-0.346689,-0.202423,-0.131025,-0.184153,0.073374,-0.349383,0.261657,0.134793,-0.124079,0.021591,-0.193605,-0.111893,-0.281948,-0.419397,-0.103582,0.416929,0.788606,0.607717,0.057550,-0.388504,-0.432574,-0.854237,0.073265,0.410256,0.515448,0.205906,-0.190525,-0.330550,-0.453750,-0.366675,0.343364,0.266294,0.298351,-0.076726,-0.168316,-0.423636,-0.091967,-0.482340,0.263688,-0.190680,0.049059,-0.231750,-0.083142,0.009462,-0.293475,0.324864,0.395952,-0.300823,-0.048048,-0.290409,-0.113662,-0.073567,-0.434421,-0.098695,-0.278168,0.131773,0.514340,0.165707,-0.044988,0.418597,0.174012,0.143106,0.122659,0.450415,0.590682,-0.564167,-0.179881,-0.129494,0.048570,0.005772,0.337548,0.035851,-0.356679,0.088278,0.033006,0.190512,0.161768,0.248516,0.040371,0.322753,-0.306105,0.141523,-0.144247,-0.501649,0.030963,-0.017451,0.362048,-0.197783,-0.193058,0.236955,-0.120255,-0.160690,0.201892,-0.514533,0.726364,-0.210387,-0.376821,0.321457,-0.156890,0.646093,-0.183481,-0.262503,-0.127397,-0.336503,0.101611,0.303705,0.099075,-0.100579,-0.594681,-0.421739,-0.213574,0.234588,-0.182529,0.133003,-0.068378,-0.093387,0.043643,-0.367795,0.095063,-0.028172,0.099068,0.582522,0.372564,-0.196640,0.031524,0.302393,-0.242743,-0.284986,-0.477550,0.067099,0.302917,-0.007042,-0.171539,-0.352984,-0.001205,0.070441,-0.361917,0.278201,0.019478,0.300730,0.227483,0.175078,0.139894,0.283464,0.224524,0.086243,-0.259940,0.147656,0.409997,0.893807,0.325338,0.727202,0.094679,0.029541,0.018765,0.254296,0.731630,0.657730,0.929211,0.445971,0.032920,0.089100,-0.161886,0.344965,0.353843,0.466450,0.727765,0.179822,0.683776,-0.005630,-0.007374,0.125096,0.573015,0.622667,0.792258,0.791164,-0.037674,0.091680,0.071639,-0.091039,0.158246,0.795615,0.476970,-0.329166,0.412340,0.178257,-0.088371,0.013192,0.364767,0.336715,0.567226,0.006795,0.476213,0.062656,-0.117478,-0.434536,-0.233725,-0.377748,-0.186913,0.140906,-0.320631,0.423116,-0.037947,0.009692,-0.065477,-0.068823,0.061569,-0.065461,0.111042,-0.123789,0.288140,-0.241712,0.263500,-0.006208,-0.539673,0.156938,0.468172,0.329666,0.181037,-0.137762,0.079731,-0.296188,0.006539,0.343188,-0.313088,-0.145681,0.625752,0.118700,-0.217566,0.398177,-0.304742,-0.202546,-0.264054,0.474555,0.262911,-0.087920,-0.525605,-0.226020,-0.074237,0.420191,-0.317720,-0.243308,0.105010,-0.112040,-0.092306,-0.076532,0.027094,0.265766,0.217970,-0.461657,-0.297230,-0.037222,-0.023174,-0.267375,0.097955,0.074157,0.735261,-0.579787,0.109850,0.189923,-0.089010,0.080203,-0.052498,0.165824,-0.281761,0.188848,0.299756,-0.149103,-0.705516,-0.147521,0.380543,0.090453,0.152268,0.296851,-0.282724,0.033242,0.058665,0.246106,0.122155,-0.406310,-0.504455,-0.710345,0.090122,0.429474,0.315347,-0.042939,0.201455,0.576899,-0.482720,0.163022,-0.336117,-0.128878,0.312247,-0.389654,-0.062043,0.602759,-0.141821,-0.119689,-0.563822,-0.266949,-0.201088,-0.260619,-0.498133,-0.183744,-0.316195,0.215237,-0.102500,0.322559,-0.374822,-0.565153,0.265753,-0.486039,0.016630,0.279968,0.324874,-0.864406,-0.921596,-0.880026,-0.290027,-1.011669,0.105181,-0.324315,0.186785,-0.343546,0.057405,-0.272919,-0.074397,-0.810921,0.322992,0.158205,0.071379,0.689586,0.472000,0.087143,0.405162,-0.135113,0.242358,0.066924,-0.023393,0.004396,0.132270,-0.289789,-0.240670,-0.115698,0.140934,0.058073,0.197064,0.247358,-0.070710,-0.330456,-0.119053,-0.188875,-0.328514,0.123587,0.117686,0.026853,0.212575,-0.421373,-0.348594,0.056533,0.240168,0.031208,0.033163,0.150935,0.303906,-0.813671,-0.147204,-0.030940,0.262753,-0.234266,0.015536,0.427715,0.688723,-0.209480,-0.037025,0.618374,0.259712,-0.121156,0.150229,0.414770,0.328565,0.108786,-0.059830,-0.040760,0.562173,-0.292992,0.214042,0.480587,-0.079984,0.075484,-0.424464,0.155712,0.106569,-0.469404,-0.266870,0.135277,-0.208172,-0.025842,-0.069855,0.083397,0.083306,-0.222855,-0.072938,0.041152,0.046537,-0.159468,-0.284604,0.355918,0.001643,0.043675,-0.250741,0.023661,0.285933,0.259142,0.052060,0.152895,-0.007198,0.051983,0.010187,0.073480,-0.043556,0.360517,0.709342,-0.018259,-0.233850,0.056281,-0.026802,-0.476535,-0.507027,0.369289,0.087586,0.046092,-0.057808,0.037400,-0.024534,0.000634,0.254364,-0.012180,0.850168,0.381266,-0.214841,-0.097906,-0.333738,-0.035002,-0.143158,-0.136960,0.247604,-0.368758,0.311688,-0.225400,0.094093,-0.509785,-0.204956,0.046193,0.024963,-0.205050,-0.527929,0.017477,-0.006604,0.633792,-0.405742,-0.241904,0.216272,-0.035579,0.243774,0.025707,0.075632,0.052693,0.222573,-0.017239,0.118553,-0.253103,-0.457577,-0.161580,0.152070,0.096800,0.241695,0.101609,-0.061835,-0.348963,-0.356267,-0.237186,0.005367,-0.297138,-0.075190,0.086895,-0.263438,0.324372,-0.172563,-0.058073,0.029914,0.479585,0.023260,0.279088,0.220714,0.343817,0.465834,-0.027008,0.526289,0.628470,0.322095,-0.095871,-0.076008,0.495035,0.362892,0.049407,0.189456,0.480269,0.037413,0.090611,-0.191245,-0.086927,0.517696,0.033774,0.031680,-0.232905,-0.495491,-0.253581,0.045014,0.070500,0.178954,-0.122534,0.013352,0.436630,0.269422,0.836260,0.073804,-0.038029,-0.064801,0.298724,0.063606,-0.016964,-0.013152,-0.513204,-0.366393,0.170757,-0.175196,0.812918,-0.300973,-0.742103,-0.011478,0.008782,-0.016675,-0.170055,-0.396238,0.424948,0.230845,-0.385424,-0.248232,-0.121280,0.010116,-0.920393,0.096457,-0.427540,0.056937,0.365914,0.165680,-0.069181,-0.413000,-0.178926,0.001569,0.154849,-0.036786,0.384190,0.382563,-0.311126,0.144999,-0.105505,-0.054210,-0.287993,0.230596,0.816104,0.857643,0.389470,0.357314,-0.167315,-0.094525,0.083798,0.331687,-0.079244,0.096572,-0.024192,0.298000,-0.024894,-0.142163,-0.215111,0.092533,0.168428,-0.138978,-0.133529,0.032406,0.090888,0.000229,-0.028589,-0.099380,0.152453,-0.116229,-0.041378,0.017991,0.441031,0.006454,0.022761,-0.123330,0.267776,-0.252879,0.358255,-0.090253,-0.600901,0.303152,0.237572,0.033535,-0.108532,0.053489,0.109211,-0.237213,-0.283225,-0.051163,0.349519,-0.278256,-0.110844,0.304628,-0.241346,0.496060,-0.084287,-0.397020,-0.085176,-0.388483,0.135936,-0.154322,0.354120,-0.103001,-0.035277,-0.089732,-0.149022,-0.398413,0.031182,0.101340,0.118763,-0.166576,0.117683,-0.212607,-0.067741,-0.309787,-0.366758,-0.259387,0.391885,-0.092291,-0.041759,0.015165,0.099681,-0.168095,-0.161441,-0.364457,-0.190988,-0.261185,-0.082623,-0.161339,0.080020,0.075946,-0.274297,-0.251005,-0.349074,-0.557275,-0.093353,-0.413942,-0.032845,-0.121274,-0.612597,-0.609124,0.096833,-0.423845,-0.196557,-0.519932,0.164024,-0.050384,-0.468067,-0.509692,-0.531932,-0.554837,0.098770,-0.295855,-0.241402,-0.171621,-0.681228,-0.852244,-0.267159,-0.584994,-0.549616,-0.061222,-0.021673,-0.134689,-0.524942,-0.248109,-1.136549,-0.444756,-0.086029,-0.609027,0.101036,-0.235290,-0.057327,-0.410054,-0.618482,-0.834184,-0.295460,-0.376695,-0.212064,0.112612,0.100977,-0.222568,-0.303852,-0.083652,0.114356,0.084098,-0.184964,-0.249235,0.024777,0.020462,-0.101410,0.054964,0.070157,-0.027766,0.048842,-0.691277,0.135740,0.057245,0.165675,0.129951,0.318699,0.207259,-0.264555,-0.136386,0.253718,-0.319468,0.031879,-0.248572,0.002089,0.251200,0.107824,-0.764126,-0.279413,0.301738,0.177923,-0.061269,-0.129593,0.183498,-0.070414,0.000160,-0.310828,0.460534,0.348983,0.356919,-0.026124,0.670314,0.092495,-0.012423,-0.114459,0.154304,0.051983,0.487275,0.221038,-0.396545,0.550314,0.614751,0.217465,-0.410309,0.037141,-0.286833,0.282041,-0.260052,0.040268,0.011094,0.381194,0.089491,-0.131636,0.006562,-0.333852,0.294814,-0.099455,-0.039119,-0.958511,0.207749,0.161436,0.260805,0.226461,0.235659,-0.503067,0.966063,-0.510999,-0.313205,-0.172152,0.118739,0.056774,-0.194863,-0.298538,0.013314,-0.087125,-0.232007,-0.270876,0.200903,-0.116807,-0.323086,-0.487965,0.265173,0.406914,-0.002189,0.347586,0.288207,-0.800048,-0.197872,0.331450,0.000976,-0.387932,0.081950,0.200367,0.111854,0.207223,-0.555139,0.375259,-0.103186,-0.181145,0.034568,0.017065,0.123672,-0.048648,0.081297,-0.387114,0.306456,0.380382,0.296816,0.456749,0.127191,0.693507,-0.314801,-0.097797,0.406256,-0.265415,0.112381,0.721910,-0.290305,0.366697,-0.111826,0.657272,-0.349331,-0.305568,-0.051212,-0.220300,-0.161142,0.280375,-0.048653,0.072395,-0.200194,-0.071844,0.368313,0.321880,0.435773,0.219890,0.024395,-0.100850,-0.152115,-0.030310,-0.026212,0.212233,-0.283731,-0.086756,0.017273,-0.040368,-0.330747,0.197176,-0.015619,0.673652,-0.048188,0.377518,0.514238,0.070722,-0.253057,0.388408,0.421197,0.498525,0.229948,-0.037593,-0.097677,0.086242,0.303391,-0.544907,-0.664404,0.509937,0.031996,0.172855,-0.582570,-0.159149,-0.152408,-0.491835,-0.179561,0.236912,0.194437,0.520412,-0.510635,0.012503,-0.415442,-0.210057,-0.021958,-0.081078,0.329787,-0.162024,-0.090293,0.277629,0.186552,-0.035068,0.050743,0.281790,0.043695,0.077880,-0.047798,0.289514,0.017766,0.089721,-0.074885,0.018664,0.073165,-0.115842,0.028656,0.035846,0.232694,-0.196427,-0.426663,-0.200471,-0.044988,0.044093,0.005131,-0.221781,-0.031713,0.056840,0.060207,0.095104,-0.458566,0.164753,0.042287,-0.129044,-0.333641,0.419034,-0.115557,0.140101,-0.349039,0.076228,0.038300,-0.149459,-0.118768,0.385962,0.107490,-0.026626,-0.320611,0.254156,0.098389,-0.158455,-0.110241,0.166763,0.648092,-0.030468,-0.584495,0.559281,0.109709,0.037491,-0.097472,0.548110,0.089482,0.039536,-0.452869,-0.025698,0.429749,-0.149441,-0.055430,0.236964,0.072749,-0.346516,-0.947183,-0.193136,-0.251326,0.049137,0.290372,0.083575,0.102063,0.031768,-0.224340,0.193167,-0.536020,0.023252,0.175888,0.614209,0.382949,0.418465,0.208438,0.442649,-0.145113,0.188028,0.268926,0.377556,0.127528,0.101192,0.308577,0.420830,0.480222,0.108679,0.168391,-0.336304,0.010973,-0.511706,-0.467562,0.098450,0.306563,0.045161,-0.174560,-0.118607,-0.581264,-0.579969,-0.325577,-0.320549,0.770152,-0.107445,0.106868,-0.191559,-0.759120,-0.352384,0.217583,-0.396627,-0.381143,0.027966,0.161761,-0.139266,0.663524,0.273307,0.176394,0.303234,-0.053093,-0.026134,0.130404,-0.020869,0.047784,-0.088259,0.081141,-0.356582,0.382971,-0.312768,-0.055289,-0.014482,-0.054042,-0.064502,-0.254868,-0.254511,0.074824,-0.296639,-0.075016,0.572339,-0.773930,-0.395484,0.094592,0.254967,0.075103,-0.133368,0.177150,0.530622,0.112341,-0.747979,0.066944,0.250697,-0.168453,0.278181,0.188614,0.188513,-0.351021,-0.420499,0.019240,-0.221319,-0.471580,-0.494562,0.215782,0.759118,-0.244212,-0.170835,-0.559390,-0.506563,-0.172845,-0.441569,-0.342560,-0.310706,-0.299527,-0.064321,0.347482,-0.074604,0.499439,0.416561,-0.326671,0.098607,-0.138512,-0.061176,-0.477558,0.051734,0.309089,0.299699,0.049697,0.052463,0.026076,-0.112365,0.159219,-0.060237,0.354061,0.054001,0.124433,0.019978,0.073150,-0.272979,0.247431,-0.472645,-0.018015,-0.193202,-0.084027,-0.004700,-0.131737,0.109544,0.035420,0.040376,-0.026189,-0.022272,0.039844,-0.051019,0.010421,0.068421,0.067605,0.101046,0.404498,-0.251338,0.013208,0.489677,-0.292218,0.072451,-0.036070,0.228584,0.260380,-0.089106,0.312774,0.439315,0.036885,-0.930542,0.569129,0.479236,-0.122042,-0.019602,-0.046269,0.577695,0.367045,-0.959489,-0.093750,0.543575,0.343498,-0.114672,0.193083,0.361759,-0.104544,-0.461213,-0.046589,0.481229,-0.216464,-0.483037,0.114315,0.075329,0.113820,0.044102,0.226481,-0.086412,-0.047357,-0.106522,-0.012308,0.546968,0.023412,0.097385,0.250075,-0.044429,-0.036413,-0.018574,-0.192690,-0.027965,-0.702356,-0.369396,-0.552034,-0.354858,0.116633,0.175426,-0.164097,-0.267043,-0.281087,-0.113484,-0.331625,0.081834,0.204607,-0.018353,0.141793,1.076867,0.272712,-0.252755,-0.075710,-0.226980,-0.062107,0.223185,-0.066774,-0.113808,1.055079,0.584550,0.667815,0.390541,-0.086595,-0.006045,0.024048,0.553128,-0.303279,0.722286,0.976227,0.177591,0.585622,-0.225406,-0.128187,0.161998,0.177652,0.428854,0.450371,0.277273,0.279292,-0.062105,0.219694,-0.000721,0.025981,0.069714,0.025208,-0.044115,0.052530,0.221104,0.248556,0.077798,0.221274,0.351150,0.183215,-0.116782,0.488959,0.007429,0.289825,-0.089613,0.290037,0.255610,0.427626,0.385643,0.103107,-0.023387,-0.532240,0.269568,0.250051,0.722050,-0.377313,-0.032311,0.698736,0.265668,0.064807,0.334846,0.122668,0.115803,-0.123617,-0.626535,0.109582,0.293023,0.175318,0.401352,-0.049272,-0.273719,-0.187562,-0.502514,-0.573441,0.181986,-0.207097,-0.136138,-0.038056,0.022983,-0.156407,-0.562761,-0.052716,0.579512,-0.018200,-0.039543,-0.008634,-0.198375,0.154053,-0.037841,-0.135326,-0.007084,-0.141589,0.491063,0.159053,0.210362,0.104719,-0.075702,-0.511731,-0.132787,-0.025478,-0.268172,-0.144008,0.005885,-0.035316,0.538983,0.167990,-0.086826,-0.433379,0.358230,-0.747141,0.465160,0.217193,0.092744,-0.137136,0.159465,0.709215,0.282078,0.112231,0.045037,0.405237,0.404426,-0.231506,-0.932029,-0.257531,0.312763,-0.351991,0.622864,0.041360,0.028665,-0.499397,-0.781364,-0.790411,0.020133,0.351139,-0.708387,-0.201722,-0.259187,-0.358977,-1.551784,-0.321145,0.257496,0.138392,-0.673718,-0.412790,-0.960134,0.427725,-0.533423,-0.002121,0.184798,-0.080423,-0.554161,-1.070107,0.221675,0.326286,-0.190343,0.313727,0.292784,0.041783,-0.161123,-0.199323,0.128288,0.119082,0.361519,-0.333762,-0.348140,-0.216807,0.307473,0.087326,-0.119362,-0.162922,-0.258227,0.020158,0.473374,0.594459,0.259548,0.305698,-0.144298,-0.151748,0.070317,-0.267250,-0.022242,-0.206385,0.092683,0.121227,0.001249,-0.155521,-0.024046,0.103093,-0.529957,-0.637105,0.861500,-0.152162,-0.997395,-0.369521,-0.110432,0.246763,-0.580239,-0.300160,0.064618,-0.568110,-0.128501,-0.173398,-0.107902,0.177466,-0.185099,-0.375624,0.553083,-0.028055,0.354350,0.012180,0.162498,0.236784,0.360525,-0.135383,-0.063830,-0.363412,-0.222956,0.307766,0.374189,-0.041997,-0.415933,0.064160,0.062428,0.118897,-0.131283,-0.186380,-0.124302,0.217797,0.050432,-0.067575,-0.013564,0.335241,0.125291,0.021249,-0.030797,-0.181162,0.127497,0.083834,-0.574092,-0.220983,-0.246529,-0.201710,0.119162,-0.024053,0.286355,-0.175524,-0.010292,0.116376,0.064188,-0.024692,0.311611,-0.241292,-0.322157,0.664027,-0.518976,-0.595476,0.492892,0.439584,0.193766,0.021812,0.222023,0.283978,0.506914,0.391445,0.203120,-0.333371,-0.019408,-0.003298,-0.461229,0.175310,0.295489,-0.148451,0.139853,-0.264219,0.015066,-0.235872,0.142758,0.019513,0.166044,0.062158,0.236962,-0.063664,-0.067142,-0.168101,-0.343802,-0.135704,0.364645,-0.382304,-0.495312,-0.592109,-0.119301,-0.091459,-0.226685,0.294111,-0.132542,0.140165,0.006104,-0.227053,-0.020017,-0.043781,-0.542080,-0.724558,0.077638,0.249485,0.288522,-0.144510,-0.044510,-0.116265,-0.147563,0.229724,-0.163693,0.204202,-0.450868,-0.401314,-0.071649,0.106036,0.140048,-0.364036,0.449355,0.173551,0.051364,-0.355036,0.029793,-0.301691,0.324858,-0.199054,0.111644,0.162306,0.114692,0.081469,-0.012621,-0.005981,-0.200158,-0.815071,0.160628,0.365213,-0.094528,-0.141276,0.079826,-0.176003,-0.368037,0.796138,0.271268,0.836329,0.443299,0.007327,-0.025473,0.006292,1.145784,-1.161572,-0.297976,0.281319,0.019010,-0.008617,0.515022,0.199844,-0.425589,-0.240960,-0.151639,0.069269,0.175481,0.024222,0.134533,0.149588,0.345113,0.299877,-0.101465,0.048017,-0.211981,0.667366,0.056680,0.306025,0.479829,0.475325,-0.154056,0.000103,0.184620,0.529432,0.253377,-0.302389,-0.844927,-0.799715,0.302742,0.170627,0.463313,-0.386827,-0.654831,0.106697,-0.566181,-1.195661,-0.382599,0.111990,0.398632,0.828684,0.086857,0.020229,0.208229,-0.692265,-0.415771,0.161455,0.519643,0.459932,-0.468173,0.037735,0.152776,-0.275998,0.041706,0.051027,0.026352,0.065900,-0.207139,-0.233009,-0.177222,-0.052194,-0.038782,-0.005249,-0.337560,-0.050696,-0.007580,0.063576,-0.172436,-0.348818,0.202082,0.340605,0.106710,-0.303353,0.101494,-0.150814,0.229889,0.058314,0.111037,-0.118738,-0.064918,0.006525,0.331949,-0.075671,-0.140427,-0.031680,-0.115705,0.171501,-0.051632,0.162348,-0.102318,0.064425,0.375356,-0.329039,-0.542659,-0.556245,0.190586,-0.116629,-0.075630,-0.059193,-0.103952,0.174441,0.402272,0.193493,-0.156244,-0.543588,0.035007,-0.150008,-0.168293,0.146662,0.023423,-0.009898,-0.268186,0.004012,0.254424,0.117952,0.264439,-0.113497,0.505360,-0.228912,0.307898,-0.364360,0.286838,-0.167197,0.794631,0.528170,-0.033178,-0.081446,0.467687,0.362032,-0.037408,-0.058940,-0.198728,-0.333098,0.511635,0.635535,0.281121,0.321891,0.081238,-0.181536,0.046122,-0.215728,-0.088684,-0.718852,-0.514936,-0.001174,0.055275,0.008621,-0.274682,-0.104943,-0.880779,-1.447978,-0.188412,-0.190780,0.136229,0.030182,-0.419372,-0.146081,-0.021968,-0.149831,-0.126038,-0.134662,-0.058737,-0.125803,0.391726,0.171201,-0.011350,0.845933,0.162593,0.244900,-0.069896,0.163709,0.907438,0.472852,0.729251,0.611624,0.673159,0.264065,0.015429,-0.120184,0.123811,0.297681,0.291088,0.542819,-0.020716,-0.064986,-0.103118,-0.070403,0.161319,-0.128034,-0.174650,-0.180040,0.073540,0.142295,0.055919,0.374268,-0.250529,0.080444,-0.001460,0.111031,0.286366,0.557184,0.091759,0.574180,0.140415,-0.148741,-0.417521,-0.216439,-0.871681,-0.090527,0.050379,0.213816,0.091340,-0.313098,0.113061,0.196448,0.070880,0.134840,0.806522,0.275489,-0.044096,0.328450,0.733087,0.413949,-0.616731,0.229753,0.358935,0.082378,-0.142541,0.189005,0.464786,0.262310,-0.735519,-0.099136,0.567102,0.652874,-0.066371,0.633989,0.184486,-0.104025,-0.734269,0.155207,0.293596,0.769539,-0.139232,0.175954,-0.037973,-0.004628,-0.536663,0.082432,0.138369,0.141005,-0.833061,0.001520,0.462851,0.053658,-0.364413,0.016655,-0.049697,0.139589,-0.557611,0.010567,0.125352,-0.296981,-0.177013,0.546252,0.138276,-0.643978,0.243101,-0.491182,-0.358039,-0.457657,-0.437641,0.088339,0.162917,-0.185061,0.154181,-0.493893,0.652777,0.211939,0.093489,-0.127825,-0.654364,0.265304,0.294771,-0.457743,-0.610986,-0.358179,-0.162899,-0.218057,-0.386043,-0.093123,0.564571,-0.316927,-0.039145,0.151620,0.531850,-0.033345,-0.846638,-0.497778,-0.273007,-0.248685,-0.443988,-0.121326,0.162777,-0.426000,-0.494202,-0.377066,-0.069002,-0.011783,0.132863,-0.715260,-0.067107,-0.040293,-0.600612,-0.063545,0.157646,0.299097,-0.050918,-0.029079,0.023299,0.387397,0.192395,-0.224093,0.359368,-0.028731,-0.545703,-0.375405,-0.535414,-0.141182,0.040387,-0.189443,0.280609,-0.198469,-0.299289,0.210716,0.152810,0.017058,0.245029,0.103776,0.376713,0.465379,1.123183,0.422655,0.087281,-0.382339,0.189542,-0.088211,0.089486,-0.431601,0.288683,-0.168353,-0.222329,-0.028933,-0.077316,0.123116,0.022410,0.110160,-0.194478,-0.129483,0.194470,-0.360063,-0.035672,-0.025041,0.064552,-0.130644,-0.227572,0.046211,-0.167300,-0.314148,0.003301,-0.118400,-0.283039,-0.050150,0.125889,-0.395776,-0.133100,-0.489728,0.011662,-0.103692,0.285493,0.107153,0.205500,0.051748,0.076793,0.036092,-0.013915,-0.528735,0.033991,-0.305754,-0.567352,0.077469,-0.147466,-0.133499,-0.306855,-0.273418,0.210917,0.021620,0.535291,0.127503,-0.033461,0.014543,-0.115253,-0.127799,0.071011,-0.393415,-0.324350,-0.784710,-0.214937,-0.604779,0.311992,0.024636,0.078126,0.337375,0.020218,-0.398800,0.370801,-0.021850,0.231983,0.334117,0.157838,0.169104,0.689017,-0.342322,0.006982,0.134595,0.347707,-0.074184,0.032988,-0.344198,-0.218246,0.502765,0.325800,0.130734,0.181103,-0.048460,-0.059445,0.064047,0.003867,0.009208,0.445861,0.037190,0.221085,0.068836,0.568971,-0.251250,0.593016,0.443860,0.826879,0.454386,-0.135464,-0.024056,-0.446931,0.084659,-0.158862,-0.324373,0.075077,-0.330808,-0.071255,-0.098344,0.121083,0.010959,0.641193,0.817212,0.092794,0.666687,-0.040002,-0.022055,0.082992,0.332253,0.878177,0.326524,0.541819,0.410149,-0.067006,0.156362,0.300613,0.278840,0.178490,0.158074,0.374240,-0.001832,0.040122,-0.234591,-0.136448,-0.113736,0.015889,0.093431,0.106793,0.036099,-0.087239,-0.128967,0.325515,0.553081,-0.565790,0.113529,0.433472,-0.177441,-0.055745,0.165073,0.391280,-0.296657,0.119602,0.077122,0.761568,-0.440237,-0.048852,-0.103109,0.090716,0.833412,0.021202,-0.092404,-0.277223,-0.098856,-0.124622,0.006148,0.498768,-0.225694,0.426903,0.068854,0.099853,-0.369872,0.070279,0.178670,-0.248431,0.167642,-0.069019,-0.114708,-0.370966,0.267185,0.372401,0.048622,0.307764,-0.115339,-0.481764,0.727454,0.263185,0.707319,-0.191070,0.076347,-0.127128,0.180950,0.080076,0.393679,-0.162242,0.044076,0.222822,-0.124571,-0.118825,-0.658847,0.264148,0.108569,-0.148420,-0.439880,0.489533,0.133680,-0.372392,-0.558477,-0.074497,0.137851,0.457273,-0.236834,0.171168,-0.101923,-0.188969,-0.114396,0.177914,-0.003136,0.044775,-0.024424,0.042604,-0.081943,0.292355,0.275764,-0.074448,-0.095758,-0.049624,-0.108480,-0.145018,-0.263081,-0.118097,-0.304618,0.258658,0.671969,-0.083450,0.049460,-0.011552,-0.125195,0.242132,-0.003577,0.074494,-0.078907,-1.004675,0.136522,0.105059,0.113624,0.035255,-0.482213,-1.111823,-0.350016,-0.137405,-0.334015,0.252314,0.224141,-0.125163,0.782194,-0.068055,0.161682,0.118520,0.483268,-0.034301,-0.056558,-0.059423,0.158667,0.322243,-0.134237,0.249111,0.369021,0.058853,-0.178752,-0.234223,-0.543586,-0.211677,-0.115521,0.007083,0.059623,0.013234,0.056568,-0.027731,0.200342,-0.228430,0.265523,-0.172441,0.243351,-0.062891,-0.273190,0.365097,0.986014,0.262633,0.421933,0.592190,0.689149,-0.011339,-0.214488,0.558320,0.584054,0.785932,0.503307,0.763461,0.785119,0.113872,0.035365,-0.147215,0.384459,-0.131595,0.408699,0.353821,-0.095705,0.007298,0.011951,0.012568,-0.559439,-0.515866,-0.693830,-0.363613,-0.221462,0.123228,0.202958,-0.382519,-0.678553,-0.312169,-0.022382,-0.183282,-0.071872,-0.168357,0.078085,0.507210,0.398744,0.378677,0.377229,-0.510221,-0.176956,-0.008783,-0.202582,0.433967,0.186671,0.718334,0.796699,0.569935,-0.155766,-0.174318,-0.080896,0.282777,0.063771,0.112865,0.349489,0.576688,0.007615,0.180045,-0.056100,0.120794,-0.116693,0.077988,0.092592,-0.218790,0.141338,-0.097828,-0.592695,-0.776709,-0.624721,-0.420936,-0.879914,-0.786056,0.165622,0.151075,0.001834,-0.347504,-0.195608,0.298784,0.154050,0.118034,0.440358,0.340317,-0.380337,0.334398,-0.055201,0.881230,0.347698,0.898521,0.523183,-0.465863,-0.323984,-0.078951,0.370199,0.555695,0.218969,0.311648,0.740634,-0.486141,-0.045917,0.237356,-0.417564,-0.200585,-0.499095,0.489991,0.180456,0.023271,-0.246259,0.079717,-0.204922,0.100777,0.001196,0.198504,-0.217270,0.181546,-0.118891,0.467416,-0.070101,-0.409949,0.248243,0.260581,0.328245,0.132047,-0.045005,-0.531683,-0.240527,0.059074,-0.266106,-0.533187,-0.288646,-0.214003,0.230779,0.019833,-0.002853,0.841060,0.116479,0.860926,0.704904,-0.202266,-0.057252,0.378085,0.110684,0.407065,0.223473,0.166207,0.471620,0.272139,0.492279,-0.033878,-0.194857,-0.038990,-0.162494,0.475136,-0.021820,0.057883,0.233236,-0.596167,-0.568780,-0.080033,0.003048,-0.577478,0.134252,0.675918,-0.314425,-0.324678,-0.461253,-0.618185,-0.234823,-0.346956,0.249421,-0.156739,-0.099246,0.188806,-0.761477,-0.837926,-0.513672,-0.157405,0.058621,-0.112899,0.071802,-0.445559,-0.826595,-1.074873,-0.536488,-1.041037,-0.568359,-0.293598,0.127709,0.078558,-0.305649,-0.122496,0.353809,0.026154,0.134530,-0.031099,0.081584,-0.167624,0.147828,-0.017717,-0.026706,-0.024190,0.055566,-0.005193,0.258153,0.243055,0.235817,0.530536,0.395095,0.561298,0.245434,0.009294,-0.138906,0.097866,0.232453,-0.119693,-0.096303,-0.484913,0.026401,-0.072783,0.133596,0.075343,0.152986,0.143137,-0.785104,-0.578068,-0.034754,-0.200885,0.050504,-0.865369,0.408261,0.289527,0.385020,0.364280,-0.146339,-0.007417,0.044116,-0.454072,0.355947,0.438019,-0.279974,-0.295865,0.407461,-0.216735,-0.143782,-0.435595,-0.009107,0.141067,-0.144178,0.004376,0.180275,-0.161379,-0.215749,-0.031193,0.189277,-0.097499,0.110464,-0.167255,0.034154,-0.197966,-0.284861,-0.075299,-0.163551,0.226232,-0.024922,0.305387,0.266761,-0.390457,0.333033,-0.194866,0.241281,0.111390,0.037432,-0.160757,-0.098513,-0.023157,-0.077391,-0.171451,0.263497,0.006229,-0.436573,0.388142,-0.093164,0.291429,0.146169,-0.310145,0.289333,-0.026776,-0.038168,0.097678,-0.031907,0.326670,0.400096,-0.015963,-0.029676,-0.140596,0.103451,-0.071920,0.312709,0.187548,0.103482,-0.320582,0.395979,0.027299,-0.322031,0.037890,-0.049426,0.100023,0.151886,-0.013398,-0.150975,-0.080493,-0.094359,0.222569,-0.160454,-0.076330,-0.451724,-0.400690,0.166238,-0.305987,0.144322,-0.064245,0.299365,0.022160,-0.000854,-0.174408,0.257595,0.011402,-0.061185,-0.204988,0.174525,0.226113,0.261292,-0.424400,-0.509584,-0.184185,-0.309397,-0.102454,-0.100118,-0.159660,-0.160288,-0.841451,-0.874817,-0.232263,-0.883935,-1.209479,-1.173162,-0.060567,0.042098,-0.588940,0.206583,0.398203,-0.087699,-0.377312,-0.337561,-0.046688,-0.018921,0.278616,0.384204,0.371777,-0.077216,-0.548589,0.189871,-0.059503,0.141211,0.264759,0.070050,0.551584,0.702408,0.145803,0.593730,0.301796,0.259003,-0.398953,0.247753,-0.020772,0.327975,-0.414953,-0.028265,0.070929,0.037257,0.464672,0.028842,-0.184977,0.129521,0.426410,-0.281520,0.675154,0.179819,0.507544,0.368867,-0.323038,0.098161,-0.033197,-0.919004,-0.206977,0.237022,0.083779,0.452418,0.064940,-0.759831,-0.034687,-0.309031,-0.122751,0.029624,0.580445,0.603998,0.559535,0.149867,-0.675001,0.119438,-0.194639,0.075262,0.747077,-0.156624,-0.165216,-0.273703,0.322973,-0.563497,-0.137398,0.283698,0.234409,0.636037,0.543563,0.108072,0.242890,-0.186345,0.011292,0.194885,0.107150,0.129939,0.178035,-0.016366,0.334353,0.087518,-0.199075,-0.016800,-0.064468,-0.122267,0.176752,0.001317,-0.071709,-0.166336,-0.100391,-0.092167,-0.104961,0.080466,-0.184544,-0.033357,0.174315,0.029747,-0.257656,0.105775,0.080757,-0.101439,-0.071935,0.111305,0.096701,-0.106924,0.021921,0.265034,-0.231684,0.153238,0.234329,0.047866,-0.192149,0.094718,0.184393,0.090187,0.348471,-0.295490,-0.174934,0.279933,0.339591,0.186980,0.124494,0.175933,-0.275558,-0.195149,0.131551,0.120154,0.214050,-0.104400,-0.079819,-0.083749,-0.054851,0.397194,-0.012665,-0.240464,-0.141749,0.235235,-0.009885,-0.145442,0.032945,0.175767,-0.177778,0.108171,0.019211,-0.173209,0.046994,0.212260,0.010266,-0.207278,-0.029663,-0.039520,0.193303,-0.378745,0.152035,0.112852,0.426717,0.111595,0.391706,0.514942,0.126537,-0.326956,0.066307,0.105696,0.383838,-0.259816,0.492228,-0.063265,-0.045379,0.059199,-0.256889,-0.046017,0.383540,-0.210109,-0.380721,-0.311683,-0.126993,0.067140,-0.088256,0.095264,-0.506190,0.574818,-0.376572,0.170462,-0.195092,-0.222859,-0.104754,0.073295,0.141241,-0.310703,0.440199,-0.295226,-0.003913,-0.346826,0.177270,-0.179772,-0.136642,-0.186737,-0.092933,0.088827,-0.234612,0.030941,0.271142,-0.153309,0.166098,-0.221856,0.349318,-0.447132,-0.430250,-0.099562,-0.367604,-0.200949,0.700761,0.547859,0.412473,0.497775,-0.200849,0.492922,-0.583925,0.083929,-0.131095,0.016128,0.140358,-0.097655,-0.038179,0.112234,-0.093653,0.241345,-0.182536,-0.308905,-0.811871,-0.934041,0.455807,0.506927,1.460621,0.066171,0.147042,0.453319,-0.504224,-0.628717,0.026249,0.320186,0.364496,0.332179,0.143145,-0.094300,0.566284,-0.440093,0.295203,-0.279921,0.090036,0.128786,-0.802659,0.458269,-0.245448,-0.318033,0.042594,-0.009482,-0.507618,0.188131,0.000244,-0.149781,-0.260233,0.915455,0.073911,-0.183978,-0.248835,-0.337840,0.081911,-0.509429,0.527865,0.234964,0.033338,-0.074094,-0.085939,-0.194087,-0.067396,-0.196453,-0.461534,0.295759,-0.511658,-0.090512,0.181485,0.205801,-0.550875,0.392662,-0.043646,-0.302714,0.298287,-0.420665,0.013503,0.165363,0.263772,-0.516738,-0.005718,0.914430,0.074261,0.782262,-0.408143,-0.619453,0.061463,-0.001642,0.096866,0.511040,0.202602,-0.062576,-0.384297,-0.228789,0.035655,-0.350394,0.593587,-0.038954,0.744394,0.172676,0.156155,-0.089027,0.966093,0.967947,0.136854,-0.070920,0.600188,0.955782,0.321166,-0.383217,0.172336,0.572166,-0.228601,-0.277571,0.552479,0.090729,-0.194123,-0.428379,-0.195955,-0.042216,0.369387,-0.181271,0.303970,-0.118684,-1.043768,0.113801,-0.050484,-0.036944,-0.546114,-0.261699,0.459641,-0.170401,-0.041836,-0.000103,-0.327990,0.455865,0.141548,0.185897,0.154544,0.402108,0.055362,0.458881,-0.151432,-0.383758,-1.037102,0.080493,0.275230,0.498976,-0.029577,0.040712,0.019740,-0.455107,-1.182980,-0.438247,-0.295000,0.219630,0.407309,-0.127779,-0.014008,-0.058449,0.470849,0.248073,0.395421,0.308842,0.164068,0.158161,0.325712,0.288864,0.277694,0.528219,0.291705,0.005929,0.153424,-0.418716,-0.078212,0.528871,0.045166,0.563066,-0.264635,-0.379818,-0.256146,0.335187,-0.350506,-0.012564,0.201821,-0.110830,-0.061593,-0.353897,-0.466862,0.104292,-0.943777,-0.461307,-0.634443,-0.808878,0.052309,0.806294,0.354740,-0.120715,-0.062498,0.120683,0.387727,0.163685,0.016493,0.003036,-0.230236,-0.001042,0.183990,0.073963,0.082572,0.442682,-0.276897,-0.506476,-0.144076,-0.493629,0.042686,0.014282,0.452211,0.295987,-0.197604,0.060625,-0.090330,-0.335935,0.254101,0.150855,0.084303,-0.233476,-0.454266,-0.315878,-0.081267,-0.211649,-0.218865,-0.007422,-0.194127,-0.306867,-0.209939,0.079008,-0.239983,-0.033128,-0.171588,-0.164029,0.399487,-0.301870,-0.290824,0.044433,-0.128598,0.277730,0.368024,0.213243,-0.081164,0.062216,0.383927,0.515167,-0.220345,-0.439395,0.316113,0.492383,0.386211,0.160383,-0.041290,0.175920,-0.149894,0.029852,-0.296231,-0.026267,0.627953,0.768613,0.371135,0.173979,-0.047547,-0.103840,-0.430737,0.086797,-0.182525,-0.122383,-0.235653,-0.097173,-0.013466,0.025430,-0.264569,-0.322421,-0.544025,-0.514286,0.048129,-0.127106,0.017935,0.069792,-0.048285,-0.364484,-0.349895,0.256137,-0.581269,0.214225,-0.036031,0.092869,-0.088233,-0.321415,0.168199,-0.064781,-0.123046,0.091097,-0.001083,-0.390970,-0.116204,-0.299907,0.082093,0.082899,-0.001810,-0.103759,0.010516,0.042030,0.253647,-0.638180,-1.066427,-0.421596,-0.619391,-0.060141,-0.029398,-0.292813,0.378520,0.234012,-0.111301,-0.068975,0.027225,0.627010,0.183464,-0.016890,0.223048,0.470005,0.331424,-1.116082,-0.384206,-0.103026,0.453657,0.272649,0.454720,-0.228754,-0.355325,-0.014904,-0.788327,-0.195475,0.000819,0.328314,-0.467578,-0.009214,-0.115038,-0.772075,-0.014123,-0.173262,0.120245,0.048608,0.148695,0.029155,-0.133585,-0.016885,-0.241509,0.374242,-0.062370,0.296706,-0.126142,0.227202,-0.094444,0.338075,0.250188,0.179284,-0.037114,0.127625,-0.393730,-0.095785,0.279184,-0.158108,-0.422148,-0.213722,-0.240775,-0.101744,-0.300526,-0.069554,0.323365,-0.093207,0.035115,-0.208723,-0.075872,-0.124790,-0.202826,-0.233051,0.050454,0.039409,0.042573,0.045452,0.051118,-0.267602,0.042585,0.836985,0.664642,0.205375,-0.291459,-0.446170,-0.130584,-0.086306,-0.059987,0.108084,0.234349,-0.017840,-0.219196,-0.337077,0.135712,-0.479459,0.359589,0.110698,0.032244,-0.223075,0.294305,0.281243,0.352884,-0.174517,0.151721,0.659734,0.098504,0.112923,0.072071,-0.134160,0.083391,-0.180715,-0.009332,0.061946,-0.337543,-0.506602,0.108016,-0.316766,0.026244,0.085973,0.098958,-0.117082,0.377143,0.020053,-0.078332,0.347551,0.099853,0.340026,0.191082,0.128059,-0.014593,-0.320258,0.167456,-0.221839,-0.103109,0.266071,-0.022718,0.297890,0.118995,-0.344610,-0.165125,0.359520,0.336157,-0.376883,-0.066813,0.127375,-0.201888,0.163250,-0.047186,0.278100,-0.090568,-0.018240,0.121955,0.328090,0.120862,-0.079121,-0.288436,-0.309182,-0.131702,0.047228,0.017800,0.046571,-0.342174,-0.611678,-0.558757,0.105079,0.211695,0.096896,0.009472,0.592920,0.428238,-0.472358,-0.373297,0.300765,-0.058089,0.089888,-0.447777,0.057650,-0.263105,-0.117199,-0.246668,-0.299268,-0.138739,0.025994,0.278258,-0.131739,-0.078526,0.141903,0.154262,0.129514,-0.012124,0.180834,0.349519,-0.291689,0.105594,0.182469,-0.227868,-0.200237,0.179433,0.154910,0.182852,-0.038522,0.075716,-0.329813,-0.270038,0.019850,-0.201280,-0.050705,-0.237257,0.221336,-0.023180,-0.237425,0.137989,0.173478,-0.286954,0.038285,-0.212588,0.539586,0.068969,-0.265929,0.259234,0.244862,-0.252156,0.265843,0.079069,0.774162,-0.560129,-0.089346,-0.299035,-0.245064,0.079654,-0.546242,0.179403,0.202196,-0.124606,0.320672,-0.304195,0.402454,-0.267266,-0.674575,0.587025,0.458753,-0.020279,0.299217,0.239749,0.080608,-0.089342,0.132905,-0.054019,0.272528,-0.123943,0.168714,-0.194441,-0.147679,0.169374,-0.431951,0.240795,0.407868,-0.229281,0.589083,0.323484,-0.691316,0.286666,-0.280605,0.202578,-0.310547,0.415035,-0.216473,0.151111,-0.010329,-0.008956,-0.392049,-1.044491,0.568539,-0.133471,-0.342249,0.412501,-0.066477,-0.424185,-0.884031,-0.174577,-0.499048,0.265108,-0.056947,0.225109,-0.180329,0.443544,0.026744,-0.599404,0.148243,-0.722485,-0.959594,0.232697,0.280945,0.480606,0.255869,-0.446850,-0.103253,-0.038415,-0.245003,-0.769625,-0.128479,0.852454,0.438541,-0.240604,0.592601,-0.142969,0.013172,-0.158886,-0.508020,-0.018368,-0.861456,0.033757,0.368741,0.717538,0.226806,0.447716,0.099871,0.399830,-0.569329,0.153617,0.519479,0.465857,-0.761293,0.497641,-0.036082,-0.345321,0.101274,0.323508,-0.156848,0.179065,0.274312,0.850638,-0.602909,-0.131457,0.021584,-0.501552,0.113589,0.173670,0.167741,-0.471309,-0.723155,-0.296663,-0.192041,-0.900416,-0.137017,0.922142,0.442860,0.902239,-0.110745,-0.079812,-0.330906,-0.137425,-0.377663,0.020264,0.194662,0.197967,0.440379,0.077113,0.022497,-0.235130,-0.045657,0.051723,-0.069189,-0.306955,-0.384260,0.038850,0.328566,0.310394,0.338722,-0.085484,0.179676,0.369566,-0.221018,0.255589,-0.086521,-0.031513,-0.414200,-0.287177,0.007176,0.233328,-0.289580,0.185434,0.114730,-0.107535,0.506386,-0.611835,0.095081,0.327621,-0.506487,0.053248,-0.160713,0.083639,0.173622,-0.236590,0.295203,-0.840377,-0.284304,0.049572,-0.130825,0.056472,0.111438,-0.091167,0.074822,0.319221,0.261302,-0.096709,0.425774,0.679967,0.436759,-0.071084,-0.573068,-0.603376,0.135857,0.206619,0.294272,0.137133,-0.097855,0.285726,-0.399772,-0.479056,0.119942,0.111367,-0.148274,-0.354059,-0.564458,-0.292082,-0.230744,-0.446800,0.069222,-0.111279,-0.083912,-0.485455,0.341606,0.160606,-0.009951,0.218018,0.348200,-0.072413,0.445694,-0.669911,-0.181388,-0.335118,-0.602861,-0.427935,-0.387367,0.294383,0.202437,0.259230,-0.130713,0.093580,0.178617,0.024979,-0.087276,0.395301,0.125991,0.239012,0.062104,0.245879,0.233093,-0.276987,0.180389,0.330160,0.246121,-0.188389,0.091172,-0.060788,-0.628099,0.277495,-0.219607,0.041986,0.065655,0.289551,-0.344022,0.284365,1.442993,0.403039,0.051595,0.086259,-0.220915,0.184312,-0.279014,0.133844,-0.038487,-0.143376,0.079883,0.196110,0.024356,0.136344,-0.213361,0.101676,0.164316,-0.543542,0.060273,0.070921,0.071768,-0.027488,0.011329,0.080562,0.377432,-0.231641,-0.193800,0.001552,-0.084384,0.098658,0.099937,-0.186635,-0.124964,0.386107,0.238755,-0.130738,-0.332554,-0.077330,-0.614970,-0.146151,-0.090834,-0.177818,0.182719,-0.129809,-0.210183,0.151610,0.319920,0.380463,0.225357,0.056342,0.204309,-0.117619,-0.119184,0.078458,-0.237177,-0.226421,0.314869,-0.444314,0.156929,1.057859,0.056967,0.290060,0.255714,0.308914,-0.550867,0.082491,0.022240,0.177755,-0.034977,-0.101247,0.477675,0.438890,0.134736,0.156543,-0.218051,-0.516748,0.160013,0.368646,0.370699,0.412306,0.732474,0.426941,0.017228,-0.412027,0.024091,0.225379,0.136212,0.784358,0.583600,-0.686574,-0.349578,0.402800,0.259254,-0.246828,-0.062612,-0.040890,-0.368966,-0.531410,-0.021163,-0.534326,0.128318,-0.117448,-0.405070,-0.902086,-0.284339,0.024566,-0.115112,-0.330560,-0.068622,-0.259586,0.003657,0.336713,-0.153074,-0.139858,0.140664,-0.192716,0.241048,0.345769,0.172299,-0.060658,0.221927,0.016733,-0.073701,-0.004872,0.117780,0.901333,0.303673,-0.519429,-0.597790,-0.477660,-0.155130,-0.082736,-0.166538,-0.077845,0.220252,-0.035665,-0.756379,0.103863,0.352324,0.225230,-0.571132,-0.245595,0.210040,-0.218288,0.254961,0.227042,0.203174,0.130613,-0.065202,-0.069995,-0.341893,-0.268862,-0.290616,0.010154,-0.278211,0.040819,-0.194002,0.061170,-0.345535,0.339725,-0.222715,-0.158240,0.125281,0.059824,0.125668,-0.020908,0.036781,-0.110130,-0.184064,-0.076034,0.216350,0.040279,0.216095,0.151043,-0.048730,0.029042,-0.124449,-0.104545,0.416292,0.048974,0.131701,-0.216375,0.247245,0.176329,-0.064848,-0.255879,-0.057255,0.039886,-0.051279,-0.178292,0.059734,-0.284133,0.217170,-0.122910,-0.213465,-0.053186,-0.366781,0.000510,-0.386496,0.466944,-0.090741,0.130565,0.196112,-0.118256,-0.116514,0.395848,-0.352115,0.473620,0.085229,0.208235,-0.013638,-0.002314,0.220545,0.016576,0.232158,0.717360,0.086413,0.012954,0.212829,-0.014169,0.151517,-0.105747,0.096308,0.166369,0.060572,0.592268,-0.151716,0.332828,-0.196569,0.095406,0.693798,0.404265,-0.025382,0.331794,0.471505,-0.044300,-0.017821,0.194536,-0.020119,0.216676,0.369188,0.193564,-0.131391,-0.304034,0.125717,-0.140938,-0.188527,0.129500,-0.038037,0.221090,0.019345,-0.129328,0.332422,-0.021517,-0.428400,0.118510,0.388135,0.030492,0.407145,-0.244925,0.297268,-0.132799,-0.468954,0.028197,0.391249,0.065600,0.502130,-0.491669,0.241901,0.034840,-0.026548,0.409002,0.400010,0.346409,0.106773,0.221734,0.087039,0.734712,0.592107,0.554672,0.685977,-0.079656,0.287552,0.605521,0.101293,0.502519,0.579704,0.699297,0.314686,0.208783,-0.477629,-0.386065,0.231290,0.498569,0.343694,0.613248,0.357922,-0.173209,0.125658,-0.667875,0.215935,0.176010,-0.057831,0.217117,0.708865,-0.109575,-0.050594,-0.496299,-0.254711,-0.248626,-0.410888,-0.089071,-0.219340,0.182410,0.389201,-0.262370,-0.041611,-0.267696,0.067919,0.003112,0.294128,-0.147709,0.312599,-0.568071,-0.453763,-0.761515,-0.270322,0.026487,0.200013,-0.319026,0.251263,-0.021138,-0.678309,0.097084,0.062004,0.554124,-0.427820,0.085243,0.351597,-0.476457,-0.330081,0.455016,0.464736,-0.129770,0.547011,0.562172,0.107457,-0.456156,-0.653196,0.435332,0.602134,0.138497,0.162728,0.787414,0.762455,-0.348852,0.167961,0.346537,-0.457205,0.232734,-0.029204,0.244118,0.289358,0.197179,0.342855,0.275805,-0.054736,0.102368,-0.079956,0.277649,-0.297624,-0.354319,-0.340976,0.147883,-0.087268,-0.240906,-0.146803,-0.048671,-0.105826,0.073540,-0.165726,-0.246975,0.300674,0.103738,-0.111242,0.120015,0.004389,0.096101,0.004837,0.529738,0.094700,-0.659638,-0.320853,0.331537,-0.290061,0.046062,-0.139073,0.598089,-0.037017,-0.015814,0.289753,0.319677,0.359082,-0.074587,-0.405888,-0.716714,0.039327,-0.182966,0.364635,-0.339802,-0.409644,0.119258,-0.318101,-0.054811,-0.445605,-0.547670,-0.628793,-0.131088,-0.365850,-0.008039,0.063399,0.471054,-0.226529,0.088605,-0.366451,-0.164218,-0.359254,0.052729,-0.285705,-0.247786,0.206011,0.311889,0.445383,-0.189144,-0.154784,-0.094394,0.306799,-0.043051,-0.089330,0.394003,-0.001916,0.022872,0.137850,0.052489,0.123567,-0.200708,0.129276,-0.334895,0.035032,-0.044188,-0.068689,-0.055304,-0.016132,-0.215246,0.462376,0.058602,-0.270119,-0.308177,0.282345,0.188135,-0.032709,-0.099224,-0.359448,0.030058,-0.142741,-0.176410,0.247430,-0.179453,0.276206,-0.087478,-0.161522,-0.338046,0.110490,0.010150,-0.153190,0.089620,0.263364,-0.140177,0.362049,-0.121393,-0.186404,0.025139,0.611026,0.011377,0.185745,-0.017503,0.135468,0.041329,0.210728,0.088173,-0.430265,0.388446,-0.008784,-0.093350,-0.118322,-0.019284,-0.422973,-0.131926,0.032974,-0.097569,-0.192191,0.174603,0.125232,-0.171519,-0.278429,-0.524760,-0.420350,0.119741,-0.070692,0.246193,-0.040536,0.264800,0.088978,-0.057317,-0.158702,0.065364,0.281922,-0.356272,0.199840,0.412267,0.405891,0.188739,-0.237250,-0.071396,-0.139431,0.319918,0.414511,0.165812,0.212801,0.173205,0.313064,-0.011209,0.228513,-0.267687,-0.076971,-0.014026,-0.239491,-0.390283,-0.100840,-0.056064,-0.225061,-0.312691,-0.373602,-0.331082,-0.303743,-0.210947,-0.266108,0.009223,-0.348885,-0.639148,-0.562788,0.157376,-0.485786,-0.019386,-0.399456,0.149277,0.006914,-0.116273,-0.167089,0.533676,0.957649,0.315090,0.396057,0.253684,0.115263,0.101119,-0.117067,0.192048,-0.034227,0.112245,0.247685,-0.244226,0.017550,0.152157,-0.395916,-0.661816,-0.614178,-0.558114,0.248744,-0.160541,0.187508,0.373291,-0.503313,-0.623786,-0.316745,-0.132701,-0.131595,-0.098996,-0.464716,-0.195609,-0.969231,-1.164969,-0.478262,-0.161427,-0.506784,-0.450902,-0.121045,-0.479165,-0.284508,-0.366203,-0.942248,-0.496263,-0.591797,-0.536707,-0.205411,0.018252,-0.490865,-0.329451,-0.555149,-1.246649,-0.543219,0.410988,0.054559,-0.479517,-0.225016,-0.202086,-0.349728,-0.030034,-0.059240,-0.001421,0.048329,-0.189613,0.109363,0.123961,0.114445,-0.071363,0.036166,-0.027913,0.118778,0.115755,0.080740,0.024947,0.037243,-0.033038,0.046541,0.054381,-0.054286,0.404295,0.054987,-0.278841,0.307434,-0.344619,0.146915,-0.027808,-0.246899,0.019853,0.377083,0.009995,-0.392732,0.445561,-0.064557,-0.071269,-0.075656,-0.006235,-0.332550,0.423422,0.006200,-0.128444,-0.180231,-0.004329,0.092306,-0.513297,-0.232433,0.279094,0.253530,0.305936,-0.085201,0.121727,0.235243,0.225993,-0.164679,-0.198042,0.139358,0.146274,0.022123,-0.018515,0.322649,0.028388,0.224880,-0.018521,0.027794,-0.552733,0.367812,-0.108422,-0.189237,-0.080994,-0.348606,-0.683688,-0.557432,-0.138411,-0.638676,-0.103244,-0.026558,0.124736,0.128156,0.102846,-0.038577,0.407029,-0.056353,-0.134771,-0.042894,0.055868,0.310177,0.169469,0.197530,0.278959,-0.261201,-0.174356,-0.075374,-0.066785,0.882399,0.091801,-0.017919,0.032822,0.326568,-0.111926,0.037391,0.250553,0.411414,-0.057012,0.189004,0.487965,0.447174,-0.124920,0.133445,-0.222210,0.013906,-0.081487,-0.132985,0.705404,0.349423,0.220722,0.132799,-0.506293,-0.641132,-0.468297,-0.186820,-0.254265,0.106905,0.222488,-0.031283,0.289807,-0.759978,-0.530794,-0.436755,0.606306,0.636322,0.292188,0.228219,0.276914,0.326673,0.353364,0.307688,-0.710166,0.094408,-0.011743,0.114468,-0.099483,0.131879,0.055949,-0.069590,0.031878,0.033925,0.144841,0.460572,0.013307,0.238363,-0.483278,0.221338,-0.530337,-0.476357,-0.284825,0.375795,0.432192,0.473495,-0.489054,-0.116388,0.080854,-0.680492,0.545677,-0.069722,0.096022,0.288711,-0.065370,-0.111118,-0.032659,-0.055467,0.071153,-0.606720,-0.144655,0.655948,-0.037799,-0.179008,0.180177,-0.217608,-0.111795,-0.471800,-0.060772,0.482913,0.214276,0.178735,0.028423,0.368924,0.031298,-0.591955,-0.096755,-0.432590,-0.153467,-0.514351,0.056842,-0.200517,0.026725,-0.229852,-0.363223,-0.138340,-0.222341,-0.274529,-0.334087,0.188611,0.370736,0.008623,0.185661,-0.043655,0.351610,0.358077,0.106641,1.534848,0.078360,0.313199,-0.113425,0.067043,0.051715,-0.350386,-0.346977,-0.137247,0.004765,-0.559875,0.241079,-0.281966,0.105897,0.366563,0.129844,-0.198417,-0.660677,0.487168,0.141874,0.031449,-0.135212,0.230204,0.145549,0.120904,-0.792699,0.356374,-0.126362,-0.232971,0.095149,-0.415242,-0.079647,0.209824,-0.122464,0.136843,-0.436254,-0.757364,-0.710400,-0.473802,-0.502098,-0.388544,0.779357,0.651184,-0.109069,0.582495,-0.142865,-0.387292,0.300301,-0.005377,0.557514,-0.217322,-0.377147,-0.198532,0.197915,-0.093667,0.061373,-0.271979,-0.101252,-0.311591,-0.407285,0.056983,0.404503,0.444108,-0.100617,0.614526,-0.074302,-0.399415,-0.391553,-0.481529,0.018012,0.120618,-0.059701,0.290487,0.021068,0.008262,-0.040104,0.155313,-0.324964,-0.151341,-0.125117,-0.010630,-0.140605,-0.290152,0.415544,-0.006802,0.117044,-0.365646,0.060378,0.002404,-0.000270,0.428707,0.685228,-0.071812,0.089399,-0.185419,0.292117,0.505541,-0.034128,0.573364,0.301757,-0.040007,0.024067,-0.013481,0.290187,0.104939,-0.229266,-0.416104,0.208275,0.139377,0.052907,0.201928,-0.287980,-0.305330,-0.220519,-0.629568,-0.034246,-0.522846,0.368739,0.214863,0.343562,0.132076,-0.102066,-0.093982,-0.239400,-0.126156,-0.082337,-0.150057,-0.058958,-0.051810,-0.204645,0.120999,-0.070752,0.454555,-0.012118,0.141494,-0.068263,-0.097725,-0.055164,0.257106,-0.017406,0.435529,0.154335,0.194274,0.092973,-0.163442,0.059609,0.246495,0.024323,0.093604,-0.159579,-0.252004,-0.020180,0.087536,0.235964,0.167338,0.002998,-0.221448,0.015847,0.166229,0.143563,0.151518,0.062958,0.162863,-0.502814,-0.650134,-0.137106,-0.118169,-0.421511,0.100578,0.423040,-0.002703,0.216301,-0.540703,-0.259992,-0.147269,-0.140585,0.204220,0.177945,0.491416,0.135323,-0.283677,-0.178989,-0.297509,-0.037975,0.219414,0.268905,0.117155,0.162157,-0.611498,-0.008215,-0.300072,-0.681280,-0.508259,-0.066461,-0.011180,0.181122,-0.455311,0.098673,0.370267,0.559686,0.156710,0.032206,-0.177894,-0.278164,-0.416672,0.026389,0.102719,-0.220802,0.140106,-0.251122,-0.198811,-0.371767,-0.249571,-0.038035,0.044368,-0.374754,-0.296506,-0.029758,0.164027,-0.128113,-0.273259,-0.696349,0.041211,0.039816,0.036282,0.223344,0.484232,0.044679,-0.123713,-0.362045,-0.646817,0.001550,0.194815,0.151164,-0.171656,0.729376,0.592369,0.181548,-0.345026,-0.752077,-0.580575,-0.098149,-0.063132,-0.270778,-0.244402,-0.678603,0.443225,-0.226115,0.299446,0.094928,-0.273118,-0.128081,0.545168,0.064696,0.178111,0.189927,-0.259723,-0.199297,-0.287646,-0.313379,-0.026396,0.352433,0.306385,0.041658,-0.142339,0.125091,-0.380819,0.278452,0.023615,0.563231,-0.489510,-0.132233,0.152873,0.718384,0.017200,-0.091097,0.414551,-0.203450,-0.146174,-0.122652,0.401962,0.532874,0.146865,0.030091,0.261420,0.138297,0.078171,0.034697,-0.280267,-0.211158,0.283581,-0.162257,-0.096958,0.135917,0.371330,0.372091,0.391119,-0.854310,-0.208650,-0.625007,-0.306064,0.801587,0.671472,0.450982,-0.129129,-0.375101,-0.330128,-0.029134,-0.086071,-0.169065,0.111754,0.008346,0.214098,0.096148,0.179531,0.028867,-0.069986,-0.303237,0.050995,-0.225300,0.082973,-0.107786,0.074450,0.258002,0.004259,0.063495,0.470128,-0.472713,0.037497,-0.158913,0.112986,0.353270,0.500642,-0.106245,0.016878,0.007439,0.169443,0.078615,0.631557,-0.037245,-0.208811,-0.330933,-0.028943,0.051847,0.108555,-0.178027,0.346995,-0.381248,-0.093639,0.631570,-0.161676,0.526602,-0.236888,0.251121,0.138531,-0.690356,-0.710307,-0.187412,-0.637171,-0.088907,0.118109,0.023309,-0.028800,-0.008097,-1.117055,0.055626,0.083896,-0.265965,0.625450,-0.245694,0.241386,0.149740,-0.046307,-0.103921,0.197256,-0.120628,-0.219090,-0.064504,-0.006866,0.287203,0.157347,-0.327971,-0.109170,-0.080937,-0.310142,0.382349,0.071780,-0.089040,-0.212328,-0.027287,-0.572083,-0.158631,-0.005607,-0.379618,0.076505,-1.002974,-0.436459,0.079712,0.638175,-1.003898,-0.093039,0.207724,0.030709,-0.464816,-1.089096,-0.611966,-0.923728,-0.218032,-0.758274,0.228213,0.016259,-0.700366,-0.494840,-0.347085,-0.648594,-0.489924,-0.401270,-0.155188,0.137862,-1.114789,-0.695196,-0.861519,-0.514245,-1.101879,-0.177322,-0.066984,-0.164477,-0.137437,-0.523572,-1.037541,-0.765957,-0.801173,-0.420456,-0.180009,0.099794,-0.005473,-0.348229,-0.091026,0.072423,-0.604280,-0.364431,-0.420559,0.046467,-0.132275,0.100899,0.050376,-0.198332,0.102070,-0.132413,-0.212115,-0.211801,0.064981,-0.437145,-0.061068,-0.253724,0.379071,-0.194521,0.087591,-0.116428,-0.415093,-0.089013,0.087582,0.361402,-0.106312,0.399535,-0.129353,-0.467144,-0.258284,-0.594877,0.034819,-0.180879,-0.765295,-0.203414,-0.315390,-0.319980,-0.401677,-0.144149,-0.253837,-0.295875,-0.456385,-0.051335,-0.368626,-0.218219,-0.154436,-0.006050,-0.381013,-0.390407,-0.058594,0.210614,-0.304820,-0.277342,-0.309139,-0.489779,-0.116676,0.076460,-0.012533,-0.130272,-0.448206,0.324683,-0.204125,-0.268451,0.560231,0.745535,-0.077352,-0.269011,-0.171046,0.244478,-0.040197,0.223241,-0.160516,-0.500473,-0.203534,-0.309090,-0.466987,-0.071765,0.103473,-0.089669,0.272073,-0.357548,-0.332922,0.174773,-0.318884,-0.487332,0.221676,0.210338,0.386567,-0.128666,0.102589,0.204017,-0.281400,0.255252,0.355508,0.547919,0.520691,0.225504,0.555013,0.724440,-0.282969,-0.013629,0.045409,0.347793,0.791330,0.244560,0.834729,0.246531,0.113498,-0.241144,-0.077972,-0.571950,0.938030,0.157352,0.060729,0.608908,0.062522,0.312442,0.410976,0.336767,-0.086156,0.572354,0.559486,0.308407,0.910664,0.984673,0.437132,-0.059869,0.507156,0.719040,0.679983,0.752959,0.098456,-0.079259,-0.138607,0.336864,0.232028,0.059370,0.084830,-0.294869,-0.414666,0.157817,0.034713,-0.176730,0.112524,0.287295,-0.257689,0.138997,-0.254258,-0.112501,0.013721,0.086430,-0.006246,0.098931,0.541649,-0.031107,-0.006911,-0.209587,-0.134295,0.212807,-0.247786,-0.079669,-0.023278,-0.566564,-0.000184,-0.338873,0.074450,0.337223,-0.062556,0.050217,-0.154031,-0.135140,0.247425,0.210580,-0.088662,-0.040090,0.424167,-0.210909,-0.089485,0.155325,0.089188,0.555054,-0.307529,-0.436298,-0.023180,-0.183405,-0.236264,-0.057020,0.078498,0.908012,-0.096137,0.239217,-0.083363,0.052342,-0.125774,0.624135,0.069438,-0.215573,-0.021970,-0.087177,-0.080751,-0.034031,-0.040147,-0.130564,0.083701,0.103793,0.289392,0.201252,0.124729,-0.146837,0.128623,-0.206068,0.288209,-0.010317,-0.430468,-0.144721,0.114350,-0.039403,-0.061654,0.190493,0.110081,0.240669,0.117824,-0.039856,-0.156355,-0.536107,-0.105239,0.066362,0.126368,0.199822,-0.279990,-0.241779,0.055069,-0.121940,-0.062224,-0.013836,0.306950,0.128275,-0.017655,0.087864,-0.136685,0.087630,0.010050,0.010999,-0.620021,-0.154360,0.220283,-0.300299,-0.029755,-0.032488,-0.654943,-0.097706,-0.126745,-0.284043,0.237985,-0.223292,0.253080,0.154178,0.223515,0.319320,-0.076578,-0.113282,0.540114,-0.125819,-0.131646,0.661360,-0.089061,-0.013511,-0.033139,0.185990,0.693924,0.716222,-0.052591,0.067877,-0.244865,0.146996,0.083253,0.274374,-0.137491,0.161220,-0.331622,0.095671,0.059740,-0.122431,-0.011443,0.292766,0.102199,0.050328,-0.140389,0.177093,-0.315314,-0.015043,-0.052911,0.214363,0.109945,0.713417,0.210394,0.369903,0.399372,0.214815,-0.060330,0.374028,-0.013760,0.727290,0.193398,0.525705,-0.013587,-0.395773,0.023476,0.298518,0.080770,0.385085,0.429254,-0.055905,-0.343645,0.152085,0.111328,0.489691,-0.912739,-0.081561,-0.461042,-0.847767,0.119729,0.661034,0.155871,-0.226439,-0.414976,0.028746,-0.171709,0.082130,0.500472,0.639931,0.585499,0.113939,-0.144796,-0.598245,-0.068043,0.259441,0.562614,0.208445,0.090354,0.059920,-0.421692,0.018677,0.002064,-0.070460,-0.061012,-0.216064,0.009502,-0.405691,0.042865,-0.205711,0.169574,-0.350090,-0.481303,-0.523078,-0.239032,-0.460426,-0.233612,-0.248249,-1.057360,-0.572862,-0.529069,-0.571650,-0.308202,-0.247200,0.062217,0.421235,-0.311051,-0.364222,-0.328660,-0.469187,-0.112611,0.003142,-0.201021,0.279288,-0.203734,-0.154035,-0.418732,-0.275836,-0.095035,0.110533,-0.203783,-0.088764,-0.018821,0.071932,0.059981,-0.196076,0.020610,-0.217930,0.005811,-0.205909,-0.027953,0.262638,-0.234889,0.100589,0.033936,-0.214042,0.057501,-0.121962,-0.138005,0.114994,-0.181423,-0.439730,-0.034977,-0.141426,-0.319537,-0.069537,0.131480,0.201621,-0.355358,0.172446,-0.014138,0.162872,0.151824,-0.525112,-0.496541,-0.223774,0.609144,0.058940,0.148805,0.163988,-0.310358,0.664709,0.306573,0.662946,0.169458,0.257716,-0.121194,0.433927,-0.307037,0.478263,0.136607,0.437619,0.392911,-0.172870,-0.014665,-0.078627,0.366413,0.219592,-0.189118,0.476372,-0.072041,0.015012,0.110891,0.062579,0.170858,-0.052857,-0.092110,0.081456,-0.017653,0.036461,-0.081026,0.094568,0.149157,-0.418437,0.350735,0.096809,-0.044532,0.018098,-0.022837,-0.015628,0.282143,0.162629,-0.084546,-0.087405,-0.062527,0.456004,-0.196524,0.231001,0.350037,-0.728946,0.078064,0.632213,-0.177427,0.124893,0.016015,0.317457,0.078284,0.125261,0.877316,0.961864,0.723588,-0.059187,-0.053329,0.229319,0.148272,0.680072,0.293413,0.703852,-0.241448,0.216519,-0.322082,-0.280208,-0.380788,0.152914,-0.195231,-0.222507,-0.058881,-0.312165,-0.581152,-0.216676,0.002407,-0.473753,-0.070663,-0.569861,-0.220837,-0.494175,0.056955,-0.062551,-0.138180,-0.445003,-0.191669,-0.553906,0.027723,-0.351793,0.344831,-0.100563,-0.168089,-0.055877,-0.049448,0.137956,0.115589,0.042086,-0.105973,0.386043,-0.775055,-0.029716,0.338543,0.680087,0.401737,0.416986,-0.166977,0.801586,-0.610492,-0.157094,0.490832,-0.319885,-0.015810,-0.431723,-0.634558,0.204254,0.072294,-0.297781,-0.438591,-0.647197,-0.492004,0.154099,-0.671746,-0.087043,0.013893,-0.658592,-0.623413,-0.739906,-0.001331,0.245871,-0.380085,0.068611,-0.035524,-0.121463,-0.469071,-0.153376,0.280415,0.474504,-0.805060,-0.426708,-0.515398,0.066551,0.352295,0.231297,0.530217,0.442102,-0.414855,-0.323522,-0.107548,0.102447,0.196718,0.396193,-0.222756,-0.033253,-0.120436,-0.484085,-0.206422,-0.090016,0.196829,0.264081,0.643121,-0.304481,0.335886,-0.130383,0.229389,0.090869,-0.490364,-0.274173,-0.406460,-0.403650,0.091191,-0.044059,0.560143,-0.023797,-0.399764,-0.175191,-0.043762,0.481996,0.158145,0.333203,0.574688,0.340724,-0.441153,0.605023,0.650885,0.029128,-0.179984,-0.149960,0.309645,-0.009820,0.371349,0.500304,0.534792,-0.033131,0.245592,0.025653,-0.246274,-0.221543,0.128525,-0.107517,0.172038,-0.276156,0.479894,0.854070,-0.048788,0.000713,0.093317,0.328804,-0.001034,0.436311,0.756187,-0.188338,0.345428,-0.065327,-0.671196,-0.102989,-0.559322,0.286044,-0.020901,0.123590,-0.129109,-0.400031,0.190617,0.038299,-0.418789,-0.537099,-0.021625,-0.447421,-0.174956,0.359943,0.813667,0.337277,-0.210852,-0.041599,-0.242713,-0.149859,0.500535,0.092034,0.001416,-0.579272,0.532632,0.055653,0.068556,0.356700,0.010105,-0.363326,0.128429,0.101709,0.040162,0.464880,0.057422,0.414067,-0.215396,-0.861947,0.015540,0.000275,0.220806,0.189343,0.381324,0.463107,-0.163916,-0.303564,0.040214,0.061639,0.244052,0.047746,-0.000435,0.424747,-0.019913,-0.014383,-0.179546,-0.116219,0.189775,0.223268,-0.009812,0.095464,0.024011,0.464411,-0.270925,-0.068922,-0.289055,-0.349914,0.001894,0.077146,0.144475,0.008886,0.451951,0.005558,0.187523,0.083100,0.056664,0.340489,0.050413,0.169700,-0.531493,0.134886,0.051445,0.320824,0.126453,0.018636,0.044562,-0.162439,-0.086809,-0.074357,-0.429635,-0.221100,-0.105118,0.324591,0.041103,-0.248330,0.487361,0.057411,-0.249141,-0.129019,0.082740,0.139822,-0.238235,-0.193678,0.235711,0.341770,0.375487,-0.130754,-0.160590,-0.186607,-0.090726,0.306188,0.153189,0.341103,0.202534,-0.007161,-0.673508,-0.014657,-0.311996,-0.617128,0.292123,-0.133976,-0.122278,-0.332754,-0.532980,0.164749,0.402238,0.101752,0.077486,0.132021,-0.129779,0.039253,0.097865,-0.092323,0.499537,0.283805,0.233743,0.646655,-0.247045,0.379172,0.155601,-0.409311,-0.064977,-0.414076,-0.359624,-0.449736,0.346495,-0.275368,0.050482,-0.196292,0.323449,-0.661649,-0.119815,-0.079246,0.005597,-0.538104,0.191834,-0.337643,0.004411,0.011737,-0.184827,-0.082921,-0.498051,-0.124344,-0.049719,0.428678,-0.193806,-0.018297,-0.552018,-0.286741,-0.123760,-0.201464,0.227555,0.123182,-0.085225,0.614585,0.161825,0.409757,0.050016,0.119589,0.289111,-0.020657,-0.062874,-0.819306,-0.346505,-0.200490,0.495621,0.479423,0.095665,-0.000123,-0.129734,-0.303997,-0.373125,-0.438626,-0.400309,0.007282,0.082225,-0.001911,-0.327603,0.553377,0.152140,-0.034002,-0.206892,-0.708806,0.319915,0.215940,-0.328213,0.572247,0.401590,-0.378325,-0.369885,-0.093124,0.425668,-0.267312,-1.027317,0.023927,0.020449,-0.172931,-0.062712,0.116644,0.451500,-0.148135,-0.573402,-0.033156,0.201855,-0.222812,-0.298372,0.453772,0.520250,-0.366862,0.107232,-0.012878,-0.213441,-0.477517,-0.233255,-0.160623,0.291029,0.371718,0.624112,0.072627,-0.214739,0.313176,-0.312685,0.575614,-0.390761,-0.048490,0.315852,0.273666,0.434188,0.134374,-0.595912,-0.897396,-0.586580,-0.069797,0.026089,0.208558,0.485864,-0.170706,-0.042495,-0.112341,-0.143008,-0.100534,0.282467,0.137909,0.058791,0.110775,-0.657575,0.101686,0.148345,-0.020606,0.458841,-0.391665,-0.096047,0.184521,0.294495,0.488940,-0.049940,0.285491,0.010346,-0.627653,-0.190636,-0.282512,-0.569504,-0.071115,-0.178853,0.564250,-0.462943,0.577239,0.141526,-0.046512,-0.091280,0.112029,-0.145640,-0.119608,-0.526972,0.027665,0.064219,0.353991,-0.315129,0.234576,-0.199565,-0.003191,-0.224867,-0.018559,0.109883,0.143738,-0.285914,-0.160064,-0.468390,0.164215,-0.129023,0.326633,0.410731,0.277758,0.236178,-0.456362,-0.229272,0.133785,0.117152,-0.139813,-0.198890,-0.310907,-0.091741,0.511191,-0.058386,0.026426,-0.137446,-0.031027,-0.012403,0.095087,0.392701,0.557134,0.355269,-0.046159,-0.214894,-0.637938,-0.642010,-0.303488,0.295359,0.129259,0.101237,-0.357078,-0.334241,-0.264646,0.236588,-0.464692,0.144470,0.101154,0.127620,-0.295264,0.047257,-0.212871,0.155172,0.103501,-0.468775,0.174709,0.084018,0.163806,-0.639309,-0.460068,-0.315266,-0.302502,-0.439916,-0.121900,0.084331,0.108829,-0.430438,-0.675900,-0.270667,0.079324,-0.442454,-0.312778,0.008293,-0.049188,-0.569583,-1.055541,-0.518311,0.187714,-0.746794,-0.636167,-0.036846,0.177479,-0.331350,-0.731486,-0.622771,-0.499590,-0.124341,-0.343566,-0.015527,0.177713,-0.067110,-0.200836,0.136798,-0.043617,-0.120801,-0.002776,-0.118506,-0.302071,-0.015552,-0.403280,0.527961,0.790801,0.272215,-0.110840,-0.740599,0.221600,0.130354,0.456296,0.322771,0.244394,-0.383501,-0.202239,-0.507835,0.174520,-0.538122,0.016415,0.008699,0.376074,0.117818,0.292617,-0.380705,-0.021214,0.460550,-0.345327,-1.078701,-0.128049,0.493456,0.078251,0.032150,0.215550,0.263271,-0.211749,-0.209257,0.022174,0.236378,-0.112676,-0.084977,-0.652291,-0.181865,-0.255140,-0.059584,0.228277,-0.341472,0.367344,0.237787,0.045877,-0.116817,-0.204856,-0.158870,0.019929,0.542092,-0.107764,-0.369891,0.054269,-0.444480,0.265554,-0.433956,-0.194176,-0.026580,0.138045,-0.131006,-0.736385,-1.012583,-0.012075,-0.592037,-1.036358,0.564030,0.469425,0.315651,0.214393,-0.713232,-0.550720,-0.343377,-0.208014,-0.302260,0.233649,0.570998,0.030852,-0.545290,0.253239,0.459964,0.049497,-0.711261,-0.256876,0.049580,0.426524,-0.351278,-0.001525,0.850555,0.556633,-0.211770,0.031525,0.066461,-0.193540,-0.301194,0.013844,-0.281823,0.156973,-0.251929,-0.116146,0.238886,-0.198697,-0.022925,-0.222417,-0.169743,0.340837,0.314448,-0.115423,0.723227,0.248829,-0.245383,-0.275263,-0.498758,0.331529,-0.337238,0.397398,-0.039791,0.565943,0.053795,-0.476243,-0.193493,-0.240550,-0.137974,-1.173487,0.192183,0.393577,0.016459,0.031374,0.506711,1.019963,0.543367,-0.506995,-0.079543,0.124944,-0.004911,-0.030538,0.130993,0.292995,0.030825,-1.020071,-0.431112,0.268302,-0.642739,0.048864,0.079864,0.155605,0.439412,0.143965,-0.072476,0.261720,0.347189,-0.105679,-0.005563,-0.012321,0.124609,0.031448,-0.047944,0.154590,0.188341,-0.087862,-0.105310,0.286437,0.006620,-0.534877,-0.101133,-0.186273,-0.352636,-0.243329,0.147855,0.069616,-0.154109,0.065839,-0.004818,-0.106555,0.254048,0.025855,0.408567,0.097090,0.050518,0.187135,0.172306,0.090713,-0.118997,-0.081508,0.094511,-0.268163,-0.077419,0.139426,0.305151,-0.581569,-0.538767,-0.065241,-0.085670,0.045819,0.202868,0.553583,0.259123,-0.170459,0.108187,-0.124254,-0.056863,-0.223831,0.415549,-0.207133,0.358367,-0.685597,-0.429219,0.341315,-0.190191,-0.154454,-0.044699,0.071548,0.220916,0.027894,-0.042575,-0.305195,0.010755,0.041230,0.044208,0.040828,-0.057504,0.249217,-0.648209,-0.404239,-0.067395,-0.093207,0.085581,-0.051719,0.042654,-0.257220,-0.171103,0.115924,-0.127142,0.246413,-0.447846,0.127028,0.290483,0.047700,0.157822,0.096218,0.104891,0.171815,-0.139822,0.025578,0.043766,0.309713,0.262366,0.476281,0.714520,-0.010608,0.157796,-0.089723,0.057240,0.502431,0.350401,0.091622,0.263161,0.370379,0.319017,0.070232,-0.098114,-0.185731,0.517040,0.601808,0.300860,-0.124418,0.413200,-0.337867,0.200366,0.123156,0.175627,-0.063100,0.126575,-0.342043,0.185321,0.410172,0.232205,0.351461,0.687276,0.496506,0.773224,-0.049283,0.142664,0.158166,0.078473,-0.173444,-0.044511,0.471794,-0.185939,0.115296,0.440250,-0.185491,0.013844,-0.248776,-0.208195,-0.705119,0.374531,0.209033,0.369645,0.392995,-0.023737,0.084772,0.202823,0.207506,-0.675569,-0.694617,0.305473,0.371766,-0.144433,-0.093057,-0.318916,-0.144037,-0.023665,-0.275213,0.085215,0.007749,-0.131422,-0.062692,0.570246,0.668774,0.280223,0.397298,0.047662,-0.168692,-0.540871,0.157130,0.463496,-0.214982,-0.434159,0.795803,-0.201048,-0.320124,0.183919,0.190721,0.030491,-0.064568,-0.444025,0.763353,0.248365,0.017813,0.131697,-0.408374,-0.319368,0.114252,-0.535489,0.341390,-0.363374,0.042124,0.010176,0.061104,0.474390,0.134025,0.319919,0.076625,-0.224549,0.066962,-0.450323,0.150665,-0.050178,0.638048,0.485149,-0.148404,0.021787,-0.332852,-0.105249,0.222443,-0.101795,0.085033,-0.014741,0.167576,0.000895,-0.037594,-0.052663,-0.228359,-0.024324,-0.013321,-0.194079,-0.099190,0.075498,0.506756,-0.103245,-0.467606,-0.060570,0.273887,-0.250725,0.506955,0.354488,0.079187,-0.466368,-0.502453,0.049979,-0.487582,0.318086,-0.326253,-0.247934,0.374825,-0.174747,-0.567365,0.143436,0.388180,-0.038867,0.040618,0.212176,0.219143,-0.300716,0.186802,-0.485587,-0.252951,0.044030,0.107970,-0.021986,-0.058227,-0.222789,-0.153584,-0.191490,-0.242243,0.177766,0.129626,-0.112492,0.238945,-0.293281,-0.403480,0.330936,-0.197147,0.225126,0.651056,-0.201823,0.629361,0.112476,0.149947,0.178732,0.065924,-0.155870,-0.068502,-0.092448,0.387106,-0.232084,-0.252037,0.209386,0.612817,0.136386,0.589318,0.351943,0.225889,0.082164,-0.290305,0.304457,-0.112994,0.024318,-0.430750,0.216783,0.541002,0.109704,-0.078226,-0.024365,-0.232544,-0.379338,-0.552376,-0.174763,-0.315560,0.272893,-0.074877,-0.511923,-0.426306,-1.064388,-1.711468,-0.603927,-0.288503,0.022673,0.144196,0.092589,-0.743391,-1.102025,-0.694601,-0.572576,-0.432345,-0.043043,0.185494,0.345555,-0.260519,-0.133435,-0.047706,-0.116920,0.497471,-0.010645,0.136387,0.326115,-0.537682,-0.824713,-0.084636,0.878103,0.180785,-0.071010,0.170099,0.245120,0.119981,-0.123551,0.163766,0.255957,0.099402,0.060039,-0.141124,0.068680,-0.012267,0.033574,-0.085202,-0.129619,0.181158,0.115122,0.435864,-0.664195,0.097728,0.034104,-0.156785,-0.155066,0.264761,0.387609,-0.081143,-0.083607,0.082117,0.077058,0.267481,-0.091411,0.457951,-0.136912,-1.142622,-0.234302,0.249369,0.610110,0.430817,0.142650,0.081382,-0.553580,-0.530367,-0.401533,-0.439263,0.801439,0.278239,0.238434,-0.366869,-0.385778,-0.395830,0.290847,-0.105817,0.423140,0.206186,0.138579,0.135836,-0.188341,-0.471001,0.293256,0.126451,0.421711,0.675987,0.018727,-0.040656,-0.248511,0.129652,-0.248067,0.019828,-0.255388,0.228075,0.353341,-0.122789,-0.154435,0.198379,0.573516,0.135154,0.048842,-0.222990,-0.406584,-0.061583,-0.033019,-0.154894,0.296806,-0.038181,0.367396,0.205666,-0.048528,0.035015,0.029279,0.150330,-0.043150,0.253123,0.247479,0.087453,0.136907,0.604252,0.032949,1.093432,0.552938,0.588433,0.050486,0.391580,0.466478,1.026062,0.848876,0.331817,0.627563,0.917812,0.401298,0.796525,0.615414,0.417789,0.446559,0.222063,0.113866,0.091481,0.490490,0.303934,0.088293,-0.115085,0.276972,-0.320691,0.209137,-0.506755,-0.782700,-0.373302,0.173703,0.101776,0.215296,-0.285493,0.708786,-0.334086,-0.131174,-0.444252,-0.213446,-0.506372,0.086144,-0.027364,0.232265,-0.345532,-0.178813,0.152310,-0.065903,0.241040,-0.232650,-0.169787,0.314137,0.057941,0.579651,0.107083,-0.476912,-0.142521,0.027624,-0.069650,-0.020777,-0.182591,-0.208758,0.157739,0.323266,-0.004358,-0.104982,-0.172074,0.313316,0.384366,-0.408965,-0.259498,0.301497,-0.160517,-0.081376,-0.369028,-0.472025,0.253177,0.100535,-0.064768,0.126837,0.008999,-0.034157,-0.043042,0.013579,-0.086416,0.367934,0.099890,-0.243200,-0.558290,-0.038221,0.145009,0.005844,-0.132843,0.134641,-0.200227,-0.065101,0.612620,0.275681,0.009099,-0.166011,0.132978,0.136762,0.346749,-0.242653,0.655474,-0.129154,-0.263052,-0.033101,0.316206,-0.253518,-0.165078,-0.119011,0.180900,-0.268451,-0.153820,-0.052281,0.291010,-0.039728,0.200489,0.130375,-0.130325,-0.086568,0.170586,0.069241,0.094529,-0.150133,-0.358679,-0.245380,0.169041,0.093262,0.360170,-0.022659,-0.203018,0.282746,-0.222698,0.197743,-0.284299,0.238923,0.240897,-0.013833,0.022084,-0.404991,-0.558825,-0.107313,-0.246029,0.260635,0.391527,0.311377,-0.202241,0.165595,-0.172796,-0.067849,0.294935,0.068092,0.089431,0.112394,-0.244736,-0.204146,-0.241283,-0.648249,0.006510,-0.008164,0.355064,0.417910,-0.005908,-0.487958,-0.368444,0.266575,0.166552,-0.418903,0.230250,-0.370053,-0.327660,0.604361,0.402032,-0.088940,0.212972,-0.114269,0.069810,-0.155771,0.055071,0.251657,0.105651,0.292468,0.025834,-0.088425,-0.135139,-0.324710,-0.036895,-0.509464,-0.468929,-0.236464,0.000841,0.090602,-0.023532,-0.302248,-0.575383,-0.249045,-0.489644,-0.355328,-0.348038,-0.077376,0.081569,-0.282261,-0.540921,-0.576057,-0.511354,-0.791829,-0.696042,-0.146900,-0.510918,-0.288771,-0.323486,-0.089654,0.226217,-0.291222,0.101972,-0.216956,-0.147035,-0.891276,0.383497,0.775382,0.657587,-0.109095,-0.046427,0.075277,0.178075,-0.288892,0.316748,-0.029618,0.087838,-0.346594,-0.347725,-0.073129,0.069073,0.112412,-0.179269,-0.825298,0.342750,-0.200632,-0.134579,0.035265,0.069124,0.468736,-0.201886,-0.206060,-0.111543,-0.071135,-0.402703,-0.579804,0.090070,0.300865,-0.038175,-0.336544,0.169781,0.278237,-0.212735,-0.500343,0.032663,0.283873,-0.329450,0.087102,0.336200,-0.029352,-0.605111,-0.461853,-0.125010,-0.179426,-0.314351,0.316912,-0.321867,-0.089884,0.095523,-0.101769,-0.035751,-0.171902,0.072257,0.223668,-0.264676,-0.575378,-0.145383,-0.188383,-0.052966,-0.321129,-0.156022,-0.146764,0.209047,0.666710,0.749732,-0.476682,-0.031082,0.065153,0.121064,0.031919,0.024154,-0.069305,0.123238,-0.087840,-0.198142,0.282133,0.257448,-0.443919,0.052043,0.020126,-0.006611,-0.172647,0.066329,0.180073,-0.014405,-0.256320,0.110907,-0.309779,-0.323626,0.028549,0.065814,-0.367186,0.513320,-0.420274,0.246022,0.041054,0.282213,0.233312,-0.225371,0.281758,0.042118,0.075723,0.042161,0.012320,0.089113,0.137861,0.290300,-0.233934,-0.243102,-0.337419,0.083472,-0.137227,-0.454226,0.174946,0.533182,-0.026143,0.088762,0.116454,-0.017946,0.060788,0.258834,0.293991,0.289548,0.314415,-0.073915,-0.241040,-0.291122,-0.168431,-0.479531,0.291877,0.423528,0.266590,-0.023222,-0.400112,0.205892,0.310579,-0.203460,-0.114425,0.349565,-0.218149,-0.324084,-0.087654,-0.348930,-0.326511,-0.201310,-0.120506,0.139500,-0.104648,0.522602,0.042726,0.365884,0.130854,-0.413759,-0.005069,-0.190282,0.069421,0.509708,0.962169,0.404395,0.255862,-0.018714,0.155028,-0.323460,0.538842,0.378032,0.786189,0.556958,0.306396,0.653798,-0.187216,0.110878,0.296229,0.604798,0.183221,0.703887,0.293251,0.216295,-0.320095,-0.264276,0.331563,0.135687,0.060052,0.053568,0.514365,0.249235,0.166228,0.043155,0.153370,-0.248726,0.140176,0.534908,0.205259,-0.154136,0.013557,-0.173454,-0.405314,-0.230270,-0.291809,-0.170629,0.119165,-0.460128,0.118357,0.077331,0.196515,-0.186678,-0.067050,0.289423,-0.159366,0.090198,0.103987,0.179847,0.118335,-0.263152,-0.276297,-0.426868,0.134943,0.141350,0.333359,0.314962,-0.783447,-0.185123,-0.128513,-0.488907,-0.288220,-0.811461,0.399648,-0.533149,-0.149363,0.225539,-0.499323,-0.819576,-0.487565,-0.023727,-0.328909,-0.081686,0.019666,0.010078,-0.604216,-0.695158,-0.263728,-0.215027,0.010209,-0.575390,0.351342,0.302202,-0.125225,-0.018714,0.342231,0.076095,0.315141,-0.087831,-0.035932,0.448072,0.287092,0.462220,-0.043998,-0.076513,-0.464724,-0.090765,0.324771,0.235951,-0.251504,0.027310,0.155528,0.229274,0.168129,0.026118,0.000089,0.233905,0.197654,-0.118835,0.035637,0.362593,-0.002531,-0.377649,-0.064826,-0.294067,-0.069754,-0.038909,-0.980359,-0.198513,-0.282789,0.425431,-0.086484,-0.617130,-0.906140,-0.602450,0.032672,-0.379634,0.018855,0.139424,-0.596442,-0.587919,-0.754929,-0.673799,-0.698758,-0.680367,0.665812,0.310791,-0.583787,-0.593090,-0.623546,-0.525232,-0.656355,-0.456597,0.018114,-0.177226,0.005126,-0.367824,-0.396478,-0.137014,-0.180099,0.340585,0.117621,0.158496,-0.591612,0.044684,0.068134,-0.194585,0.173640,0.813149,0.131613,0.183785,-0.673522,-0.472101,0.536488,0.388942,0.151639,0.421348,0.295302,0.273198,0.221528,0.106817,-0.182377,0.393054,0.044061,-0.006974,0.232364,-0.126671,0.212735,-0.035966,-0.528238,-0.049487,-0.074059,-0.171700,0.069300,-0.049334,-0.343097,-0.414263,-0.166502,-0.030646,-0.122173,-0.105486,0.169538,0.075224,0.129648,0.736530,0.050003,0.167816,0.052405,0.050346,0.005680,-0.106176,0.401316,-0.191814,-0.430016,-0.318842,0.128739,0.201280,-0.300216,0.027023,-0.051249,0.415062,0.105202,0.118541,-0.048628,0.310070,-0.211668,-0.472512,0.257648,0.012956,-0.058301,0.395243,0.560122,0.027194,0.032267,-0.342552,-0.041509,0.196215,0.323372,0.082926,-0.374370,-0.456694,-0.290982,0.092859,-0.068272,-0.135744,-0.080473,0.026080,0.077387,-0.123235,-0.011050,0.076128,-0.028686,-0.194236,0.090184,0.042151,-0.026372,-0.055019,-0.188954,-0.053490,0.338520,0.311173,0.018921,0.094768,0.029830,-0.166242,-0.181949,-0.537886,-0.182909,0.044557,-0.102455,0.164017,-0.029902,-0.027390,-0.081004,-0.370843,0.466011,0.114776,