0.076810,0.212944,-0.159886,0.191310,0.419211,-0.303160,0.414963,0.332921,0.258995,0.416991,-0.100066,0.238648,0.038983,-0.002335,0.275723,-0.700393,0.295662,-0.594879,-0.138547,-0.249527,0.032037,0.117471,-0.327232,-0.074568,0.062227,0.320983,-0.420489,0.058679,-0.381973,0.257666,0.016233,-0.390918,0.112142,0.251155,0.002887,0.223241,-0.196714,-0.139830,0.314663,-0.053505,0.279646,0.328732,0.123279,0.036972,-0.064339,-0.037085,0.266519,0.169792,0.003819,0.222956,0.096297,0.139743,0.129914,0.346922,0.152162,0.153387,0.280353,-0.023084,0.220475,0.231780,0.226161,-0.330420,-0.123181,0.171280,0.128864,0.327997,-0.144607,-0.163617,-0.681862,-0.647704,0.067540,0.004983,-0.229958,-0.147391,-0.269050,-0.335464,-1.208040,-0.102816,0.015222,0.282914,0.309537,-1.069635,0.498660,0.067050,0.207229,-0.453474,-0.486327,-0.323976,0.217358,0.122279,-0.673887,0.238458,0.181150,0.112021,-0.036731,-0.008936,0.352201,-0.451536,-0.131672,0.171145,-0.337497,-0.434806,-0.683023,0.092424,0.418313,0.038622,0.406550,-0.343674,0.325541,-0.125876,0.145042,-0.958386,-0.190246,-0.674491,-0.170169,-0.632182,0.058385,-0.758004,-0.267818,-0.790549,-0.014343,-0.292475,0.207244,0.171525,-0.457976,0.490706,0.101523,-0.393048,-0.094270,0.224163,-0.257598,0.159833,0.078050,0.662088,-0.526605,-0.768485,-0.799555,-0.244059,0.127377,0.278574,0.251202,-0.098813,0.446634,0.141932,0.256274,0.125056,0.168431,-0.803281,0.086005,0.274619,-0.498780,0.200053,0.162753,0.125195,0.044666,0.056987,0.117037,-0.494282,0.204453,-0.678140,0.288915,-0.012646,-0.252770,-0.480267,-0.406710,-0.349434,-0.303291,-0.272906,0.328513,-0.271180,0.554417,0.254170,-0.328437,0.403701,-0.240246,0.341032,-0.463298,-0.780155,0.309967,-0.345833,-0.835822,-0.297911,-0.069806,0.159425,-0.253377,0.245428,-0.563179,0.250093,-0.642498,0.299671,-0.188160,-0.514246,-0.543477,0.203397,-0.169375,-0.688748,0.110570,0.214946,-0.534608,0.231800,-0.538547,-0.496088,-0.294673,-0.398093,-0.294946,0.299760,0.409874,0.244096,-0.299321,0.251750,-0.075344,-0.109329,-0.157942,0.387883,-0.134035,0.177186,0.275271,0.266624,0.180294,-0.013596,-0.536567,-0.683025,0.346851,0.418776,-0.487180,-0.444554,0.432529,0.134486,-0.637480,-0.791192,0.431934,0.404201,-0.938632,-0.114828,-0.372256,0.281602,0.267939,0.231119,0.243861,0.064097,0.405782,-0.288199,0.349022,0.173773,0.314917,-0.439272,0.177946,-0.056360,0.033014,-0.503904,0.265824,-0.249266,-0.144274,0.443436,0.103417,0.033615,-0.505783,0.340546,0.247025,-0.197593,0.309317,-0.471281,-0.265833,0.326415,0.374688,0.370353,0.115639,-0.202752,0.148521,0.153748,0.365042,-0.402918,0.008650,-0.754462,-0.381633,-0.023363,0.038369,-0.231917,-0.048196,-0.194245,-0.028454,0.254561,0.052182,-0.292561,-0.300058,0.090627,-0.052924,0.506020,-0.351818,0.333607,0.339451,0.064371,0.400019,0.137377,0.248466,-0.715162,-0.270488,-1.042376,-0.020789,-0.156335,-0.278056,-0.097240,-0.042457,-0.198196,-0.305639,-0.026513,-0.354117,-0.447376,0.090941,0.114446,0.207126,0.029160,0.287277,0.243648,0.192730,-0.533318,0.137426,0.181438,0.232566,0.390629,0.085280,-0.127512,-0.140881,-0.009333,0.040809,0.210479,0.135692,0.031512,-0.056311,0.398273,0.235714,0.380290,0.136578,-0.031892,0.215569,-0.384283,0.291843,-0.155623,0.464473,0.060563,-0.591647,-0.725865,0.077743,-0.635939,-0.162166,-0.413535,-0.026472,-0.651966,0.024662,0.081336,-0.193858,-0.162657,-0.004840,0.266195,-0.644584,-0.105251,0.230980,-0.550097,0.128378,-0.509716,0.174443,-0.129784,0.301473,-0.035238,-0.144711,-0.222663,-0.068016,-0.118562,-0.118616,0.223419,-0.268344,0.153909,-1.106856,-0.007924,-0.329457,-0.496302,-0.427106,0.123355,-0.375521,0.399218,0.080335,-0.554034,0.081307,-0.262975,-0.555765,-0.216644,0.239843,-0.301774,0.219403,-0.151936,0.329449,0.047925,0.170484,-0.133288,0.212420,-0.176159,-0.022320,0.032346,-0.197252,0.224170,-0.314878,0.412212,0.473301,0.181718,-0.639257,0.504131,0.208257,0.027518,-0.333518,-0.049745,0.402363,-0.250869,-0.576592,-0.562387,0.208204,0.078208,-0.198904,0.167347,0.083161,-0.024618,0.133238,0.257978,-0.143091,0.284382,0.015418,0.229402,0.066272,-0.226682,-0.023718,-0.204816,-0.305484,-0.724940,0.158114,0.176777,-0.254367,-0.023594,0.188920,0.124427,0.125655,-0.264136,0.083064,0.086527,-0.023224,-0.425289,0.187642,-0.018023,-0.310950,-0.443944,0.208143,-0.698920,-0.229789,0.180058,0.072239,0.259683,0.056617,0.176839,0.113555,-0.015329,0.468370,0.281284,0.228280,-0.063698,-0.260511,-0.290355,-0.022390,-0.021731,-0.001027,-0.010824,-0.095350,0.091716,0.085846,0.448613,-0.137935,-0.469323,0.133746,-0.163828,0.131015,0.015624,-0.096238,-0.109668,-0.342157,-0.072825,0.076445,0.203839,0.128253,0.032123,-0.103694,0.088401,0.064625,0.148652,-0.339216,0.072953,-0.002114,-0.008777,-0.479122,-0.043857,-0.427726,0.279816,-0.153027,0.140121,0.024253,0.154384,0.327205,0.179830,0.028787,0.402668,-0.577903,-0.178579,0.224007,-0.138796,-0.145729,0.344025,0.237559,-0.274314,0.017794,-0.126979,0.160492,0.029003,-0.507521,-0.148498,-0.221965,0.320187,0.287219,0.423719,-1.065895,-1.612350,-0.241194,-0.387955,0.015089,-0.566193,-0.530743,0.048926,-0.699240,0.164538,0.093387,0.169317,-0.150131,-0.323010,-1.292946,-0.219532,0.468621,-0.047054,0.156510,0.290847,0.366203,0.233871,-0.035947,0.039484,-0.101689,0.055269,0.124968,0.108122,-0.372420,-0.816330,-0.437779,-0.484937,-0.171904,-0.190223,-0.187641,-0.283819,-1.370970,-0.052017,-0.239261,0.144135,0.240927,0.391380,-0.194965,0.126885,0.101567,0.376823,0.071405,0.057560,0.227047,-0.814434,-0.024444,-0.676023,0.097669,0.162862,0.576176,-0.521046,0.135889,-0.430945,0.223345,-0.821549,0.045633,0.015611,0.263586,0.809370,-0.102932,0.290526,-0.802757,0.335126,0.250930,0.177472,-1.048643,0.160755,0.124753,-0.655288,-0.005261,-0.373824,-0.480008,0.162217,0.213661,0.311787,0.043440,0.138801,-1.189429,-0.258263,-0.065581,-0.030404,-0.603331,-0.517107,-0.206086,0.390649,-0.138493,-0.697487,0.300649,-0.599918,0.147551,0.193812,-0.272690,-0.185351,0.335860,-0.181506,-0.703421,-0.478935,-1.581707,-0.466585,0.009491,0.291765,-0.191892,-0.130104,-0.000737,-0.940593,-0.490638,0.144843,-1.402404,-0.063310,0.209228,-0.261562,0.073473,-0.354552,-0.000873,-0.898657,0.011288,-0.048665,-0.046168,-0.096056,0.168004,0.161778,0.153709,-0.270033,0.083439,0.444663,-0.264291,0.151485,-0.863375,-0.161604,0.416162,0.206312,-1.154321,0.293685,0.249060,0.103291,-0.708949,0.142251,0.192842,0.052535,-0.593547,-0.230400,0.281567,0.387533,-0.040680,0.262933,0.586363,-0.176739,0.351268,0.282756,0.000353,-0.035462,-0.000429,0.207061,-0.288639,0.090303,0.103522,-0.105785,-0.264154,-0.271416,0.290987,0.288208,-0.243453,0.012017,0.143964,-0.255952,0.172024,-0.540916,-0.563399,-0.324657,-0.099018,-0.551219,0.254987,0.019576,-0.273630,-0.430808,0.276469,0.246741,-0.518440,0.097362,0.087378,0.287697,0.184452,-0.218836,-0.129644,0.389044,0.232179,-0.107085,0.322839,-0.098989,-0.237027,-0.301563,-0.096519,0.090297,0.174674,-0.181058,-0.311101,0.023969,0.107841,0.262305,-0.370184,-0.563767,-0.138870,-0.287425,0.276945,0.168186,-0.318578,-0.021896,-0.111814,0.351341,0.226767,0.202533,0.227596,-0.152872,0.466972,-0.340683,-0.267509,0.224768,-0.241612,-0.279298,-0.535222,-0.104717,-0.477067,0.074717,-0.774257,0.038979,0.042650,0.258643,0.053789,0.206496,0.236379,0.107493,0.021739,0.386641,-0.526864,0.219373,0.467301,0.254443,-0.053639,0.138968,-0.648318,-0.238757,0.266326,-0.292796,-0.602633,-0.836344,-0.057745,0.193389,-0.058630,-0.397508,-1.390309,-0.741149,-0.535420,0.262378,0.073554,-0.175179,-0.574198,0.448871,-0.744225,-0.230225,0.238398,0.080520,0.296495,0.201706,-1.367148,-0.878487,0.463034,-1.376043,-0.795546,-1.006264,-0.930756,-0.099393,0.436497,-0.114694,-0.744674,-0.051688,-0.266360,-0.204918,-0.209730,-0.877598,-0.379374,-0.227088,0.484272,-0.851025,-0.360689,0.361471,-0.133411,0.002483,0.419853,0.259090,-0.072161,0.185284,-0.321426,-0.237745,0.322045,0.181065,0.372698,0.301233,-0.166851,-0.567650,0.134869,0.335341,0.424714,0.186746,0.214704,-1.132657,-0.802080,-0.861258,0.068169,0.240826,0.230246,0.135873,-0.488520,0.497463,0.544446,-0.541484,0.204662,0.053041,-0.438725,-1.112678,0.309799,0.137013,-0.630682,0.449685,-1.308775,0.322961,-0.939964,-0.017021,0.349752,0.270617,0.242320,-0.153874,-1.336351,-0.093486,0.123082,-0.711553,0.413621,-0.666794,0.235696,0.305109,0.011464,0.442096,0.041026,-0.653218,0.296488,-0.649524,-0.073243,-0.419564,-0.844137,0.364533,-1.363175,0.144595,-0.080099,0.350191,0.019890,-0.634111,-0.074701,0.252912,0.187098,0.132116,-1.172348,-0.391125,-0.217548,0.231429,0.236093,-0.088984,0.279078,0.032015,0.687839,-0.468115,-0.697401,-0.502056,-0.459569,0.063581,-0.217839,-0.232451,-0.432373,0.387456,0.323135,-0.267722,-0.350705,0.169198,0.016409,-0.072883,0.221836,0.037427,-0.324818,0.182030,-0.346366,-0.585547,0.268673,0.135683,-0.008056,0.551103,-0.171921,0.096202,0.573341,0.723617,0.200748,-0.082030,0.181615,0.368141,-0.262828,-0.188762,0.339198,0.209642,-0.276305,0.400979,-0.367348,0.138691,-0.281743,-1.048874,-0.023431,-0.124799,-0.097120,-0.551985,0.332728,-0.616450,-0.352841,0.282035,0.161560,-0.357797,0.028737,-0.904780,-0.306476,-0.510725,0.084198,0.216328,0.110858,-0.477845,0.634960,-0.117401,0.188199,0.547799,0.382806,0.806579,0.089826,0.063498,0.237356,-0.766573,0.091167,-0.000366,-0.511898,0.270611,-0.113562,0.198352,-0.199451,0.423916,0.238248,0.309051,0.249679,-0.192750,0.020555,-0.849367,0.217179,-0.162924,-0.245315,-0.362438,0.161262,0.799865,0.374413,0.184931,-0.471118,-0.762553,0.077457,0.382746,-0.717471,-1.245344,0.167058,0.827095,0.174131,-0.434507,0.127942,0.356853,-0.406204,0.362164,-0.236908,-1.047055,0.498541,0.097312,-0.676446,-0.449870,0.305672,-0.606664,0.272846,-0.057619,-1.167779,0.058890,-0.104505,-0.021485,-0.334727,-0.398827,-0.027278,-0.485720,-0.670305,-1.159678,0.288581,0.426360,0.148613,0.184154,-0.389268,-0.368472,0.426403,-0.121896,0.278472,-0.053125,-0.335819,0.256461,-0.405925,-0.456225,0.427141,0.582882,0.292630,0.114020,-0.511498,0.238773,0.145508,-0.642236,-0.379917,-1.137703,0.201101,-0.715441,-0.480707,0.116217,0.132334,0.229453,0.051486,-0.662531,-0.539522,-1.283048,-0.222427,0.397468,-0.691927,-0.445349,0.186458,-0.162718,0.293449,0.102890,-0.570965,0.260191,0.613122,0.293281,0.271639,0.352695,0.328303,0.180075,-0.053349,-0.518952,-0.225789,0.172731,-0.748935,0.119117,0.286408,-0.770360,0.396765,0.258655,-0.335127,0.264429,-0.660615,-0.078859,-0.088309,-0.090712,0.073460,-0.090023,-0.949981,-1.190524,-0.996411,0.222594,0.367440,-0.222088,-0.197245,-0.612800,0.449456,-1.274782,0.217579,0.304548,-0.769129,-0.181836,-0.195099,0.035071,0.003789,0.087120,-0.028920,-0.512306,0.207581,0.179628,-0.831507,-0.303391,-0.060622,-0.287456,-0.052689,0.373931,-0.063061,-0.076256,0.252999,-0.008524,0.213591,-0.772238,-1.238646,0.433450,-0.105082,-0.767795,0.191012,0.568464,0.300355,-0.078261,0.004930,-0.157386,0.373236,-0.425572,0.047262,-0.027930,-0.664339,-0.582766,0.212567,0.149924,0.349953,0.490668,0.259083,0.189585,-0.653304,-0.278144,0.032148,0.408643,-0.372174,-0.644622,-0.779467,0.208067,-0.484516,0.467056,0.321821,-0.274171,-0.146960,-0.332228,-0.449587,-0.199921,0.321358,0.336096,-0.565723,-0.248371,0.297949,0.131487,0.356541,0.270432,0.182850,-0.298086,-0.548398,0.216971,0.140201,-0.645354,-0.475395,0.166440,0.253956,-0.011981,-0.437333,-0.132064,-0.178136,-0.400817,-0.188534,-0.368167,-0.410634,-0.531541,-0.404046,0.622063,-0.263914,-0.156121,-0.328606,0.234005,-0.293463,-0.434850,-0.357747,0.315001,0.104981,-0.528434,0.369681,0.170164,-0.650303,-0.368982,-0.506920,0.089603,-0.339695,-0.304372,-0.501609,0.294991,-0.520864,-0.063380,-0.197193,0.239468,-0.883827,-0.255132,0.041380,0.516549,0.074298,0.198651,0.206894,0.167783,0.212227,-0.584493,-0.509957,-0.015180,-0.085806,0.240147,0.317984,0.241916,-0.300379,-0.145759,0.150802,-0.990167,0.316769,0.335970,0.250908,0.571339,0.175904,0.237394,0.143660,0.384793,0.146746,-0.832144,0.316735,0.435055,-0.299181,-0.145274,0.277018,0.097427,0.289710,-0.229755,0.167443,0.440502,-0.564164,0.322951,0.023257,-0.514927,0.264949,0.196797,-0.204956,0.191781,0.236661,0.203292,0.188846,0.416165,0.318362,-0.228074,-0.155252,-0.438884,0.056693,0.213461,0.271880,-0.707291,0.197890,0.344002,-0.655723,-0.413889,