0.225420,-0.361751,-0.329815,0.259890,-0.323164,0.120764,-0.102265,-0.360273,0.423322,0.377539,0.207161,0.195795,-0.108562,0.113359,0.443165,0.194830,-0.136492,0.141060,0.069983,-0.283525,-0.027138,0.154181,-0.425460,-0.168231,-0.284591,0.138909,0.057942,-0.258129,-0.205768,-0.263833,0.188391,0.575714,-0.252409,-0.358136,-0.339711,-0.541781,0.531396,-0.449938,-0.564084,0.117547,0.320022,0.036741,0.138693,-0.307740,-0.309631,-0.290047,-0.464586,0.177593,0.002852,0.359959,0.161849,0.025801,-0.293282,0.259710,-0.007573,0.224102,-0.358680,0.429636,-0.509705,-0.351728,-0.395625,-0.232112,-0.307838,0.003416,-0.432635,-0.121400,0.246284,0.048134,-0.390096,-0.232814,0.179623,-0.169281,0.297496,-0.540310,-0.335831,-0.272550,-0.177572,0.217478,-0.030539,-0.141953,-0.216602,0.277151,-0.297503,0.317779,-0.007641,0.131064,-0.337360,-0.014059,0.260343,-0.170965,0.283829,-0.047624,-0.175156,0.347129,0.033611,0.033842,0.274888,0.409138,0.220368,-0.058777,-0.331949,-0.039017,0.283718,0.209421,-0.261756,-0.200064,-0.445296,0.025316,0.229861,-0.101608,0.009851,0.267633,0.001284,0.275077,0.203595,-0.032119,-0.202859,0.416182,-0.109323,-0.053918,-0.206796,-0.114540,0.284328,0.623217,-0.150352,-0.255213,0.423723,-0.049124,