-0.001190,0.059541,-0.000882,-0.090637,-0.035211,-0.000131,-0.023174,0.091947,-0.125485,-0.102719,-0.235996,0.153555,0.096782,0.218367,-0.158950,-0.036704,0.264132,-0.182690,0.357461,0.165342,0.021095,-0.196585,-0.055697,-0.055982,-0.106233,-0.019704,-0.113437,0.141861,0.218910,-0.052047,0.223525,0.221871,0.124685,-0.122362,-0.031713,-0.117201,-0.030911,0.246618,0.030419,0.030618,0.057819,-0.231184,-0.043648,0.022197,0.011459,-0.045911,-0.198018,-0.004313,0.311989,-0.053999,-0.139435,-0.061203,-0.151570,0.056879,0.212061,-0.007413,-0.054817,-0.056329,0.020035,-0.040004,0.175556,0.190912,-0.189830,-0.019846,0.181954,0.172929,-0.291478,-0.082662,-0.373015,0.023410,0.129853,-0.130045,-0.094471,-0.051759,0.279163,0.105444,-0.160684,0.052819,0.271270,0.088099,0.321738,0.178462,0.079708,-0.075053,0.154985,0.059284,-0.038222,-0.098160,0.075094,0.079978,0.175775,0.015130,0.058981,-0.045539,0.223194,-0.013865,0.068724,-0.210338,-0.021714,-0.083637,-0.161921,-0.058404,0.255794,-0.279605,-0.261975,-0.020694,-0.130263,-0.091476,-0.052341,0.194647,-0.358849,0.011747,-0.195829,-0.255878,0.019798,-0.010119,-0.188284,0.080179,0.057345,0.058111,-0.137914,0.114886,-0.252530,-0.351415,-0.023735,0.267348,0.089041,0.016555,