0.015557,-0.018252,-0.002337,0.081393,0.075435,-0.020309,0.011082,0.011304,0.026042,0.117829,-0.018520,0.124917,0.015114,-0.266440,-0.148327,0.033298,0.181314,-0.025375,-0.089711,-0.160719,-0.184061,-0.009762,-0.088329,0.122424,0.194714,0.109136,-0.043281,-0.102058,-0.050205,0.352995,0.169512,0.086515,0.091453,0.053242,0.184408,-0.143610,-0.103524,-0.129443,0.074105,0.126978,0.051904,-0.038224,0.186332,-0.097037,-0.157289,-0.225551,-0.201856,-0.046919,0.118940,-0.059145,-0.140852,-0.165142,0.152010,0.083319,-0.173898,-0.004806,0.009582,0.030922,0.100970,-0.138161,0.074680,-0.057489,0.105812,-0.008964,-0.002848,0.116627,0.012905,0.094993,0.159964,-0.054257,-0.052983,-0.006517,0.119415,0.089167,-0.011460,0.171761,-0.046767,-0.044596,-0.172963,0.089359,0.029820,-0.006938,-0.047985,0.070345,0.009067,-0.126810,-0.221272,-0.068674,0.085599,0.147474,0.130589,0.167001,-0.113053,-0.046700,-0.054136,0.055730,0.128025,0.055504,0.089366,-0.073826,0.143869,-0.126820,0.181851,0.053630,0.109530,-0.057966,0.201331,0.137547,-0.077126,-0.233653,0.022428,0.047359,0.056908,0.011493,0.065873,-0.082932,-0.043215,-0.392845,-0.197454,0.088456,-0.037908,-0.079464,-0.121419,-0.028962,-0.198063,-0.053595,0.012565,-0.052992,-0.100115,-0.058852,0.164428,0.306884,0.105409,-0.204143,-0.080777,-0.123357,-0.068313,-0.074916,0.025694,-0.102972,-0.202612,-0.053390,-0.229595,-0.138927,0.196704,-0.227961,-0.152431,-0.097821,-0.137413,0.246207,0.103569,0.090704,0.246500,-0.298401,-0.046877,-0.206252,-0.119080,0.243550,-0.062036,-0.142687,0.246293,0.240617,0.534608,-0.286603,-0.144948,0.192347,0.356573,0.153284,0.194072,0.350295,0.239368,-0.193375,-0.152220,-0.134117,-0.112113,-0.212071,0.132761,-0.040735,0.031694,-0.342991,-0.186605,-0.117511,-0.286781,-0.003097,-0.068498,-0.202254,-0.020499,-0.252659,-0.141795,-0.316915,-0.185308,-0.055476,-0.031692,-0.043264,0.018571,-0.053453,0.037506,-0.138345,0.080490,0.038207,-0.063457,0.062495,-0.098469,-0.172106,-0.225892,-0.065647,-0.301486,-0.031539,0.056286,0.145978,0.188997,0.084447,-0.312847,-0.288840,-0.105500,0.022936,0.126156,0.114363,-0.059157,-0.097399,-0.005626,-0.248431,-0.097381,-0.077722,-0.021777,0.019453,-0.077942,-0.112758,-0.361423,0.039618,0.059128,0.041172,0.019078,0.109610,-0.397106,-0.334380,0.061768,0.345971,0.100273,0.007777,-0.065195,0.020203,-0.068168,0.030974,0.307528,0.220176,0.142915,0.085474,-0.065539,0.018553,-0.368606,-0.259122,-0.391318,-0.323666,-0.053134,-0.011734,-0.039487,-0.047146,0.137153,0.137514,0.213527,-0.101383,0.081080,0.093537,0.106851,-0.092089,0.056145,-0.030952,-0.116318,-0.082364,-0.407343,-0.067709,0.190518,-0.009824,-0.009534,-0.066213,-0.155999,-0.084153,-0.185984,0.019673,0.106461,0.101633,0.170903,-0.028664,-0.472858,-0.182992,0.169926,-0.104970,0.104879,0.114288,0.038889,-0.062095,0.156013,0.229493,0.064308,-0.002344,-0.059149,0.119125,-0.151087,-0.175603,0.021796,0.422769,0.223667,-0.121328,-0.021839,-0.368653,-0.262044,-0.465828,-0.313311,-0.041655,0.090998,0.112134,0.107609,0.219297,-0.093149,-0.045709,-0.092958,-0.273122,-0.063785,0.090498,-0.013730,-0.055077,0.072037,0.227606,0.118412,-0.341815,-0.121740,-0.017730,0.009455,0.010198,0.052683,-0.022706,-0.027139,-0.092214,-0.195590,-0.083998,0.113689,0.110310,0.271215,0.075706,-0.119576,-0.107660,-0.114641,0.112348,0.257880,-0.145438,0.092589,0.009711,-0.140986,0.056054,0.379242,-0.161420,0.259412,-0.389153,-0.477661,-0.271711,-0.268017,-0.013448,0.012051,0.149537,0.063656,-0.121160,-0.079557,0.112039,-0.057527,0.112983,-0.157063,-0.276937,0.055318,-0.160003,-0.186947,0.110410,0.030873,0.164780,-0.133286,0.044904,0.008790,-0.164373,-0.102695,-0.041266,-0.083214,-0.174670,-0.077796,0.102523,0.032959,-0.100333,0.003783,0.195160,0.307717,-0.231210,0.002354,0.016419,-0.098160,0.127738,0.139490,0.130004,0.063254,-0.173394,-0.191662,-0.174824,0.225982,0.078945,0.211574,0.215086,0.076825,0.022647,0.122308,0.021316,0.280589,0.114094,-0.050530,-0.171417,0.384470,0.356647,0.186216,-0.268248,0.044643,0.261225,0.270362,0.010743,0.211965,0.109834,0.162647,0.078970,0.092336,0.106403,0.229574,0.243854,-0.087573,-0.180768,-0.163168,-0.311381,0.140859,0.272310,0.258306,0.099449,0.032789,-0.065048,-0.219980,-0.119645,0.009761,0.029817,0.068626,0.338863,-0.064976,-0.179830,0.010067,-0.029954,-0.036151,-0.009469,0.103587,0.284815,0.239615,-0.207580,0.017868,-0.037547,-0.055972,0.169737,0.195714,0.031052,-0.003022,-0.331904,-0.187676,-0.051658,0.183653,0.044588,0.154475,-0.075526,-0.040296,-0.014974,-0.026018,-0.050326,0.093912,0.155141,0.010464,-0.240660,0.234481,0.017181,0.246711,0.122561,0.092585,0.080683,-0.074343,-0.007770,-0.290954,-0.336165,-0.068780,0.044833,0.005403,-0.033595,0.112429,0.077448,-0.013964,-0.164645,-0.199681,-0.314738,-0.065290,-0.105253,0.101245,0.188190,0.287158,0.115108,-0.137232,0.093053,-0.057297,0.002537,-0.061793,-0.292648,-0.196447,-0.099950,0.207261,0.073069,0.130371,0.014778,0.120607,0.020965,0.052165,0.204367,0.133245,-0.017046,0.021253,-0.097495,0.035872,-0.039176,-0.318153,-0.049770,0.044297,-0.013046,0.112526,0.075273,-0.020275,0.144423,-0.548720,0.044641,0.273033,-0.268532,0.154305,0.068925,0.021736,-0.424453,-0.139260,0.179170,0.114535,-0.183811,0.120802,0.308710,0.170981,-0.107239,-0.082892,0.200516,0.023355,0.212468,0.080301,-0.142956,0.092341,0.231826,0.201955,-0.052849,0.106922,0.040288,0.155089,0.013786,-0.076782,-0.042186,0.250439,-0.133327,0.056921,0.013584,0.140886,-0.028273,-0.047907,0.228682,0.049513,0.116676,0.031179,0.134553,0.190912,0.156784,0.045886,0.069349,0.033594,0.069700,0.150033,0.155209,0.125431,0.019438,0.073764,0.185021,0.017518,-0.170427,0.081121,0.042634,0.137273,0.020551,-0.047246,0.267118,-0.273627,-0.127849,0.165606,0.117412,0.068162,0.318204,0.125736,0.181998,-0.651012,0.013065,-0.041770,0.151231,0.175029,0.171736,0.418466,-0.107090,-0.045522,-0.042158,0.065043,0.077037,0.141534,0.155397,0.302482,0.248994,-0.013102,-0.190782,0.118729,0.063364,0.097024,-0.172268,0.165000,-0.054420,0.110010,-0.214983,0.127011,0.125096,0.101323,-0.003680,0.077435,0.105169,0.006379,0.001940,0.151481,0.137687,-0.023123,0.127125,0.170069,-0.050296,0.180731,0.401173,0.100615,0.050518,0.105577,-0.102679,0.129398,-0.110800,0.130852,0.099113,-0.230959,-0.106242,0.363262,-0.180778,-0.026424,-0.188903,0.209285,0.135504,0.010538,-0.436573,0.341892,-0.015594,0.090504,-0.253129,-0.359559,-0.178514,-0.147514,-0.410892,-0.047878,0.094828,0.314384,0.119372,-0.111114,0.253513,-0.026723,-0.025262,0.345985,0.141697,0.148332,0.071745,-0.046549,-0.002536,0.023342,-0.225523,0.320145,-0.178875,-0.172265,-0.266391,-0.230280,-0.068642,-0.098610,-0.098773,0.039905,-0.132207,0.088383,-0.000023,-0.016723,-0.012007,-0.160865,-0.032292,0.065417,0.150261,0.089513,-0.050248,0.037665,0.054732,0.130874,0.037121,0.160340,0.047739,-0.162706,-0.166019,-0.151941,0.026033,-0.053596,0.066876,0.202549,-0.077087,0.168162,-0.225432,0.025261,0.076712,0.223850,-0.185188,0.141960,0.059037,-0.087324,-0.227067,0.204814,0.328300,0.310587,-0.037445,-0.016753,-0.002253,-0.408624,-0.317765,-0.310193,0.084047,-0.175147,0.038070,0.065926,-0.094079,0.002044,-0.010385,-0.100248,0.095623,0.022045,0.029587,0.158153,-0.072150,-0.098900,0.005910,0.100957,0.142570,-0.004364,0.122423,0.139368,-0.082562,-0.237775,-0.161517,-0.148971,-0.211305,0.003673,0.132058,0.043341,-0.030395,-0.022653,0.019445,-0.002164,0.149509,0.037317,0.076935,-0.018936,-0.165981,0.030257,0.123779,0.101179,0.075710,-0.002953,-0.147414,0.090753,-0.111513,-0.017120,-0.011880,0.025998,0.100059,0.013128,-0.187592,0.102746,0.044296,0.381600,-0.163916,-0.295170,-0.101643,0.087603,-0.176912,-0.067015,0.071299,0.086832,0.084164,0.186792,0.045323,-0.236893,0.011418,0.281739,-0.039087,-0.120457,0.001560,-0.087405,0.013410,0.062146,-0.074623,-0.010586,-0.144900,-0.149191,-0.202648,-0.123460,0.136159,0.013785,-0.096789,0.108118,-0.109875,0.004169,-0.017789,-0.210864,-0.096817,-0.032248,0.122731,0.010773,0.064959,0.175605,-0.101431,-0.061637,0.218026,0.228033,0.005143,0.081436,-0.054368,-0.112647,-0.196754,0.013942,0.089387,-0.009548,-0.090306,0.295259,-0.091823,0.039269,-0.101583,-0.086348,-0.066166,0.013818,-0.269969,0.392329,-0.061329,0.031918,0.313152,-0.115574,0.144188,0.086814,-0.391517,0.175122,-0.277326,0.023574,-0.055433,-0.141352,0.124513,-0.015809,0.145165,0.055819,-0.249624,-0.035816,0.088170,-0.006481,0.004424,-0.003596,-0.055966,0.180169,-0.103599,-0.197803,0.246829,0.324854,-0.008034,0.188286,-0.233768,0.148119,-0.168756,-0.092620,-0.032734,0.180505,-0.214342,-0.196148,0.141857,0.052531,0.079530,-0.024332,0.044004,0.001657,0.162233,0.000177,0.024198,0.026526,-0.065299,0.131700,-0.069694,0.035929,-0.060729,-0.130927,-0.191959,0.230594,0.026856,-0.073648,0.212767,0.076811,-0.193859,0.076633,-0.376121,0.273826,0.158804,0.149602,-0.141653,0.193604,-0.193449,-0.287031,-0.411480,-0.123375,0.359111,0.298761,0.254605,0.089257,-0.031823,0.093483,0.308273,0.186653,0.018660,0.065065,0.374791,-0.018197,0.004008,-0.116724,-0.245371,0.229385,-0.060337,0.007580,0.054623,-0.082151,-0.145002,-0.166410,-0.184229,0.004190,0.057960,-0.286474,0.286482,0.006470,0.058399,-0.109892,-0.057709,0.142995,0.124957,0.171482,0.196865,0.026442,0.200762,0.179874,0.029156,0.093179,-0.236210,-0.010196,-0.357081,-0.192623,-0.017944,-0.056133,-0.136267,0.211163,-0.016971,0.050691,-0.010874,-0.221562,0.085170,0.330926,-0.392384,0.368137,0.189589,0.082721,-0.180712,0.019726,0.334697,0.255388,-0.136304,-0.082089,0.157318,-0.004671,-0.118466,-0.232827,0.035075,-0.004371,0.140814,0.363889,0.007852,0.030670,0.213397,0.005946,-0.045432,0.065396,-0.101298,0.062431,-0.162771,0.095413,0.008665,0.251660,-0.117983,-0.065505,-0.021011,0.181586,-0.073840,-0.002444,-0.076708,-0.033408,0.064352,0.009515,0.121200,-0.050737,0.010366,0.103177,0.135957,-0.070166,-0.363073,-0.030536,0.116409,-0.066332,-0.021040,0.143503,0.235971,-0.018698,-0.030037,-0.276755,-0.002776,0.149570,0.209627,0.195367,0.014241,0.252511,-0.023457,-0.065119,-0.087829,0.025028,0.212412,0.107845,-0.272886,-0.090970,0.098063,-0.366025,-0.181602,0.105786,-0.025003,-0.138797,-0.158518,-0.293609,0.064640,0.201527,-0.333886,0.137852,0.091735,0.143207,-0.095932,-0.017204,-0.003762,0.119946,-0.171464,0.127574,-0.088815,0.072887,-0.047296,-0.164436,0.015302,-0.187042,-0.070091,0.110336,-0.051181,0.163733,-0.252640,-0.164199,-0.263108,-0.048541,0.049722,-0.034255,0.014420,-0.001710,-0.060552,-0.039326,-0.142672,-0.101931,-0.070781,0.041047,-0.032900,0.049536,-0.207436,0.223748,-0.047997,-0.223643,0.056963,0.062006,0.145442,0.008703,0.000051,0.143689,0.242599,0.147846,0.087812,0.106164,0.121395,-0.062562,-0.182524,0.123278,-0.010606,0.014008,0.157501,-0.025558,-0.022051,-0.277541,0.241304,-0.485361,0.033969,-0.159967,-0.040072,0.076489,-0.053788,0.203952,0.103024,0.018461,0.005305,0.084103,0.122809,0.107508,-0.117057,-0.113134,-0.101137,-0.044157,0.163840,0.080123,0.070253,-0.014329,0.087894,0.017072,-0.162905,-0.091816,-0.008660,0.075744,0.100660,0.032596,-0.081288,0.186723,0.290722,-0.362352,-0.709618,-0.046422,-0.116628,-0.104302,-0.139205,0.314390,0.047224,-0.165260,-0.074749,-0.052209,-0.066871,-0.176677,0.154532,0.273616,-0.205618,-0.175075,-0.117089,-0.026898,-0.168328,-0.251058,-0.497268,-0.190644,0.033983,-0.036766,0.139301,0.251947,-0.052360,0.065565,-0.361918,0.049594,0.163814,-0.255821,-0.007243,-0.147970,-0.188375,0.224043,0.103876,0.060282,-0.047984,0.078759,0.218175,0.042863,-0.185530,-0.057297,-0.186092,-0.043997,0.138342,0.124437,0.043124,0.233357,-0.043488,-0.091487,-0.086044,-0.000846,0.007630,-0.127155,-0.243670,-0.270023,0.026195,-0.025378,0.030744,-0.001027,0.079997,0.171802,-0.259185,0.087873,0.083629,-0.026809,0.187062,-0.043424,0.331756,0.127351,-0.160515,0.012082,0.135492,0.056796,-0.026621,-0.094371,0.214225,0.237571,-0.047531,-0.152095,-0.109522,0.051536,-0.086463,0.229651,0.214910,-0.026067,-0.034240,-0.279675,0.054619,-0.022011,0.014354,0.270321,-0.326675,-0.113652,-0.208672,0.047954,-0.061871,0.006803,-0.063576,-0.250470,-0.169427,0.023106,0.026854,-0.071255,0.078489,0.030140,-0.161173,-0.067789,-0.047914,0.045618,0.138829,0.087310,0.088194,-0.020735,0.010826,0.261873,-0.130780,0.071592,-0.254054,0.099907,-0.044818,0.054617,-0.079677,0.053390,0.076361,0.045343,-0.460868,-0.011964,-0.035325,0.007502,0.012905,0.105463,0.038553,0.245860,0.056176,-0.034859,-0.019255,-0.134049,-0.037443,0.035304,-0.065184,0.018903,0.221453,-0.005194,-0.030375,-0.184964,-0.308355,-0.204023,0.354030,0.052554,-0.098818,-0.172639,0.183685,0.084747,-0.061325,0.019125,0.190614,-0.121698,-0.035796,0.135920,-0.145553,0.042205,0.044682,0.213527,-0.055177,0.146743,0.016508,0.034089,-0.209297,0.007946,-0.111329,-0.129219,-0.020528,-0.044582,0.239940,-0.118047,-0.034319,-0.025676,-0.140321,0.163131,0.128695,0.000731,-0.223244,-0.100753,0.009129,0.054009,-0.053840,0.157963,0.201431,-0.050771,-0.590010,-0.071540,-0.025215,-0.030115,0.188801,0.074032,0.241864,0.342471,-0.045319,-0.114116,0.029567,-0.129787,-0.176892,-0.257349,0.141891,0.175776,0.091506,0.088594,-0.031791,-0.219600,0.067587,0.841396,-0.167182,0.042153,-0.195088,-0.270599,0.074900,-0.058719,0.400542,-0.106543,-0.399356,-0.006780,0.038061,-0.045570,-0.346572,0.094857,0.033566,-0.039522,-0.103801,0.272881,-0.150296,0.023473,0.165501,-0.031691,-0.116646,-0.104284,-0.089566,-0.043325,0.121077,0.141778,-0.037030,-0.029148,-0.133782,0.001373,-0.256463,-0.231274,-0.257460,-0.157474,-0.023944,0.117481,0.045663,0.097046,0.161584,-0.070257,-0.593373,-0.059878,0.003938,0.083659,-0.147594,0.282478,-0.195772,-0.225215,0.061378,-0.139329,0.015551,-0.081678,-0.035997,0.176890,-0.182081,-0.195620,0.006451,0.188272,-0.214172,-0.241623,0.334743,-0.277915,-0.160668,-0.070075,-0.130279,0.062139,-0.096772,0.148354,-0.136469,-0.219741,0.122254,0.228346,0.264907,-0.189233,-0.381405,0.311293,-0.094809,0.008428,0.007506,-0.142548,-0.062032,0.003818,0.115067,0.024986,-0.227071,0.037803,-0.047126,0.136588,0.016134,0.085535,0.206963,-0.029939,0.002637,-0.111062,-0.364894,-0.524868,-0.131874,0.109065,0.041006,0.003869,0.079518,-0.041997,0.196774,0.005369,-0.634037,-0.100172,0.028480,0.022731,-0.251496,-0.075403,-0.036559,0.076163,-0.087457,-0.074615,-0.044839,-0.040937,-0.008399,0.048873,0.240962,0.285977,-0.026275,-0.110430,-0.197956,-0.262115,0.266463,0.345744,-0.019312,-0.197580,0.077388,-0.552770,-0.032008,0.163794,-0.130822,-0.056254,-0.131618,-0.232669,-0.067034,0.214117,-0.114192,0.199493,-0.036342,0.086746,-0.129610,0.285312,0.055525,0.028367,-0.080831,0.071167,-0.236016,0.084636,-0.061436,-0.100202,0.093398,-0.007442,0.152120,-0.017153,0.043239,0.001205,-0.104076,-0.260606,-0.319125,0.190719,0.023165,0.043982,-0.029418,0.044643,0.065773,0.015279,-0.259757,-0.050101,-0.043489,0.059587,-0.131444,-0.150286,0.127196,-0.178118,0.125004,-0.071682,-0.056016,0.002027,0.056618,-0.063500,0.369874,0.336694,0.083774,-0.235904,-0.060440,0.023849,-0.059744,0.108527,0.114465,0.166924,-0.113483,-0.288486,-0.032498,0.059549,-0.112506,-0.274708,-0.108169,-0.267426,-0.198769,-0.008562,-0.233586,-0.089596,0.019214,0.111511,-0.221177,-0.415723,-0.096374,-0.110888,0.041299,-0.052625,0.068153,0.064168,0.054907,0.153425,-0.256669,0.158972,0.076746,0.080234,0.211030,-0.252907,0.363839,0.102243,-0.348618,-0.180565,0.100232,-0.146571,-0.053979,-0.053913,-0.214879,-0.162114,-0.189846,-0.104543,-0.080024,-0.056540,-0.123224,0.018547,0.041099,0.019205,-0.180060,0.044353,-0.036886,-0.152673,0.018042,-0.099234,0.093997,0.157392,0.020629,0.074818,-0.073085,-0.101108,-0.251255,-0.068071,0.056953,0.341016,-0.067347,-0.102158,-0.097990,-0.037901,-0.102466,-0.272591,0.044179,-0.152740,-0.078710,-0.114579,-0.019111,-0.001727,0.125240,0.004949,-0.039687,-0.472880,0.002245,-0.041763,-0.001787,-0.055269,0.120983,0.010221,-0.040590,-0.139453,0.086562,0.158059,-0.063508,-0.012627,-0.028264,-0.229656,-0.210526,0.068552,-0.307835,-0.152679,-0.029469,-0.005563,-0.125303,0.222683,0.298967,0.161921,-0.621310,-0.179715,-0.144188,0.016491,-0.093960,-0.191290,-0.154745,0.110421,-0.023360,0.044724,0.018157,-0.070096,-0.222085,-0.303575,0.092901,0.041430,0.172868,0.246920,0.167524,-0.221264,0.105291,-0.273233,-0.122777,0.074779,0.186496,0.293127,0.531699,-0.150040,-0.123254,-0.031067,-0.042521,-0.099441,-0.168371,-0.032122,0.150138,-0.217958,0.039560,0.037898,0.126958,-0.287982,0.047620,0.093614,0.001416,-0.080483,0.000441,-0.025476,-0.233098,0.027780,0.186205,0.152424,-0.028768,-0.074710,0.500384,-0.026804,0.153501,0.328249,-0.147594,-0.264294,-0.111969,-0.099296,-0.086208,-0.172987,-0.195404,-0.033336,-0.196177,-0.161246,0.016110,-0.142348,-0.062514,-0.040904,0.056983,0.096620,-0.047258,0.109595,-0.001997,-0.032048,0.090547,0.002643,0.152951,0.207697,0.156949,0.087214,0.188780,-0.122804,0.083981,0.363423,0.363895,-0.047176,-0.084190,0.141776,0.206559,-0.092773,-0.182191,0.365431,0.235820,0.179285,-0.041752,0.161866,0.097117,0.012250,0.120954,-0.225987,-0.174955,-0.004543,0.036219,0.191138,0.003764,-0.094300,-0.267188,-0.096024,0.019380,0.018617,0.046613,0.029821,-0.015842,-0.101285,0.264676,-0.244943,0.092990,0.260007,-0.372009,-0.270878,-0.046896,-0.069644,-0.157770,-0.025022,-0.027758,0.120954,-0.383658,-0.144270,-0.038743,-0.078793,-0.142138,0.084753,0.149901,0.197711,-0.046242,0.081302,0.032607,-0.122571,-0.020220,-0.226564,0.249558,0.228188,0.120952,0.276083,0.387213,-0.172434,-0.045432,-0.030432,-0.017837,0.196919,0.174355,0.189570,0.215736,-0.054818,0.195686,0.056315,0.165091,-0.033200,0.002981,0.114742,0.197283,-0.037702,-0.116754,0.037647,0.042460,0.135261,-0.008414,0.038871,0.026373,-0.131259,0.268200,-0.182821,0.006163,-0.116323,-0.068037,0.091571,-0.059884,-0.134147,0.210841,-0.364499,-0.179269,-0.000141,-0.260701,-0.285410,-0.079519,-0.010072,-0.049594,0.070147,0.019786,0.110443,-0.468799,-0.312201,-0.088364,-0.182149,-0.090816,-0.098310,0.194333,0.240856,-0.118498,0.021907,0.261628,0.145770,0.226346,-0.009401,0.219916,0.282575,-0.003346,-0.029598,0.128128,-0.219020,0.318927,0.169606,0.197844,0.195870,-0.116164,-0.312987,0.355372,-0.160121,0.174876,-0.144554,-0.236847,-0.115669,-0.153404,-0.262824,-0.127110,-0.118815,0.138218,-0.027251,-0.142837,0.091094,0.105862,-0.030142,0.200311,-0.146072,-0.128719,-0.059512,-0.017625,0.213281,-0.232125,-0.134428,0.111983,-0.092289,0.621075,-0.039933,0.168902,0.295218,-0.216394,-0.244064,-0.136091,-0.081660,-0.019636,0.054126,0.112627,0.169398,-0.594349,-0.228420,-0.111423,0.035377,-0.196577,-0.085386,-0.255816,-0.256113,0.075383,0.002515,0.101444,0.038087,-0.060939,-0.007112,0.026975,0.101300,0.078497,-0.154628,-0.078044,-0.235943,-0.186901,-0.050129,-0.078727,-0.177698,-0.061524,-0.124813,0.121608,-0.087869,-0.322828,-0.327027,-0.498650,0.160425,-0.191797,-0.247306,-0.084802,-0.076187,-0.061621,-0.009609,0.154020,-0.148403,-0.145803,0.045549,0.186133,-0.141246,0.024968,0.341126,0.096789,-0.033508,-0.016665,-0.159496,0.279084,0.037356,0.302765,0.128705,0.407597,0.379334,-0.193152,-0.318926,-0.039488,-0.110842,-0.121129,0.116084,0.139584,0.285132,-0.431626,-0.190671,0.035547,-0.017534,-0.123528,-0.015021,-0.101983,-0.201780,-0.282071,-0.093019,-0.095721,0.035841,0.132725,-0.034680,0.354726,0.247375,0.081092,-0.095163,0.100775,-0.082776,-0.125237,0.324983,-0.066080,-0.119636,-0.135756,-0.154026,0.036066,-0.160474,-0.148182,-0.149594,0.047867,-0.109191,-0.178444,0.109603,-0.008528,-0.088648,0.080748,0.066216,-0.262073,-0.205846,-0.011783,0.169966,0.004473,-0.034074,0.264698,-0.035897,-0.049847,0.173711,-0.101877,-0.033346,0.085591,0.050462,0.244576,-0.099540,0.244587,0.328419,-0.291812,-0.112518,-0.063947,-0.149535,-0.040183,0.148672,0.152241,0.249347,0.033391,0.030668,-0.041426,0.021652,-0.125412,0.113531,-0.061114,-0.123842,-0.049382,-0.098277,-0.233829,-0.085886,-0.034812,-0.013078,0.039142,0.171012,0.191678,0.004138,-0.135109,-0.032256,-0.086083,-0.038388,0.040617,-0.335550,-0.201550,-0.101534,0.045608,-0.048318,-0.163484,0.114456,0.062885,-0.129485,-0.169660,0.271044,-0.103648,-0.048006,-0.167281,0.255864,0.535101,0.169421,0.090757,0.238123,-0.182452,0.018980,0.035956,0.205531,0.078305,-0.149041,-0.146749,-0.117546,-0.063482,-0.052907,-0.129743,-0.103591,0.283280,0.110510,-0.021683,-0.004270,-0.080258,-0.100592,-0.082240,-0.095113,0.058598,0.118348,-0.092003,-0.128999,-0.068816,-0.107102,-0.223151,0.293539,0.252990,0.276216,0.013138,-0.025690,-0.005202,-0.121130,-0.091183,0.096849,0.008691,-0.021850,-0.283169,0.202099,-0.073698,-0.130934,-0.213556,0.068435,-0.025033,-0.385258,0.020204,0.072629,-0.172781,-0.113195,-0.158504,0.136351,0.112521,-0.258565,-0.168718,0.072334,0.031801,-0.046735,-0.149834,0.200315,0.283712,0.246195,0.142326,0.186070,-0.077689,-0.019137,0.266692,0.080112,-0.218240,-0.073995,0.097327,0.093958,-0.037050,-0.134422,-0.172589,-0.119723,0.037091,-0.061819,-0.027008,-0.007083,-0.098675,0.072353,-0.033829,0.378368,0.340010,0.626710,0.264945,-0.018808,-0.024001,-0.047252,-0.045508,0.128565,0.047945,0.056666,-0.074810,0.233907,-0.171543,0.047316,0.205757,0.155896,0.082413,0.213991,-0.193063,-0.142178,-0.348622,-0.084229,-0.107390,0.049523,0.079379,-0.049131,-0.191127,0.139723,-0.456285,0.084507,0.105419,-0.000030,0.332903,-0.062325,-0.203709,-0.218182,-0.353281,0.251670,0.065479,-0.268521,0.179982,0.308259,0.171659,0.312657,-0.281316,-0.179959,0.080628,0.086506,0.189005,0.223264,0.281342,0.195330,0.020868,-0.006834,-0.300185,-0.119001,0.384557,0.108696,0.208253,-0.029962,0.063090,-0.075668,0.012691,0.058551,0.081044,0.032491,0.011594,-0.136331,-0.056422,-0.088101,0.117553,-0.095296,-0.036751,-0.051991,0.111292,-0.006120,-0.130468,-0.080550,-0.067693,-0.083590,-0.186672,0.154446,0.276251,0.163593,-0.130854,-0.032712,0.006117,-0.167519,-0.019674,0.290743,-0.006699,-0.055735,-0.176140,0.008813,0.033014,-0.105854,0.018949,0.062906,-0.075524,0.213656,-0.231571,0.035243,-0.370366,-0.304279,-0.127207,-0.024405,-0.105722,-0.070978,-0.010280,-0.097520,0.291515,0.251461,0.240454,0.177263,0.085432,-0.069318,-0.057248,-0.117399,-0.293975,0.178344,0.179355,0.308079,0.202864,-0.093557,-0.030864,0.023052,-0.066826,0.169616,0.196145,0.229429,0.144687,0.053152,0.078136,-0.006527,-0.097296,-0.000819,-0.078511,0.048405,0.056301,-0.010487,-0.138920,-0.011128,0.022250,0.015531,-0.016309,-0.123353,-0.093700,0.189472,-0.290916,0.001661,-0.087555,-0.028612,-0.087517,-0.004445,0.312650,-0.160187,-0.257490,-0.006567,0.197581,-0.221897,0.033156,-0.195278,-0.290942,0.082418,-0.301594,0.048482,0.111063,0.013606,-0.172513,0.006870,-0.013487,0.092046,-0.274515,-0.122270,-0.005695,-0.086460,0.045172,0.208159,0.165319,-0.044751,0.035847,-0.105016,-0.280167,0.071316,0.080415,0.188154,0.229829,-0.091257,-0.052527,0.099877,0.001821,0.244768,0.341872,0.574996,0.309055,0.113546,0.108019,-0.078363,0.021869,-0.146614,-0.054636,0.003899,0.210450,0.059817,-0.032307,-0.065598,-0.128456,-0.095874,-0.016501,-0.022691,0.091323,0.245394,-0.271078,0.045309,-0.101004,0.058204,-0.030056,0.086672,0.046072,-0.211565,-0.013402,0.069570,-0.176430,-0.145519,0.213381,0.149534,-0.021726,-0.004537,-0.022037,0.174242,-0.191845,-0.076431,0.359834,0.252614,0.097986,0.194358,-0.236289,-0.055772,0.035647,0.299446,0.192582,0.145204,-0.011508,0.000225,0.053166,-0.019381,-0.143617,-0.022930,0.117349,0.174302,-0.212220,-0.053315,0.003820,0.029608,0.038738,0.214522,0.362031,0.549842,0.227814,0.043532,0.009480,-0.029492,-0.117178,0.423672,0.106826,-0.099264,0.025119,-0.110124,-0.323399,-0.143619,-0.063817,-0.015563,-0.218555,-0.219707,-0.181472,-0.076912,-0.285217,-0.194278,-0.128147,0.128570,-0.044238,-0.144605,-0.134951,-0.262372,0.180631,-0.107073,-0.035707,0.132026,0.005975,-0.218309,-0.072200,0.068853,-0.088456,0.129693,-0.239217,0.257810,0.201298,0.201364,0.193412,0.324002,-0.207493,-0.043786,0.128291,-0.154583,-0.103576,-0.243700,0.046341,-0.024460,0.124968,-0.070425,-0.123462,-0.364667,0.386079,0.102913,-0.106848,-0.140424,-0.077256,0.013366,-0.020943,0.201592,0.521408,0.416984,0.203503,-0.075374,-0.020669,0.072565,-0.191030,0.045460,0.002763,0.129450,0.241377,0.027114,-0.241949,-0.125538,-0.084741,-0.133719,0.173744,0.130273,0.313420,-0.003121,-0.200109,-0.141048,0.021404,-0.104375,-0.019023,-0.132028,-0.276121,-0.095451,-0.070272,0.064442,-0.117028,0.078609,0.068770,0.239631,0.099996,0.487897,-0.381412,0.114482,-0.307940,0.027815,0.345013,0.176426,0.145299,0.028989,-0.085196,-0.113483,0.192102,0.244419,-0.093201,-0.032345,-0.096235,-0.255495,0.043239,-0.016945,-0.120699,0.068551,0.382466,0.152182,-0.146224,-0.148607,0.067122,0.028963,0.068538,0.030157,-0.171031,-0.212609,-0.318971,-0.102167,0.020718,0.064050,-0.128681,-0.126579,-0.043661,0.076935,-0.070758,0.321893,-0.044523,0.190536,0.057838,0.005303,-0.145646,0.032711,0.247784,0.231123,0.066708,0.065610,0.118510,0.087625,-0.151099,0.178707,0.188306,0.121201,-0.252980,-0.001486,-0.026605,0.123427,-0.183686,-0.206503,0.029625,0.206969,-0.248282,0.158827,-0.062233,0.141279,0.208193,0.183421,-0.009886,0.008870,-0.173291,0.000836,-0.289145,-0.025791,-0.023844,0.083629,0.012373,0.046012,0.088578,-0.017781,-0.187065,0.134673,0.140153,-0.038194,-0.132195,0.121973,0.046845,0.005594,-0.001785,-0.016569,-0.055303,0.078209,-0.145715,0.075016,-0.025454,0.003950,0.103398,-0.081584,-0.031587,0.101169,-0.279595,0.017772,0.120382,0.080636,-0.070362,0.009809,0.103201,-0.123515,-0.054312,0.179226,0.009612,0.131579,0.206622,0.015884,-0.047059,-0.171711,0.074107,-0.108519,0.149922,0.003679,0.087985,0.108177,-0.132557,-0.371025,-0.043763,-0.030035,0.203309,0.075540,0.024221,0.235610,0.024012,-0.027950,0.078633,-0.074525,0.012889,0.037882,-0.124160,0.343907,-0.156215,-0.164474,-0.202395,-0.031055,-0.047750,-0.027776,-0.183112,0.159231,-0.033589,-0.002734,-0.038530,-0.017365,0.010268,-0.006588,0.013266,-0.132231,-0.031174,-0.291915,-0.434028,-0.165313,-0.099726,-0.047737,-0.175067,-0.121288,-0.284317,-0.029588,-0.242969,0.134425,0.139068,0.180880,0.164243,-0.328193,-0.171181,-0.289461,0.202896,0.337289,-0.286478,0.075512,-0.062053,-0.039248,-0.298104,-0.283639,0.210373,-0.009652,-0.450664,0.085818,0.280000,0.408021,-0.001925,-0.121067,0.075744,0.000383,-0.015132,0.150357,0.102459,0.276993,-0.079641,-0.226021,-0.029700,-0.074045,0.123684,0.076659,-0.078318,-0.128791,-0.046335,-0.025126,-0.333923,-0.280799,0.013096,-0.023997,-0.489180,0.041364,-0.194869,-0.115749,-0.517180,-0.180912,0.006198,-0.014344,-0.008758,0.084773,-0.124107,0.050489,-0.168114,-0.001591,0.018839,-0.000376,-0.108586,-0.016626,-0.102047,-0.177105,0.089273,0.184892,-0.022270,0.002627,-0.127448,0.066958,-0.066400,-0.144241,-0.036945,-0.008012,-0.048433,0.057706,0.044193,0.090021,-0.010532,0.269065,0.143476,-0.109915,-0.305474,0.041223,-0.113467,0.043423,-0.287405,-0.151477,-0.084078,0.180967,-0.057859,-0.032422,-0.056564,-0.214521,-0.223979,-0.124231,0.297550,0.147149,0.050517,0.074928,0.023020,0.028166,0.055374,0.025403,0.206742,0.064022,0.095569,-0.030454,-0.266706,-0.236110,-0.264581,-0.403745,-0.338461,0.042726,0.024762,0.028281,0.091508,-0.067216,-0.108341,-0.059405,-0.312600,-0.051090,0.061620,0.066426,-0.285254,-0.116088,-0.072368,0.003264,0.015959,0.254233,0.093485,0.186677,0.086256,0.099160,-0.194135,-0.222875,-0.130216,0.151369,-0.205125,0.057012,0.089360,0.116260,-0.093278,-0.555407,-0.310513,-0.165295,-0.263903,-0.082582,0.123748,0.187301,-0.144847,0.083488,0.257045,0.318526,0.073606,0.160861,-0.041466,0.106342,-0.256524,-0.135915,0.139464,-0.027355,0.095485,-0.029200,-0.314643,-0.445768,-0.351949,-0.495124,-0.123798,0.003167,0.045616,0.062385,-0.025869,0.114028,0.070850,-0.240259,-0.300986,-0.186029,0.008333,0.036403,0.027406,0.022408,-0.104597,-0.188870,-0.549751,-0.304831,-0.027708,0.115220,-0.133403,-0.242499,0.005439,0.126467,-0.016140,0.216408,0.126062,0.141478,0.038547,0.113990,0.181029,0.223245,0.211318,0.097758,-0.127300,0.029821,0.195274,0.042338,0.290615,0.018648,0.016917,0.100158,-0.155371,-0.056217,-0.215123,-0.287271,-0.143930,-0.204678,-0.087482,-0.144635,-0.152747,-0.020100,-0.375080,-0.074851,0.124701,0.049600,0.066993,-0.066595,-0.179832,0.093816,-0.140457,-0.190402,0.215560,0.189577,0.105056,0.030758,-0.123755,0.064423,-0.362948,0.159544,-0.065688,-0.178734,-0.325110,-0.186290,0.139579,0.028161,0.022172,0.032518,-0.096198,-0.290764,-0.449079,-0.261424,0.051431,0.003202,-0.120436,-0.118921,-0.185045,-0.300228,-0.297382,0.092945,-0.000705,0.229429,-0.102055,-0.019967,0.113382,0.127204,0.293737,0.259333,0.166984,0.105312,0.062141,-0.141829,-0.085890,0.417357,0.408708,0.184949,-0.361343,-0.012444,0.049787,0.096282,0.096433,-0.206126,-0.176557,-0.063636,-0.161076,0.178015,0.143161,0.253680,0.363166,0.124851,-0.094737,-0.146633,-0.251232,0.256281,-0.007174,0.079831,0.122835,0.055668,-0.123739,-0.234990,-0.067367,-0.019884,-0.284047,-0.067791,0.212242,-0.079139,-0.195684,-0.030138,-0.079548,0.054560,0.061535,-0.051710,0.022840,-0.172886,-0.336845,-0.062964,0.139944,-0.019985,-0.155917,-0.115807,0.031278,0.211982,0.088320,0.241202,0.209922,0.125924,-0.124619,0.008731,0.018690,0.162819,0.255988,0.181564,-0.148991,0.080753,0.003594,0.044156,0.092188,0.187068,0.121437,0.077290,-0.225411,0.100118,-0.075932,-0.071234,-0.298755,-0.282967,-0.245204,0.109261,-0.054981,0.255891,-0.036088,0.089062,0.122545,0.062739,-0.055779,0.032163,-0.191356,0.139086,-0.359459,0.175159,0.176372,0.134656,0.202583,0.055760,0.115588,0.137850,-0.204338,0.166440,-0.283845,-0.118566,-0.186899,0.203524,0.020983,-0.021507,0.083776,0.192382,0.079345,0.082128,0.271225,0.071620,-0.081764,-0.030399,0.029309,-0.029888,-0.001058,-0.215612,-0.152447,-0.115792,-0.046301,-0.137273,0.143480,0.188854,0.212786,0.070480,0.024926,0.189292,-0.330814,0.055567,0.141319,-0.094886,0.024298,-0.328489,-0.073628,0.149691,-0.067549,-0.010696,-0.062928,-0.199447,-0.343641,0.085084,-0.203035,-0.082560,0.134363,0.007458,-0.060895,0.329594,0.182426,-0.228064,-0.303518,-0.275030,0.170237,-0.021911,-0.102183,0.129549,-0.285084,-0.165416,-0.129056,0.100140,0.150938,0.070420,-0.238126,0.149412,-0.082584,0.099991,0.118785,0.160657,-0.041745,-0.029849,-0.106681,0.017223,-0.027305,-0.056911,0.063702,-0.041744,-0.059903,0.057766,0.043009,0.186169,0.076350,0.367897,0.265595,0.063251,0.014155,-0.014144,-0.055658,0.080904,0.034261,0.104975,-0.042083,0.051398,-0.085612,0.030724,0.069033,0.042895,0.160053,0.029688,-0.135245,0.306126,-0.114793,0.010305,-0.019534,-0.200161,-0.251966,-0.200972,-0.089991,0.231014,-0.116788,0.022734,-0.030477,0.375007,0.255235,-0.133966,-0.233897,-0.159073,-0.060655,0.035649,-0.085647,0.019951,-0.182510,-0.084452,-0.097263,0.117724,0.029258,0.019193,-0.024500,0.079145,-0.025420,0.227744,0.083919,-0.080188,0.019933,-0.022098,0.059827,0.341119,0.183912,-0.012404,0.779338,0.286416,0.116619,-0.057045,-0.098042,0.135482,0.327728,-0.036346,-0.170274,-0.234952,-0.369493,-0.329165,0.101458,0.226947,-0.021446,-0.096832,0.112531,-0.166587,-0.617288,-0.019096,0.123975,-0.231574,0.120885,0.202047,-0.117961,0.205311,-0.326659,-0.104389,0.252845,0.253904,0.047913,-0.241281,0.094392,0.058459,-0.089159,0.214887,-0.038664,-0.044933,-0.204263,0.222428,0.049978,-0.040104,0.131717,-0.002841,-0.052107,-0.256663,-0.063587,0.035968,0.141938,0.136247,0.029557,-0.026996,-0.321673,0.121779,0.300322,0.266901,0.161005,-0.073040,0.012132,-0.064980,-0.093587,-0.077936,0.120809,0.028023,0.167652,-0.000784,-0.095245,0.013900,0.196408,0.168411,0.095419,0.195648,-0.047226,0.037767,-0.092278,0.012554,-0.242891,0.186475,0.243258,0.044756,-0.094561,-0.059336,-0.342901,0.116709,0.065143,0.189335,0.292252,0.014997,0.107162,0.209522,0.026993,-0.067808,-0.126775,-0.232824,-0.564553,0.136086,0.021697,0.107255,-0.005483,0.030144,-0.012554,-0.198507,-0.161195,0.446586,-0.106639,-0.179852,-0.065292,0.080873,0.092556,0.010267,-0.039620,0.189899,0.021581,-0.151932,-0.026202,-0.004815,-0.137452,0.061221,0.060856,0.436539,-0.033035,0.135360,0.084473,0.071187,-0.062647,0.210824,0.149031,0.201785,0.429888,0.258099,0.069822,0.010351,0.040050,0.011748,0.195363,0.148640,-0.037606,-0.156638,-0.227589,-0.144634,-0.201969,0.203460,0.014314,0.094945,0.171961,0.029631,-0.534605,-0.032868,0.178585,-0.120522,0.233651,0.001055,0.054380,0.272122,0.092985,0.029965,0.124647,-0.060835,-0.002263,-0.043758,0.041923,0.007317,-0.116933,0.003613,0.213304,-0.072474,-0.218463,0.106471,0.037813,-0.061056,0.018185,-0.065598,-0.123309,-0.395399,-0.189325,0.330404,0.311742,-0.049325,0.081463,0.068310,-0.132048,0.259457,0.136612,0.378640,0.100202,-0.025029,-0.019245,-0.084680,-0.112136,0.230834,0.264260,0.113182,0.613499,0.332446,-0.073223,-0.090973,-0.073009,-0.025603,0.201860,0.036193,0.097970,-0.063912,-0.347337,-0.320477,-0.057330,-0.079714,0.188183,0.144942,-0.200981,0.273056,-0.557353,-0.063882,0.213115,0.248037,0.166109,-0.345514,-0.123334,0.051250,-0.112506,0.101459,-0.297507,-0.294209,-0.371032,-0.015571,0.122060,0.023869,0.079858,-0.045521,-0.065686,-0.275576,0.473973,0.125644,-0.114591,-0.416943,0.181510,0.041091,-0.105386,0.243457,0.151317,0.195416,-0.029713,-0.098709,0.101135,0.016774,-0.326876,0.253145,-0.058562,0.441191,0.153952,0.086897,-0.108323,-0.054347,0.026372,0.183224,0.350248,0.088705,0.364291,0.260993,0.006119,-0.031258,0.262043,0.179315,-0.095505,-0.323632,-0.234485,-0.230853,-0.154909,-0.317795,0.003579,0.137755,0.180662,0.041897,-0.179081,-0.021334,-0.566492,0.130594,-0.002920,-0.104538,-0.266063,-0.109177,-0.121132,-0.143378,-0.322973,0.029657,-0.179183,-0.185959,0.010048,0.086822,-0.189020,-0.098057,0.307565,-0.002864,0.072767,0.398678,0.109561,-0.115961,-0.463567,-0.402650,0.211675,0.046268,-0.091157,-0.195828,-0.142916,-0.285442,0.079589,0.002277,-0.067745,0.043513,-0.429998,-0.009571,0.078841,0.277242,0.083835,0.114425,-0.053837,0.044539,0.047920,0.105214,0.221887,0.063965,0.195943,0.351159,-0.051555,-0.064687,0.188239,0.013748,0.028302,0.158339,0.087031,-0.119993,-0.483899,-0.115580,-0.120105,-0.041919,0.173933,0.170235,0.040921,0.061850,-0.515382,0.137496,0.148320,0.187033,0.094548,0.028251,-0.171880,0.261089,-0.106003,0.065102,-0.130934,-0.327359,-0.488872,0.054714,-0.157372,0.073599,0.208527,-0.050424,0.219648,0.112517,0.343088,0.155501,-0.323463,-0.255434,0.029132,-0.007832,-0.248070,0.301073,-0.084163,-0.034695,-0.161916,-0.054299,-0.041864,-0.105708,-0.188827,0.010699,0.300803,0.106837,0.216798,0.174305,-0.027340,0.020540,0.083352,-0.066136,-0.214887,-0.153107,-0.185804,-0.120588,-0.006049,0.125728,0.003681,-0.122092,0.144926,0.089781,-0.137063,0.053652,-0.068045,0.085437,-0.040466,0.126024,-0.161892,0.116919,-0.227631,0.069842,0.000279,0.078968,-0.081950,0.024617,0.221276,0.168070,0.040181,-0.223856,-0.008772,0.011756,-0.041041,0.030633,-0.096751,0.097885,-0.119957,0.142210,0.088802,-0.022149,-0.025962,-0.057138,-0.569677,-0.093478,0.056269,0.099440,0.119764,0.003043,0.188338,-0.288706,-0.215106,0.230185,0.126759,0.031156,0.045248,0.002598,0.374095,0.387888,0.460318,0.065136,0.234563,0.152667,0.109021,0.111767,0.077234,-0.006711,-0.024372,-0.076491,0.059610,0.092774,0.184754,0.080287,0.007283,-0.147302,-0.316239,0.164466,0.225360,0.036651,0.058277,0.178709,0.178266,0.146068,-0.154909,0.262399,-0.003316,-0.082794,0.105139,0.063316,0.020539,0.110218,0.061764,0.397340,-0.026635,-0.020474,0.046443,0.120851,-0.038655,-0.225472,-0.117046,0.144089,0.170204,-0.033633,0.130429,0.202449,-0.216333,-0.309682,-0.283689,-0.069301,0.132333,-0.162196,0.059665,0.050462,0.187493,-0.276917,-0.102883,-0.035586,-0.050623,-0.037122,0.039071,0.188612,0.206847,0.225301,0.103462,0.196228,0.072692,0.075559,0.008123,0.154067,-0.025435,-0.214567,-0.286326,-0.188071,-0.173454,-0.012414,0.024867,0.110684,0.078201,-0.161879,0.032206,-0.281180,0.065935,-0.174656,0.159508,0.375648,-0.157559,0.012441,-0.062136,-0.001703,-0.200210,-0.050410,-0.071452,0.531281,0.208702,0.130254,0.023529,0.271444,0.076080,-0.086113,-0.165491,-0.051809,-0.130373,-0.183814,-0.006391,0.032714,0.024314,-0.172151,-0.365044,-0.246256,-0.176234,-0.145011,0.124261,0.075967,0.070759,0.217200,-0.057912,-0.158528,0.140148,0.228218,0.125049,-0.148784,-0.009144,-0.151248,0.072569,0.128030,0.700623,0.751131,0.178182,0.229789,0.155314,0.140016,0.135366,0.175739,0.015854,0.147557,-0.015797,0.065064,-0.077459,0.086143,0.175224,0.063279,0.015274,0.102568,0.035963,0.103640,-0.086140,0.084624,0.073610,0.161141,0.044231,0.073111,0.034127,-0.026031,-0.205140,0.077948,0.177749,0.055546,0.257587,0.113217,-0.113123,-0.239678,-0.155995,-0.358384,-0.022760,0.027086,0.141727,-0.065134,-0.004253,0.321993,0.013822,-0.364865,-0.129606,0.089415,-0.032058,0.131473,0.222437,-0.155692,-0.190538,-0.312331,-0.035568,-0.020196,-0.080801,-0.036455,-0.030435,-0.020262,-0.021828,-0.012762,0.000545,0.017511,0.633135,0.243298,0.138514,-0.126844,0.024292,0.133059,0.110404,0.030612,0.027973,-0.035000,-0.280971,-0.185114,-0.100374,-0.064567,0.045783,-0.021102,0.165836,0.152172,0.034162,0.036582,-0.108300,-0.130557,0.058657,0.231212,0.238580,-0.080996,-0.006816,0.078591,-0.179724,-0.114663,0.081402,0.086014,0.100267,-0.093732,-0.073621,0.363816,0.221921,-0.332047,-0.069595,-0.060699,-0.181011,-0.077421,0.063098,0.134701,-0.044607,-0.383105,-0.151483,-0.138210,-0.143761,0.214152,0.139838,0.096543,0.158802,0.008976,-0.081509,0.054087,0.343246,0.107758,0.046193,0.052396,-0.250301,0.035992,0.062077,0.071144,0.381068,0.175551,0.222728,0.033045,-0.011484,-0.007186,0.002516,-0.098835,-0.052353,-0.161301,-0.343718,-0.130224,-0.214907,-0.130923,-0.085890,0.022310,0.044198,0.196593,0.199867,0.002892,-0.102402,-0.005150,0.158995,0.286776,0.103029,0.373295,0.216112,-0.073065,0.035631,-0.041603,-0.158699,0.312457,0.053319,-0.166990,-0.388256,-0.120793,0.045908,0.019499,-0.001988,0.065940,0.165997,-0.002717,0.001906,-0.058940,-0.168881,0.049595,-0.066830,-0.066708,-0.005584,0.130318,-0.243806,-0.475933,-0.212304,0.020407,0.094764,-0.152002,0.038847,-0.121562,-0.301244,-0.059538,-0.056084,0.059056,-0.051402,0.057890,0.652432,0.551452,0.548670,0.119250,0.356684,0.191540,-0.048993,0.216280,0.044758,0.024903,-0.233412,-0.258952,-0.193756,0.058631,0.087309,0.092458,-0.055046,-0.089158,-0.076648,-0.182208,0.158849,0.227842,0.022817,0.258812,-0.026096,-0.053636,0.013422,0.147806,0.164374,0.076561,0.171487,0.426538,0.024421,0.082581,0.216501,0.040544,-0.004967,0.070849,0.099561,-0.022140,-0.142883,0.143208,-0.133380,-0.046209,0.008616,0.344248,-0.123805,-0.217182,-0.250463,-0.415439,-0.318010,0.206599,0.178739,0.155367,0.107991,-0.057151,-0.023680,0.080783,0.609539,0.480438,0.092441,0.214709,0.062750,0.091921,0.342691,1.079614,0.718210,0.369364,0.237273,0.236786,0.079678,0.056799,0.013113,-0.151678,-0.268804,-0.302501,-0.185909,-0.125466,0.109502,0.087545,0.132269,-0.134913,0.147949,-0.158131,-0.125763,0.049002,-0.144302,0.114890,-0.028887,0.219514,-0.060140,-0.181480,-0.059698,0.019935,0.273860,0.116560,-0.166323,-0.049011,-0.127273,-0.088177,0.011129,-0.327565,-0.030255,-0.014332,-0.110255,0.057459,-0.209651,0.075347,0.096467,-0.153752,-0.223766,-0.162930,-0.152425,-0.229483,-0.310456,0.036142,0.027401,-0.014146,0.088811,0.093156,0.071936,-0.183120,-0.171396,-0.040545,0.221538,-0.015401,-0.052490,-0.006646,0.297568,0.422778,0.045389,0.190152,-0.000656,0.195606,0.040535,0.102126,0.069037,0.082164,-0.212231,-0.213517,0.078649,0.027661,-0.040022,-0.062870,0.085982,-0.132475,-0.243412,-0.050000,-0.043908,-0.129339,0.070150,-0.031814,-0.173558,-0.176372,-0.074130,0.059688,-0.035326,0.027765,0.010081,0.050323,0.017341,-0.219910,-0.068550,-0.066447,0.197442,-0.151750,0.147122,0.045855,-0.252631,-0.040727,-0.291981,0.046046,-0.168033,0.097838,-0.108476,-0.036156,0.075155,0.029176,-0.000530,-0.130421,0.053723,0.282143,-0.082497,-0.026571,-0.089583,0.129539,0.112947,0.208642,-0.053234,0.290285,0.045432,-0.004036,-0.028544,0.031857,0.245177,-0.078750,-0.165219,-0.039575,0.089831,-0.096104,-0.052945,-0.047102,-0.145475,-0.030945,-0.038956,-0.039205,-0.049983,-0.103979,-0.020552,-0.002632,-0.265189,0.034026,-0.039943,0.121521,0.014252,-0.007279,-0.144768,-0.029184,-0.018903,0.142979,-0.127412,-0.088957,-0.043920,-0.079839,-0.252233,-0.268086,0.354617,0.179867,0.075192,-0.039816,-0.152305,0.013473,-0.144872,0.139818,0.247872,0.294139,0.137800,-0.195151,-0.149725,-0.166432,-0.062676,-0.142403,-0.142652,-0.013950,0.056985,0.071194,-0.019978,-0.129555,-0.194328,0.076420,-0.035670,-0.138492,-0.129105,-0.049453,-0.064814,-0.031254,-0.050501,-0.093294,-0.073112,-0.142063,-0.136743,-0.081766,-0.036793,-0.125178,-0.043297,0.025139,-0.291538,-0.288100,0.297586,0.094811,-0.054303,-0.077786,-0.000960,0.032480,-0.232941,-0.098325,0.085929,0.250302,0.095705,-0.171939,0.138294,0.114007,-0.003446,0.031929,-0.025365,-0.223718,0.303192,0.031442,0.008122,-0.172113,0.107550,0.274771,0.037404,0.196976,0.378280,0.033290,0.387264,0.168615,0.231090,0.225697,0.448556,-0.306524,-0.024969,-0.262575,0.106271,-0.289112,-0.031565,0.295518,-0.109388,0.237562,0.174006,0.013765,-0.061601,0.021802,-0.331717,-0.174318,-0.031257,-0.124316,-0.152563,-0.038499,-0.038018,-0.071865,-0.175780,-0.172176,-0.423303,-0.127256,-0.085194,-0.158380,-0.109342,-0.005889,-0.105130,-0.246861,-0.108891,0.014544,-0.101057,-0.061439,-0.088168,0.190385,0.129488,-0.118378,-0.192046,0.127951,0.037016,-0.113249,0.029101,0.119125,0.003503,-0.233459,-0.126247,0.042858,0.205043,-0.159151,0.000921,-0.009405,-0.189093,-0.206832,-0.573260,-0.248401,0.090140,-0.132572,-0.136321,0.078073,-0.029967,-0.226876,0.012741,0.052954,-0.059488,-0.119692,0.151456,-0.054038,-0.057947,-0.161689,-0.135084,-0.001833,-0.072064,-0.063637,-0.119930,0.047262,0.053334,0.119359,0.206175,0.064908,-0.047484,-0.026342,0.095983,-0.041905,0.071259,-0.179152,-0.400328,-0.206075,-0.149941,-0.190749,-0.164764,0.002735,-0.233808,-0.304429,-0.012165,0.029610,-0.111045,-0.049261,0.120730,-0.029059,0.007971,0.047005,-0.158031,0.231658,0.179860,-0.163512,-0.031082,0.025751,-0.028227,0.067086,0.088134,-0.195152,0.455275,-0.115605,-0.031458,0.025412,0.406998,0.206153,-0.002101,0.011986,0.162653,-0.156778,0.260384,-0.021069,0.108971,0.152367,0.105179,0.017611,-0.061081,-0.213340,-0.092890,-0.105668,-0.050379,0.054505,-0.066884,-0.049956,0.088040,-0.065424,-0.128697,0.100238,0.041616,0.020479,-0.114244,-0.061189,-0.179520,-0.157880,-0.058962,-0.081396,0.240418,-0.265226,-0.445212,-0.250243,-0.073775,-0.162335,-0.115206,-0.008323,-0.158182,-0.281873,0.135925,-0.016298,-0.018788,0.009617,0.147610,0.091067,0.042852,-0.135114,-0.031004,0.161322,0.130839,-0.171135,0.224782,-0.124305,-0.164168,-0.082484,-0.069962,0.036759,0.052341,-0.014913,0.057089,0.003802,-0.276924,0.043000,0.013603,-0.168127,0.143214,0.007943,0.126507,-0.347016,-0.251703,0.019354,-0.110116,0.039792,-0.060907,-0.206302,0.271154,-0.004321,-0.237623,0.007467,-0.006353,-0.132522,-0.090310,-0.037053,-0.304601,-0.038230,0.013306,0.134429,0.091964,0.304393,-0.195747,0.022751,-0.121093,0.008121,0.110905,-0.228825,-0.455785,-0.182328,-0.156777,-0.090256,-0.064836,-0.121283,-0.207998,-0.339149,-0.045081,0.043155,-0.117150,0.005832,0.223809,-0.160829,-0.261853,0.084656,0.228151,-0.215707,-0.030047,-0.145248,-0.280733,-0.071038,-0.215063,0.166615,-0.086603,-0.082136,-0.041463,-0.035283,-0.256195,-0.264794,-0.191138,0.197562,0.354195,0.178729,0.223680,-0.047459,-0.357222,0.083057,0.146271,0.132777,0.066127,-0.025603,-0.115605,-0.302109,0.003382,0.043141,0.145699,-0.084177,-0.011244,0.213106,0.008083,-0.086750,-0.076492,0.199349,0.074884,0.171779,0.184311,0.020066,-0.053498,-0.072066,-0.256363,0.003548,0.047816,-0.020869,-0.177877,-0.132312,0.001726,-0.190745,-0.050300,-0.133662,-0.244941,-0.486860,-0.127902,0.032376,-0.201414,-0.058911,0.064949,-0.049058,0.112998,-0.196475,-0.027639,-0.046031,-0.013242,-0.225494,-0.250725,-0.068623,0.192554,-0.123488,-0.113979,0.119073,0.174548,-0.045316,-0.102501,-0.091022,0.134855,-0.289288,-0.041929,-0.264525,0.160278,-0.074372,-0.173711,0.076250,0.042576,-0.101656,-0.148282,0.135092,-0.065265,-0.154076,0.214035,0.014288,-0.049853,-0.199525,0.149523,0.237148,-0.050772,-0.189825,-0.119280,0.144551,-0.005035,0.095523,0.067826,0.277922,-0.186512,-0.112393,-0.060642,-0.157859,0.019433,-0.088865,-0.183395,-0.182615,-0.087736,0.017509,-0.018664,0.030107,-0.227834,-0.248892,-0.149460,-0.170029,-0.054600,-0.015064,-0.202905,0.057618,-0.051704,0.165602,0.205326,-0.155085,-0.036084,-0.140463,0.054747,-0.040718,0.223034,0.324554,0.100604,-0.114048,0.048019,-0.087574,-0.075157,-0.014143,-0.121422,-0.030644,0.047649,-0.111147,-0.022006,-0.147779,0.153122,-0.125950,-0.323620,-0.268524,0.077614,0.054510,-0.246174,-0.032806,0.129384,-0.026132,-0.136586,-0.332595,-0.021027,0.057671,-0.087715,-0.035066,-0.098705,-0.337851,-0.061638,-0.177610,-0.128973,-0.172560,-0.000371,-0.082417,0.108057,-0.185601,-0.194368,0.010548,0.207439,0.087907,-0.148069,-0.041894,-0.191488,-0.197813,-0.107877,-0.199288,-0.267547,-0.139844,-0.172782,-0.058826,-0.127518,-0.194883,-0.272135,0.031631,0.078392,-0.124939,-0.038331,-0.181533,0.146067,-0.034396,0.145126,0.203287,0.066213,-0.034528,-0.014799,-0.020995,0.181468,-0.075728,-0.100803,-0.033148,0.096863,-0.225031,-0.058194,-0.161964,0.133607,-0.379199,-0.122150,-0.313129,-0.104475,0.102814,-0.061022,-0.123599,0.256931,0.082696,-0.019585,-0.081262,0.086889,-0.145336,-0.090430,-0.098370,-0.105875,-0.319970,0.079957,0.161216,-0.160526,-0.141989,-0.209388,-0.042575,-0.085865,-0.089626,-0.276007,-0.010375,0.069400,-0.052964,-0.059091,-0.055317,-0.040943,0.222530,-0.033992,-0.122799,-0.392525,-0.071200,0.023756,-0.130330,-0.231969,-0.043583,-0.070142,-0.208143,-0.370557,-0.154175,-0.152950,-0.173817,-0.062260,-0.065875,-0.077572,-0.209284,-0.020082,-0.004176,0.265747,-0.359322,0.380200,-0.103208,-0.025138,-0.096242,0.226192,0.042265,0.270717,-0.088060,-0.135295,0.348124,0.015824,-0.030502,-0.047780,0.204763,0.079925,0.125045,0.074211,0.018534,0.149625,0.122375,0.035943,0.155160,0.029309,-0.270216,0.262816,-0.067483,0.139583,0.115792,0.063020,-0.082097,-0.045155,0.049115,0.256694,0.104388,0.046852,0.111249,0.037609,-0.125694,-0.054536,-0.138104,-0.040499,-0.142151,-0.121740,-0.000023,-0.159510,-0.139611,-0.039563,-0.084792,-0.229823,-0.084400,0.120846,0.152634,-0.045986,0.003791,-0.110337,-0.176091,-0.145795,-0.115919,0.279651,0.124940,-0.052441,-0.151247,0.047573,-0.132476,-0.129065,0.337169,0.420595,0.116705,-0.171705,-0.266262,-0.011807,-0.115354,0.072732,0.026357,-0.257686,-0.117629,0.166831,-0.249852,-0.054404,-0.048231,-0.127673,-0.285502,-0.052731,0.000063,-0.030284,0.046784,-0.085584,-0.211694,0.085744,-0.020532,-0.084298,-0.138163,-0.081954,-0.077584,-0.078710,-0.080376,0.168052,0.098676,0.050469,0.038674,0.062121,0.149036,-0.068262,-0.198311,-0.162319,-0.036310,-0.072431,-0.112507,-0.281868,-0.241739,-0.160109,-0.212392,-0.232473,0.087298,0.086730,0.206569,-0.011323,0.027956,-0.129806,-0.175920,-0.109262,-0.066661,0.123556,-0.075066,-0.049894,-0.195701,0.190063,-0.245723,-0.030154,-0.008890,0.118971,-0.198138,-0.207642,-0.115406,0.220158,-0.157904,-0.017325,0.236845,0.134519,0.031831,-0.074828,-0.129508,0.171581,-0.045992,0.160681,0.105357,0.047723,0.103067,0.092843,0.191319,-0.033322,-0.113129,0.094652,-0.172350,0.118059,0.087287,-0.050581,-0.158821,-0.104916,-0.104596,0.026162,0.147464,0.075486,0.086636,-0.104239,-0.071291,-0.089179,-0.106746,-0.008310,0.168030,-0.041969,-0.015103,-0.462145,-0.211599,-0.067103,-0.016905,-0.233388,0.046612,0.214370,0.200901,0.190825,0.142700,-0.111307,-0.113446,-0.232387,-0.040274,0.479703,0.279867,0.147688,-0.135282,0.034135,-0.210728,-0.105896,-0.071659,-0.180202,-0.056012,-0.141953,-0.132419,0.270333,-0.036782,0.327400,-0.201303,-0.256492,0.012387,0.074941,0.085892,-0.112581,0.125567,-0.161038,0.044302,-0.072984,-0.101040,-0.094137,-0.051930,-0.046577,-0.255662,-0.044465,-0.198388,-0.190397,-0.057470,-0.124977,-0.228354,0.012602,-0.094019,0.252029,0.027602,-0.165975,-0.086175,0.144064,0.109481,-0.004868,-0.023724,0.055111,0.037702,-0.188308,-0.136048,-0.250593,-0.023740,-0.033235,-0.017871,-0.421710,-0.314176,-0.253959,-0.300325,-0.055962,-0.011321,-0.064462,-0.180340,-0.056944,-0.289593,-0.187134,0.005636,0.105330,0.026540,-0.025509,-0.155737,-0.006475,-0.206748,-0.157957,-0.035902,0.033923,-0.050629,0.144456,-0.126899,0.087408,-0.093114,0.015205,-0.017227,0.054705,0.159335,-0.390140,0.053786,-0.011969,-0.028360,-0.246361,-0.103249,-0.161135,-0.011142,-0.151184,-0.098766,-0.181022,-0.296005,0.056955,0.084581,-0.070977,-0.331773,-0.086305,-0.038040,0.235835,-0.213500,-0.211937,-0.418188,0.257267,0.095594,-0.018560,-0.163715,-0.074339,0.027159,-0.267213,-0.061853,-0.229189,-0.155112,-0.087492,-0.099135,-0.255152,-0.377266,-0.070780,0.339696,-0.065008,0.083572,-0.126426,-0.112474,0.030562,-0.089155,0.264569,0.302753,0.058677,-0.115363,0.049416,-0.253493,-0.103158,-0.076225,-0.072915,-0.024045,-0.157540,-0.407716,-0.055617,-0.223515,0.062080,-0.213658,-0.219829,-0.114938,0.007975,-0.048876,-0.098679,0.013847,-0.017181,-0.105868,-0.085327,-0.236243,0.061078,-0.025992,-0.168524,-0.121415,-0.208111,-0.067851,-0.011298,-0.089818,-0.051929,-0.166484,-0.105970,-0.028363,0.068378,-0.084105,-0.030836,-0.095591,0.143782,0.222127,-0.067293,-0.041898,0.005582,-0.051796,-0.001271,0.024615,-0.195556,-0.160773,-0.064139,-0.085446,0.058003,0.141151,-0.054834,0.209458,0.217613,-0.180674,0.113171,-0.351498,0.092880,-0.016839,-0.240948,0.117413,0.182686,0.061829,0.065017,-0.252331,-0.086851,-0.161252,0.098841,0.265252,-0.237760,-0.007889,-0.077492,-0.192235,-0.005957,-0.084385,0.256812,-0.027029,0.098529,0.233806,-0.260766,-0.144549,-0.102812,0.054768,0.002495,-0.067293,-0.126049,-0.139797,-0.192749,-0.040649,0.089210,0.071929,0.127843,0.089138,0.113444,0.126323,0.052793,-0.165523,-0.050362,-0.252507,-0.123131,-0.178091,-0.297768,-0.187337,0.005117,-0.114013,-0.173578,-0.202177,-0.137821,-0.163509,-0.133742,-0.177588,-0.199805,-0.212138,-0.090454,-0.071272,-0.285570,-0.272066,-0.171257,-0.138821,-0.240253,-0.325227,0.080697,-0.098617,-0.230984,0.197548,0.215216,-0.134885,-0.133409,-0.190393,-0.435832,-0.123729,-0.177420,0.248026,-0.016647,-0.058478,-0.170375,-0.133607,-0.216198,-0.224339,0.114226,0.058668,-0.005659,0.171589,-0.118790,-0.211745,0.065234,-0.227396,-0.013785,-0.005556,-0.034790,0.083752,-0.125952,-0.207884,0.074978,-0.131620,0.060847,-0.093491,0.064213,-0.035981,-0.167938,-0.249091,-0.222477,-0.267739,-0.113106,-0.140351,-0.106594,-0.099570,-0.097580,-0.146144,-0.200328,0.227293,0.003580,0.083524,-0.347264,-0.088708,-0.186453,-0.157523,0.237667,0.102985,0.210215,-0.040989,-0.225092,-0.126919,0.339133,-0.476575,-0.099617,0.156280,0.232469,0.346483,0.114554,-0.009626,0.203251,-0.649499,-0.196675,-0.108733,0.144242,0.231542,0.026035,-0.280033,0.225990,-0.061183,-0.338306,-0.362718,-0.127382,-0.221106,0.172851,0.143220,-0.278804,-0.109292,-0.069453,-0.064722,0.008003,-0.123817,-0.053939,0.080438,-0.100313,-0.044437,-0.095393,0.097743,-0.060609,-0.211082,-0.214496,-0.207526,0.042305,-0.183716,-0.157882,-0.324534,-0.005987,-0.223202,-0.124167,-0.030333,-0.072988,-0.188384,-0.129753,-0.179434,-0.138108,-0.224004,-0.116518,-0.279792,-0.130142,-0.256569,-0.059835,0.161496,0.113509,0.352029,-0.020314,-0.252390,-0.032446,-0.238589,-0.052157,0.112358,0.362908,0.085388,-0.160048,-0.134057,0.027132,-0.433057,-0.410117,-0.121582,0.203974,-0.224759,-0.129645,-0.052366,-0.136692,-0.281471,-0.174318,0.258580,0.233441,0.051750,0.253791,0.131332,-0.253163,-0.149489,0.057447,0.067362,0.312554,-0.233465,-0.335447,0.253037,-0.101837,-0.208846,0.104054,0.320095,0.082235,0.046549,-0.164220,0.058238,-0.081671,-0.230397,-0.124551,-0.138737,-0.109853,-0.024656,-0.174187,-0.222395,-0.161132,-0.115114,-0.188327,-0.076654,-0.111753,-0.058959,-0.226465,-0.147096,-0.281336,-0.159513,0.298872,-0.010399,0.135141,0.203245,-0.165078,-0.172722,0.199214,-0.339092,-0.432448,0.136833,0.256295,0.222094,-0.082417,-0.201853,0.285579,-0.419341,-0.439967,-0.164609,0.053609,0.212417,0.228395,0.044141,-0.153466,-0.190704,-0.197790,-0.074677,0.166602,0.048359,0.194121,0.147859,-0.152024,-0.236135,0.036732,0.115848,0.085275,-0.160034,-0.143503,0.080471,-0.119012,-0.191350,-0.055689,0.186559,0.134764,-0.077416,-0.212356,-0.344748,-0.183465,-0.213271,-0.198757,-0.421265,-0.340177,-0.278535,-0.489250,-0.216109,-0.271304,-0.209264,-0.236709,0.090275,-0.006067,-0.016277,-0.192034,-0.189298,-0.283641,-0.305120,0.125774,0.211206,0.116276,0.214619,-0.027555,-0.296365,0.326840,-0.361120,-0.205774,-0.219683,-0.017437,0.162536,-0.153954,0.143806,0.278146,-0.649119,0.031511,-0.210281,-0.304577,0.284622,0.042607,-0.135960,0.181272,-0.313804,0.064844,0.186933,0.176029,0.116139,0.061536,0.035665,-0.095283,-0.216338,-0.045134,0.129539,-0.119968,0.002204,-0.033616,-0.110978,-0.125480,0.045193,0.170354,0.360097,-0.110103,0.091982,0.108261,-0.036122,0.123737,-0.283421,-0.266364,-0.084112,-0.140248,-0.229207,-0.321147,-0.020637,-0.255065,-0.158363,-0.192117,0.113330,0.046834,0.061818,-0.002131,-0.006683,-0.045215,-0.053933,0.247179,0.017951,0.109491,0.060256,-0.268071,-0.215295,0.178184,-0.480751,-0.022545,-0.229110,-0.427407,-0.041390,0.107756,0.006660,0.167432,-0.558679,-0.120538,-0.387379,-0.325141,-0.105686,-0.307986,-0.217515,0.089640,-0.235579,0.120948,-0.084221,-0.140189,-0.155985,0.011941,-0.129212,-0.215546,-0.054140,-0.047802,-0.042350,-0.072348,0.081561,0.061770,-0.196889,0.044182,-0.065252,0.031972,0.010304,0.062685,0.088940,0.219891,0.009372,0.160615,-0.065911,-0.338975,0.016276,-0.223170,-0.238794,-0.145535,-0.025801,-0.157240,-0.154996,-0.102914,0.051817,0.134572,-0.106799,-0.117654,-0.175308,-0.198694,-0.164444,0.191297,0.115496,-0.029556,-0.087811,0.014924,-0.273526,0.360619,-0.391805,-0.164746,-0.146721,-0.098526,-0.061376,0.059789,-0.027584,0.076017,-0.462844,-0.312829,-0.194390,0.219788,0.096849,-0.250562,0.197574,-0.081274,-0.121570,-0.025215,0.158213,0.396914,-0.076988,0.120598,0.171812,-0.258393,-0.109290,-0.082207,-0.032781,0.019864,0.179715,-0.277718,-0.011210,0.065820,-0.210104,0.131321,-0.089449,-0.023792,-0.000797,0.093453,0.233601,-0.030440,-0.174375,-0.225579,-0.426969,0.109617,0.010599,-0.157687,-0.448839,-0.118540,-0.018398,0.109229,0.020457,-0.136381,-0.124564,-0.091774,-0.036939,0.026167,0.044502,0.231084,0.168249,-0.020045,0.038062,-0.012306,-0.143039,0.099797,0.088784,0.059474,0.064700,-0.026864,-0.111142,-0.069645,-0.008980,0.058750,-0.039393,-0.074020,0.008314,0.163245,-0.201733,-0.144629,-0.382953,-0.021671,0.178513,-0.010573,-0.011231,0.134745,-0.037588,-0.021773,0.329460,-0.248575,-0.070929,0.117621,-0.105933,-0.140661,-0.101565,-0.107902,0.053770,0.201107,-0.069997,0.104098,-0.064770,-0.278921,0.118292,-0.083814,0.020644,0.129356,0.057131,0.083566,0.014192,-0.104212,-0.165811,0.338606,0.139013,0.081080,0.038829,0.047985,0.157570,0.105803,0.163342,0.202091,0.045523,0.064961,0.082682,0.166095,0.032482,-0.144517,-0.037127,0.068803,0.108891,0.020009,0.051382,0.128075,0.076056,0.004233,0.086544,0.097216,0.145829,0.154938,0.078346,-0.251012,-0.040895,-0.120987,0.071863,0.216854,-0.119909,0.169567,0.066893,-0.129480,-0.315063,-0.190564,0.055662,0.037837,0.135111,0.110999,0.203216,-0.105461,-0.161978,-0.066029,0.028029,0.197592,0.067616,0.051893,0.160923,0.140896,-0.237608,0.037246,0.231270,0.164047,0.214258,0.124587,0.070401,0.133019,0.061919,0.044075,0.103584,0.204172,0.154462,0.040362,0.038920,0.198952,0.091803,-0.386817,-0.129270,0.019516,0.095164,0.168324,0.122896,0.169059,-0.115954,0.048958,-0.087178,-0.235227,-0.101680,0.048920,0.242082,-0.028548,-0.105143,-0.055636,0.004805,-0.132961,0.022416,0.020366,0.220372,0.105612,0.150212,-0.153628,-0.012708,-0.307090,-0.383529,-0.019548,0.011800,-0.011072,-0.434488,-0.193872,-0.083481,-0.135731,0.368745,-0.363697,-0.109210,-0.134549,-0.293145,-0.109684,0.019666,0.078887,-0.066155,-0.054891,-0.041412,0.208882,0.266745,0.167007,0.166152,0.167416,0.189632,0.226166,0.170085,0.095036,-0.184166,0.096997,0.167743,0.495297,0.158385,0.057338,0.115468,0.194428,0.125633,-0.041609,0.047908,0.025041,0.164195,0.051459,0.053624,0.222879,-0.077457,-0.046944,0.247911,0.012086,0.091197,0.091036,0.183140,0.213627,0.076618,0.094934,0.162562,0.049882,-0.151451,0.099268,0.159602,0.000188,0.009472,0.124278,0.096708,0.114881,0.019837,0.004082,0.194164,-0.180344,0.062512,0.182784,0.253103,-0.249856,-0.079789,-0.116382,0.016556,0.044689,0.102277,0.251403,-0.209801,-0.394467,-0.228221,0.169483,0.107338,-0.096094,0.050467,0.012543,-0.076577,-0.075589,0.022747,0.142171,0.156576,0.254612,0.162887,-0.123792,-0.122752,0.478780,0.138645,0.179654,0.032592,0.081104,0.098560,-0.204007,-0.207801,0.047129,0.142471,0.014398,-0.007838,0.092171,0.087695,0.109592,0.236254,-0.051206,0.061702,0.025466,0.168817,0.058672,0.143633,0.036110,0.186556,0.097595,0.095471,0.137495,0.061650,0.065148,0.094085,-0.036589,0.402413,0.068748,0.078792,0.038803,0.058306,-0.030426,-0.082750,-0.028334,0.045367,-0.158152,-0.090169,-0.161784,-0.004423,-0.175965,0.023894,0.200100,0.038343,-0.197128,-0.158731,0.094159,0.079428,0.472221,0.279065,0.135650,-0.010954,0.020641,-0.075949,0.129519,0.160662,0.124674,0.083050,-0.177212,-0.232440,0.125408,-0.040456,0.043650,0.119340,0.013433,0.132589,-0.226757,-0.186029,0.007793,0.043181,0.092298,-0.004670,0.263956,0.145720,0.008160,0.086031,0.021799,-0.095463,0.111395,0.092825,0.100380,0.034991,-0.016206,-0.065599,-0.092294,-0.073091,-0.030660,0.063004,-0.126859,-0.523505,-0.446300,0.021415,0.080757,-0.199010,0.169681,0.103461,0.020915,0.086413,0.045598,0.076386,-0.151296,0.113742,-0.254551,-0.069407,0.334807,0.122650,-0.009992,-0.137152,-0.048162,0.012237,0.242069,-0.140021,0.025832,-0.004015,-0.310159,-0.133987,-0.221119,-0.197955,0.313324,0.032896,0.273806,-0.222983,-0.004902,-0.054184,0.428326,0.230142,0.081556,0.268545,0.252591,0.167499,-0.080815,-0.037613,0.051589,0.085199,0.140679,0.245027,0.148942,-0.123618,-0.017021,0.167392,-0.020879,-0.213518,0.157328,0.060195,-0.034169,-0.129832,-0.139916,-0.255469,-0.246711,-0.226305,-0.099780,0.053580,-0.072339,-0.000377,0.008410,-0.242027,-0.329911,-0.226201,0.134107,0.220519,-0.078057,-0.029805,0.059244,-0.016718,0.171786,0.161106,-0.378469,0.052555,-0.197071,-0.278599,-0.193459,-0.188669,0.122228,0.020816,0.302723,0.035194,-0.297901,-0.146956,0.069764,0.308072,0.091265,0.120482,0.386182,0.106542,0.161650,-0.154832,0.128444,0.186962,0.412672,0.253213,0.172675,0.082195,0.030007,0.094825,-0.081421,-0.215980,0.097921,0.097117,0.025645,0.127046,0.071451,-0.102500,-0.020114,-0.169650,-0.211719,-0.265923,-0.010600,0.144505,-0.034683,-0.122405,-0.142120,-0.072111,-0.125827,-0.453961,0.032192,-0.022721,-0.251409,-0.212114,-0.171439,-0.093652,-0.019086,-0.104516,-0.179227,0.032062,-0.169559,0.041343,0.227403,0.116403,-0.114314,0.189158,-0.256198,-0.055396,-0.213254,0.103091,0.038681,-0.062746,-0.190712,0.055841,0.110586,0.047531,0.225936,-0.149409,-0.124982,0.018612,-0.161906,-0.002950,0.200543,0.074222,0.125576,0.083925,-0.114056,-0.065429,0.400801,0.086392,-0.024645,0.121096,0.083921,0.058154,0.020919,0.338899,0.066226,-0.024762,0.163902,0.079805,-0.163565,0.102610,0.217617,-0.070271,0.015576,0.178082,0.006739,0.139605,-0.017621,0.001435,0.395430,-0.225263,0.167404,-0.194946,0.161732,0.125232,-0.032143,-0.028998,0.411580,-0.116406,-0.023989,-0.251369,-0.025270,0.005113,-0.051457,0.099899,0.534157,-0.052036,-0.118966,0.064491,0.050596,0.132569,-0.004321,0.190128,-0.120144,-0.092900,-0.020569,-0.074685,0.225669,0.017566,0.278392,0.053715,0.029888,0.079302,-0.146428,-0.081062,0.226943,0.173239,-0.232108,-0.245265,-0.046271,-0.156335,0.166599,-0.039507,0.041069,0.084811,0.106093,0.085330,0.060005,0.183088,0.031426,0.182959,0.148716,0.137960,-0.165758,-0.131048,0.259251,-0.058712,0.092622,0.308427,0.048636,0.137072,-0.093239,0.141976,0.170614,-0.199524,-0.117173,-0.127814,0.159998,0.155147,-0.169187,0.023003,0.244111,-0.111475,0.171091,0.101699,0.027313,0.009978,-0.030984,0.065460,0.117861,-0.062743,-0.173734,0.152983,0.033083,0.037486,0.086585,0.191961,0.079358,-0.076066,-0.106850,0.116015,0.181295,0.102382,0.211087,-0.126129,0.102296,0.214597,0.070225,-0.022268,0.119692,0.163869,-0.058703,0.015261,0.158383,0.098750,0.167814,0.135598,0.150536,-0.043276,0.067038,-0.082278,-0.213858,0.363687,-0.019946,0.048843,0.056841,0.163277,0.072287,0.069160,0.125233,-0.061685,-0.006061,0.298638,-0.060290,-0.238485,0.142684,0.047797,-0.042785,-0.017265,0.062104,0.271024,0.302869,0.120052,0.185175,-0.313625,-0.023139,-0.017892,0.025572,-0.068376,0.031489,-0.005042,-0.285767,-0.076976,0.296579,0.090664,-0.098508,0.050126,-0.255988,0.181568,-0.014090,0.218056,0.233561,0.011215,0.013049,0.170483,0.433395,0.010247,0.016126,0.036421,0.128614,0.054631,0.161933,0.026024,0.084230,0.063538,-0.236769,-0.174292,0.176340,0.417170,0.267230,0.013079,0.030931,0.067063,0.036815,0.073117,-0.040027,0.233823,0.128269,0.175395,0.073982,0.053562,0.208348,-0.154037,-0.061226,0.303905,0.106117,0.108087,0.015150,0.093478,0.082883,-0.264538,0.098099,0.332998,0.137812,0.123912,0.225787,0.115236,0.090305,-0.225692,-0.014200,0.118507,0.333186,0.356608,0.067669,0.112414,-0.284826,0.067707,-0.093524,0.003356,-0.223636,-0.156835,-0.038331,0.204943,0.017413,-0.145389,-0.108706,0.188485,-0.126911,-0.116855,0.138902,0.123643,-0.017356,-0.080203,-0.098940,0.037554,0.088937,-0.061691,0.131871,0.149803,-0.183235,-0.384674,0.358438,0.143403,0.219283,0.064954,0.011154,0.054364,0.041926,0.117308,-0.111698,0.403362,-0.008725,0.075459,0.052741,0.181542,-0.002370,0.039367,0.136846,0.062707,0.212894,0.275049,0.003743,0.080273,-0.105335,-0.181848,0.113620,0.071411,0.226681,0.557738,0.401128,0.172691,-0.167517,-0.154173,-0.075244,0.075911,-0.060915,0.096441,0.049225,0.151078,-0.091847,0.018426,0.099244,-0.020482,-0.303098,-0.246704,-0.217780,0.206215,-0.036719,-0.077976,-0.083877,0.047121,-0.179442,-0.201687,0.213316,0.091419,0.069278,-0.006262,0.036373,-0.004026,0.474621,-0.046791,0.087359,0.026223,-0.200295,-0.531619,0.156868,0.137586,0.035202,0.077047,0.055995,0.099700,0.126765,0.057181,-0.151485,0.339008,-0.017600,0.164188,0.058204,0.149140,0.081581,-0.300695,-0.031019,0.126541,0.126890,-0.035597,-0.123758,0.069969,-0.166984,-0.255744,-0.155056,0.225614,-0.100199,-0.089353,0.118769,-0.019924,0.238380,0.305008,0.072419,0.193978,-0.069971,-0.087803,0.135469,0.001699,-0.025930,0.210605,-0.186670,0.121597,0.013508,0.198445,-0.024551,0.131713,-0.029407,0.073022,0.006656,-0.008868,0.053971,-0.087583,0.287007,-0.005652,0.028916,-0.028635,0.122280,0.006318,0.040692,-0.297240,0.254817,0.030547,-0.154484,-0.139829,0.180886,0.112573,0.107720,0.054493,0.081665,0.040864,0.017765,-0.185875,-0.220411,0.510867,0.067231,-0.048150,0.105332,0.037510,-0.194004,-0.001797,0.211430,-0.073832,-0.267692,0.179558,-0.044240,-0.090994,-0.083711,0.003335,0.255210,-0.602318,-0.400148,-0.434165,0.139354,-0.087097,0.097332,-0.001760,0.186491,-0.262025,-0.112875,-0.370327,0.053312,-0.018325,0.202693,0.077241,0.159775,-0.152523,-0.097141,-0.000435,0.171728,0.244989,0.077230,0.144075,-0.159596,-0.151556,0.064803,0.058344,0.225916,0.044789,0.205217,0.104718,-0.198326,-0.123845,-0.134231,-0.312650,0.254673,0.057577,-0.259372,0.076451,0.074871,0.049001,0.192151,-0.018118,0.104001,0.189156,0.091052,-0.072869,-0.164746,0.357115,0.021849,0.158048,0.199130,0.124754,-0.193078,-0.319037,-0.368118,-0.004704,-0.110523,-0.035026,-0.021816,0.051924,-0.188075,-0.034659,0.145835,0.054509,0.015651,-0.330539,0.246343,0.159309,0.062952,0.112338,0.220619,0.027794,0.089026,0.053426,-0.139850,0.052228,0.017635,-0.026616,0.140873,0.022377,-0.019695,0.048819,0.231371,0.172935,-0.051561,0.228168,-0.139952,0.053009,0.102096,-0.105975,0.214225,0.157148,0.107212,-0.093167,-0.104128,0.076004,-0.219879,0.053550,0.100234,0.044821,-0.023032,-0.274646,0.496258,0.123462,0.145056,0.052218,0.102334,0.042359,0.214729,0.005949,-0.119533,-0.343332,-0.150042,-0.003355,0.057321,0.149855,-0.020485,-0.097884,0.006768,0.252062,-0.068447,-0.053780,0.291879,0.121161,-0.214213,-0.188822,-0.036914,0.001440,0.176334,-0.066046,0.296101,0.201202,-0.188647,0.084143,0.367688,-0.139748,0.186549,-0.083299,0.161972,0.322614,-0.037770,-0.052929,0.103326,0.073957,0.000811,0.123793,0.105084,0.094548,-0.076425,-0.049778,-0.414920,-0.113152,0.066966,0.109796,0.032049,0.079236,-0.024420,-0.120096,0.030602,0.095115,0.233611,0.246382,0.046452,0.126203,0.350493,0.043329,0.053788,-0.130590,0.338322,0.195824,0.129022,0.188603,0.127826,0.182660,0.111181,0.078144,0.066442,0.250963,0.132396,0.204679,0.193618,0.016436,-0.014414,-0.085491,0.217316,0.240145,0.141508,0.215995,-0.125208,0.079942,-0.040300,-0.052502,0.069052,0.269469,0.268379,0.224811,-0.018514,0.164353,0.045128,0.066888,0.036230,-0.162227,0.218483,0.129643,-0.176109,-0.273641,-0.296013,0.145868,0.060344,-0.028664,0.176589,0.156385,0.028558,0.242613,-0.090876,0.037250,0.104098,0.005577,0.186874,0.175835,-0.012527,0.059170,0.083281,0.081843,-0.024276,-0.162060,0.200139,0.245189,0.164351,0.068245,-0.007483,0.235096,0.370356,0.160805,0.207790,0.183561,0.035810,-0.191237,-0.280815,-0.645072,-0.345989,0.042447,0.030349,0.102083,-0.144681,-0.169766,0.058487,0.007254,-0.062543,0.138999,0.254358,0.262437,-0.032389,-0.118849,0.000106,0.069107,-0.128531,-0.031049,0.311083,0.414816,0.102431,-0.079714,-0.139986,-0.034122,-0.055031,-0.143347,0.237582,0.360777,0.109108,-0.130488,-0.102918,0.108889,0.038781,-0.103538,-0.067774,0.405051,-0.070509,0.248503,0.188116,-0.131901,-0.130937,-0.115400,0.074303,0.146379,0.081795,0.172512,-0.042490,-0.128130,-0.326168,-0.036620,-0.020029,0.050315,0.260786,0.241753,-0.216643,0.081805,0.199237,0.064366,0.049561,0.234131,0.138681,0.156403,0.108022,0.128730,0.041690,0.214457,0.207520,0.166041,0.191315,-0.006977,0.307012,0.082917,0.150103,0.195830,0.273433,0.262473,-0.128102,0.144483,0.112866,0.269289,0.112858,-0.000741,0.116847,0.245498,0.284614,0.346236,0.253987,0.164214,-0.020552,-0.023952,0.110441,0.179845,-0.022795,0.058020,-0.126734,-0.384089,-0.039865,-0.052309,0.151629,0.178778,-0.257856,-0.117158,-0.092633,-0.237862,-0.139273,0.113752,0.117392,0.113039,-0.159071,-0.095338,-0.043948,-0.085145,0.093083,0.156882,0.195455,0.280342,0.526292,-0.186036,-0.371702,-0.175604,0.209540,-0.105327,0.214657,0.049526,0.150027,0.076436,-0.061866,-0.429365,-0.072473,0.055985,0.165571,0.122519,0.074012,0.052204,0.185394,0.051955,0.192012,0.144372,0.235707,0.167351,0.181361,0.015534,0.192693,0.103786,0.029137,-0.075422,0.186383,0.192960,0.123518,0.103376,-0.148242,-0.127054,-0.109446,0.002424,0.165459,0.161471,0.103334,-0.068301,-0.008345,0.168219,0.026276,0.082735,0.023413,0.193487,-0.072945,0.228994,0.244958,-0.116977,0.023535,0.080604,0.200629,0.163084,-0.108819,-0.137915,-0.317566,-0.306717,-0.255011,-0.034241,-0.003406,0.088879,0.498097,-0.074323,-0.268797,-0.123795,-0.250157,-0.117726,0.143308,0.072420,0.040021,-0.055333,-0.128954,-0.463739,-0.155738,-0.088113,0.075304,0.063119,-0.038347,-0.006891,-0.002589,0.271039,0.139119,0.078670,0.171585,0.100104,-0.092308,0.174015,0.090395,0.127763,0.217907,-0.133765,0.191818,0.308216,-0.072955,-0.130823,-0.068582,0.025520,0.013254,-0.126103,0.266746,0.357223,0.098147,0.081457,-0.003839,-0.180885,-0.138098,0.235484,0.135076,0.379186,-0.213022,-0.180444,-0.325603,-0.292317,-0.184759,0.137417,0.099651,0.093079,0.094268,-0.337511,-0.101150,0.099087,0.094881,0.000781,-0.031518,0.184744,0.347348,0.040628,0.135601,-0.166961,0.397892,0.354558,0.201198,0.224919,0.187208,0.023085,-0.254658,-0.392830,-0.048883,0.225934,0.250735,0.226653,-0.191567,-0.115806,-0.223704,0.038485,-0.208112,0.053327,0.356974,0.236798,-0.351174,-0.244489,-0.265419,-0.272625,-0.144354,-0.064695,0.283292,0.487545,0.005958,0.153493,0.198727,-0.068236,0.000735,-0.033369,0.222230,0.459462,0.122465,0.126492,-0.086435,0.096545,0.067135,0.133439,0.051423,0.256953,-0.154590,-0.208259,0.024645,0.062951,0.209573,0.056795,0.135530,0.168046,0.241803,0.248700,0.444935,0.229746,0.098113,-0.204283,-0.033322,0.198733,0.216025,0.466242,0.481205,-0.029716,0.408181,0.292414,0.196151,0.217945,0.091925,-0.000237,-0.283843,-0.446652,-0.243140,-0.071349,0.155847,0.093140,-0.127402,-0.088797,-0.017730,-0.057712,-0.245594,0.034622,0.243817,0.300535,-0.089104,-0.176435,0.056683,-0.031979,0.183642,-0.137457,0.103316,0.434238,0.042931,0.043001,0.033851,0.118089,0.157737,-0.155376,0.043072,0.208127,-0.050428,-0.151002,-0.003118,-0.307117,-0.073334,-0.034839,0.105716,0.251793,-0.113362,-0.072681,-0.281833,-0.132750,0.061902,0.067365,0.096934,0.055495,0.079243,0.048807,-0.081860,0.080839,0.320695,0.091346,0.011844,0.083860,0.314112,0.131117,-0.296219,0.027035,0.305724,-0.069721,0.227947,-0.163492,-0.119820,-0.244641,-0.103630,0.297163,0.062905,-0.157258,-0.074999,-0.080543,-0.063097,-0.273897,-0.122678,0.234953,-0.015879,-0.065524,-0.197791,-0.112050,-0.064972,-0.043763,0.079922,-0.278006,-0.248300,0.153178,-0.130851,-0.137649,-0.033307,-0.051608,-0.350246,-0.034546,-0.099598,-0.227432,-0.109946,-0.211284,0.106660,-0.026866,-0.122725,-0.019265,0.022943,0.233151,0.025610,-0.057830,0.086111,0.104630,0.553289,0.221433,0.013209,0.212673,-0.073023,-0.136920,-0.150396,-0.014407,0.164052,0.108138,-0.090537,-0.307089,-0.075068,-0.034480,-0.355636,-0.170281,-0.242854,-0.228633,-0.058953,-0.129284,-0.198572,-0.179690,-0.104569,-0.206711,-0.222092,-0.049514,-0.033194,-0.071835,-0.085688,-0.118286,-0.186443,-0.224966,-0.155847,0.158686,0.384324,-0.060068,-0.120350,-0.098904,0.073168,-0.074066,-0.026694,0.023065,-0.015427,0.331661,-0.060782,-0.201295,0.010174,0.161311,-0.094133,-0.362234,-0.178477,-0.182083,-0.044039,-0.189255,0.089171,0.439890,0.023058,-0.077951,-0.163112,0.115214,-0.061989,-0.075551,-0.151918,0.377648,0.429637,0.140014,-0.098454,0.233508,-0.217551,-0.044246,0.045701,-0.023837,-0.043114,0.052470,0.021704,0.004013,-0.215850,-0.041732,-0.313712,-0.101552,-0.142961,-0.202923,-0.360556,-0.040328,-0.096184,-0.116320,-0.111242,-0.416214,-0.255614,0.694872,0.122931,-0.170107,-0.105663,-0.072494,0.034115,-0.104188,-0.147423,0.246000,0.292497,-0.248160,-0.025411,-0.359241,-0.110888,-0.124822,-0.195189,0.078388,0.139406,0.276050,-0.122537,-0.294290,-0.108544,-0.003232,0.022077,-0.537962,-0.094197,0.025259,-0.102576,-0.329126,-0.219402,0.218371,-0.124000,-0.007396,-0.177821,-0.402024,0.144015,-0.109036,-0.049038,0.275312,0.022930,0.082013,0.356361,0.343023,-0.292035,-0.174308,-0.055086,-0.209753,-0.098578,0.171590,0.273896,0.194146,-0.092012,-0.158242,-0.576123,-0.493131,0.011940,-0.203215,-0.515839,-0.119439,-0.095981,-0.137840,-0.134534,-0.072460,-0.210369,-0.095998,-0.095332,-0.069156,-0.124096,-0.194720,-0.162350,-0.180634,-0.120740,0.116622,-0.050658,-0.266399,-0.190763,-0.245961,0.115662,-0.116504,-0.203071,0.028315,-0.117736,0.325254,-0.106680,-0.190468,-0.153341,-0.221322,-0.354478,0.119834,0.145813,0.383603,-0.036245,-0.092949,0.122229,0.083351,0.066235,0.048718,0.059846,-0.032857,-0.019067,-0.063692,-0.217653,-0.000473,-0.348281,-0.072560,-0.022185,-0.030910,-0.094723,-0.224898,0.012136,0.084286,-0.052687,0.022969,0.115340,0.009378,-0.219151,-0.041597,-0.583676,-0.023421,0.261098,0.016069,-0.220637,0.070110,-0.141178,-0.168506,-0.175713,-0.232229,-0.233919,0.239710,0.020009,-0.085137,-0.088240,-0.145847,-0.147989,0.069132,-0.175708,-0.092572,0.097475,-0.021100,-0.071638,-0.058922,-0.201425,-0.264472,-0.331886,-0.129788,0.105743,0.345205,-0.189436,-0.120683,0.121983,0.446696,0.050073,-0.215603,0.009572,0.009359,-0.064537,-0.159451,-0.233462,-0.032606,-0.077983,0.160083,-0.044003,-0.185746,-0.022117,-0.041301,0.006209,0.046623,-0.074595,-0.029167,0.393730,0.255618,-0.171523,-0.146512,-0.394854,-0.110037,-0.215738,-0.089030,0.044557,0.179949,-0.199160,-0.180158,-0.360096,-0.189914,0.079239,-0.090698,0.046325,0.060923,-0.089138,-0.020319,-0.026879,-0.390467,-0.191757,0.392691,0.117783,-0.095935,-0.174985,-0.017742,0.043458,-0.246855,-0.328031,-0.065962,0.109409,0.009606,-0.113625,-0.337436,0.044694,-0.040604,0.054817,-0.155381,0.044473,0.056747,-0.126748,-0.239512,-0.144230,0.126504,0.364290,-0.116406,-0.087522,0.077482,-0.137352,-0.303755,-0.130055,-0.193146,0.273722,0.020300,-0.041140,0.082507,0.115975,-0.070212,-0.352736,-0.176987,-0.014395,0.208369,0.037542,0.142472,-0.359694,-0.336495,-0.263337,-0.000608,0.049176,0.088753,0.061601,0.120043,-0.230498,-0.044618,-0.617067,-0.225209,-0.123386,-0.110372,-0.519216,-0.208246,-0.104326,-0.231570,-0.157274,-0.409568,-0.238491,0.235166,0.099616,-0.217788,-0.261473,-0.159514,-0.244526,-0.234026,-0.108949,0.244190,0.165046,-0.153150,-0.182748,-0.299516,0.082730,0.116175,0.243306,0.119771,0.190249,0.028790,-0.059622,-0.333431,-0.119858,-0.110965,-0.181698,-0.193690,-0.092089,-0.231409,-0.209097,-0.294702,-0.034378,0.094093,0.332349,-0.052840,-0.185951,-0.087514,-0.023888,-0.185766,0.177411,0.120244,0.255213,0.049414,0.054993,0.190193,-0.403536,-0.220808,-0.179779,-0.221733,-0.127231,-0.004146,-0.016272,-0.020413,-0.199731,-0.211111,-0.413446,-0.684939,-0.441993,-0.172454,-0.524600,-0.252496,-0.101535,-0.062028,-0.151280,-0.161641,-0.231070,0.329179,0.409275,-0.116314,-0.150387,-0.179352,-0.119113,-0.206289,-0.178535,0.557777,0.119028,-0.266852,-0.122974,-0.244605,-0.004709,0.135427,0.138999,-0.040422,-0.185731,0.256283,-0.133166,-0.247564,0.053635,-0.123503,-0.055259,-0.092435,-0.114300,0.000221,0.032021,-0.105886,0.019666,0.117169,-0.154743,0.005467,0.044236,0.080393,0.185932,-0.093017,-0.018351,0.120094,0.201172,0.142933,-0.136520,0.060927,-0.154805,-0.032079,-0.155960,0.077200,0.248030,-0.023124,-0.254366,-0.171139,-0.190844,-0.176869,-0.434989,-0.254637,-0.027756,-0.189042,-0.216395,-0.058496,-0.093441,0.025970,-0.057840,-0.042316,-0.015261,-0.224025,-0.431600,-0.160761,-0.124229,-0.132589,-0.275996,0.232356,-0.117916,0.015953,0.140949,0.011427,-0.225726,-0.091834,-0.118068,0.000799,-0.084985,0.068292,0.269534,0.278976,-0.013105,-0.146127,-0.113967,-0.118136,0.139345,0.116090,0.034988,-0.011655,0.155218,0.049549,0.011635,0.070014,-0.006920,-0.250068,-0.200593,-0.045835,-0.078913,0.102282,0.001133,0.139999,-0.208981,-0.359381,0.135003,0.005714,0.094708,0.013863,-0.192081,-0.185248,-0.231632,0.067900,-0.046437,0.002544,-0.029214,-0.035643,-0.209259,0.019666,-0.094063,-0.036034,-0.148419,-0.147016,-0.005075,0.044207,-0.052964,0.010445,-0.081407,-0.073941,-0.047949,-0.072553,-0.109552,-0.085587,-0.136331,-0.044129,-0.186465,0.037487,-0.035768,-0.094842,0.001467,-0.002333,-0.121819,0.085880,0.171322,0.091498,-0.113643,0.235788,0.027440,-0.000819,-0.088411,-0.075038,0.068836,0.031633,-0.020872,-0.006649,0.053087,0.037947,0.094765,0.358341,-0.217386,-0.090634,-0.000269,0.084590,0.026182,-0.105598,0.110957,0.059819,-0.269429,-0.200741,0.178449,-0.017154,-0.092269,-0.100497,-0.150319,0.179686,-0.082924,0.078900,-0.221044,0.038628,0.012032,-0.072089,0.017771,0.075170,-0.049806,0.194962,0.128230,-0.033825,-0.041402,0.058832,0.067417,0.221928,-0.067411,-0.345885,-0.716544,-0.091706,0.076659,0.123099,-0.071517,0.155590,-0.152015,-0.219898,-0.347088,-0.152495,-0.232736,-0.191866,0.181068,0.071330,0.136633,0.157668,-0.287123,-0.163307,0.130904,-0.115368,0.408203,-0.093439,0.148138,-0.307598,-0.168326,-0.050936,0.199937,0.088854,-0.144434,0.054613,0.210266,-0.205933,-0.217416,-0.025157,-0.043183,0.027416,-0.260285,-0.198838,0.153442,0.007022,0.055902,0.117122,0.110228,0.136328,0.073985,0.051894,0.031318,0.083284,0.018179,0.114491,0.118712,0.021308,-0.150377,0.109988,-0.054032,0.314890,0.077511,-0.432019,0.003230,-0.016543,-0.061588,0.004649,0.041973,-0.026019,-0.145258,-0.061643,-0.065306,0.034559,0.122184,0.182023,0.185889,0.146017,0.113273,0.120907,-0.186792,-0.051119,-0.032975,-0.061589,-0.097210,0.287007,0.218798,-0.021614,0.027160,-0.003979,0.038138,-0.238438,0.007193,0.211200,-0.198878,0.092643,0.075883,-0.019301,-0.116726,-0.097636,0.150457,0.145260,-0.314448,-0.344615,-0.058120,-0.037656,-0.080680,-0.127276,0.095971,-0.035885,-0.297812,0.221602,-0.068616,0.006300,-0.051793,-0.023897,-0.090112,0.074915,-0.043533,0.173134,-0.033513,-0.043924,-0.121187,0.323303,-0.080565,0.180577,0.047160,-0.183178,0.010947,-0.064357,-0.101059,0.021179,-0.047540,-0.190067,-0.458782,-0.066283,-0.087892,-0.010055,-0.128556,0.097507,0.048875,0.056525,0.026431,-0.101240,-0.155368,-0.055469,0.170297,-0.046221,0.036433,0.047736,-0.071386,-0.044365,0.016518,-0.026690,-0.061598,0.164539,-0.104867,-0.024097,-0.217768,-0.035954,0.080926,0.050752,-0.097861,0.109525,0.038441,-0.087290,-0.160710,-0.229630,0.169045,0.102229,0.101728,-0.141343,0.043252,0.145682,-0.135886,-0.002326,-0.109195,0.003190,-0.001336,0.047387,0.136676,0.010980,0.014206,-0.021418,-0.040286,-0.020743,-0.230950,0.100782,-0.109028,-0.248283,-0.047109,-0.327958,0.022559,-0.028283,0.083665,0.131583,0.026949,-0.189952,-0.647364,-0.265467,0.092623,0.108080,0.004120,0.022129,0.060705,0.175278,0.348175,0.070173,-0.226882,-0.197098,-0.225561,-0.233284,0.045887,0.375075,0.118387,0.196824,-0.017415,-0.055857,-0.012878,-0.045773,-0.004588,0.216442,0.107313,-0.114891,0.270684,0.063284,-0.057992,-0.145414,-0.033914,-0.142038,-0.188892,0.117524,0.008471,-0.119433,-0.253194,0.178199,0.093356,-0.230801,-0.071269,0.166464,0.012350,-0.030320,-0.028412,0.041951,-0.212589,-0.227250,0.325255,-0.183620,0.100776,0.033834,-0.276278,-0.030203,0.081116,0.062488,0.228112,-0.406956,-0.009399,0.010604,0.036119,0.061742,-0.155096,-0.338853,-0.543033,-0.059353,-0.054697,0.090003,-0.290969,-0.116147,-0.355494,-0.514156,-0.347854,0.256114,-0.287607,-0.118671,-0.128041,-0.172344,-0.222123,-0.299481,-0.089547,-0.049848,-0.083410,-0.203875,0.085817,-0.202760,-0.137752,-0.012380,0.090902,-0.089619,0.307198,0.137542,0.051637,0.036204,-0.201159,-0.146208,-0.088329,-0.180535,-0.190566,0.107823,0.167267,-0.147840,-0.297023,0.048611,-0.069860,0.132666,0.073248,0.040497,0.058419,-0.335701,0.055600,0.030000,0.163821,0.013632,0.105988,0.042726,-0.123331,0.205091,0.009019,-0.013361,0.114492,-0.389651,0.053718,-0.019607,-0.026253,0.069262,-0.224448,-0.241336,-0.463691,-0.193994,0.049307,0.021018,-0.142517,0.011668,-0.121880,0.261977,0.078098,0.111809,-0.319953,-0.177229,-0.226272,-0.073968,0.116530,0.384648,0.519602,0.171008,0.076680,-0.121758,-0.056253,-0.106743,-0.052922,0.214398,0.033294,0.011623,0.095135,-0.054354,-0.020733,0.053631,-0.164681,0.140100,-0.124669,0.060286,-0.140201,-0.001565,0.046734,-0.015694,-0.141368,-0.227806,0.034851,0.111055,0.041176,0.026369,-0.039095,-0.007199,-0.127884,0.057764,-0.011135,-0.094550,0.102330,-0.010647,-0.054570,0.190476,-0.054855,0.072107,0.008234,-0.188912,-0.026838,0.214421,0.114187,0.175944,0.070936,0.082333,0.307418,0.183950,0.082572,0.049511,0.018243,-0.021629,-0.087247,0.039686,-0.080384,0.061593,0.056497,0.220387,-0.064394,0.247465,-0.030998,-0.340692,-0.286969,-0.038134,-0.032466,0.083541,0.078621,0.222967,-0.213551,-0.295214,-0.160989,-0.309621,0.176495,0.211315,-0.138282,-0.073062,0.271905,-0.059879,0.201708,0.096287,0.254263,0.215079,-0.116557,0.050244,-0.054125,0.004231,-0.117660,0.031495,0.301145,0.104245,-0.184285,0.039588,-0.108704,-0.143123,-0.294238,-0.015168,0.159950,0.185990,-0.166659,0.105320,0.052012,0.047368,0.192838,-0.008372,0.114494,0.270164,0.206698,0.348363,0.334221,0.301522,0.430529,0.328131,0.146342,0.151373,0.172396,0.204788,0.256050,0.016872,0.139771,0.229415,0.205361,0.180747,-0.123967,0.143792,0.009898,-0.213052,-0.075157,-0.088224,0.330914,0.328815,-0.183199,0.034721,0.020748,-0.243239,-0.277723,-0.175585,0.279906,0.316841,-0.209105,0.023180,0.316072,0.026381,-0.027119,0.171056,0.182844,0.283853,-0.243171,-0.139190,-0.035453,0.120397,-0.210209,0.130971,0.181637,0.303822,-0.137960,0.197022,0.089412,0.071913,-0.021270,0.329480,0.215743,0.140883,0.247874,0.221367,0.037167,0.274521,0.258055,0.326124,0.254404,0.063234,0.129199,0.265215,-0.092583,0.142457,0.137685,0.232722,0.128236,0.186413,0.277889,0.252235,-0.034649,0.199437,0.228536,0.424354,0.115178,0.360206,0.063853,-0.194405,-0.341989,-0.158912,-0.048215,-0.051595,0.101857,0.283190,-0.036058,-0.228556,-0.208701,-0.564217,-0.621058,-0.170537,0.234814,0.203421,0.480085,0.126640,0.472175,0.123229,-0.042872,0.150010,0.404890,0.309965,0.121535,-0.258883,0.033231,0.052909,0.273785,0.076274,0.694285,-0.069668,-0.100224,-0.145684,-0.080100,0.098043,-0.011822,0.393212,0.277359,0.019564,-0.272776,0.010123,-0.134053,0.269868,0.331572,0.185288,0.116910,0.277671,0.241913,0.307465,0.367369,0.257404,0.300387,0.224513,0.173937,0.243652,0.119661,0.007275,-0.109104,0.014162,-0.004401,0.238016,0.262918,0.321375,-0.089508,0.107778,0.129353,0.315034,0.322867,0.282603,0.394329,0.352664,0.034486,-0.054204,-0.280812,0.232482,0.179440,0.360316,0.169936,0.162314,-0.135759,-0.130611,-0.029947,0.053260,-0.054624,0.202195,0.363907,0.216371,0.171990,0.048184,0.053757,-0.051510,-0.014275,0.331727,0.321791,0.300772,-0.127583,-0.074509,0.069238,-0.057252,0.112555,0.124310,0.253348,0.129748,-0.149405,0.042607,-0.047616,0.351892,0.339864,0.280939,0.314141,0.126140,0.143806,0.336393,0.178314,0.182182,0.474851,0.276996,0.298311,0.248269,0.096109,-0.117977,0.135637,0.095438,0.092421,0.277359,0.186115,0.281175,-0.182820,0.129835,-0.118224,0.171336,0.478063,0.573279,0.366562,0.162771,-0.104496,0.042950,0.199803,0.086720,-0.122970,0.064775,0.090969,0.310464,0.140149,0.073199,0.180281,0.046056,-0.089314,0.137400,0.477914,0.261861,-0.117141,-0.215201,0.078036,-0.006026,-0.027722,0.200815,0.442384,0.264436,-0.303309,0.039379,0.141951,0.108315,0.129803,0.174839,0.347354,0.191441,-0.064704,0.057315,-0.022896,0.193924,0.352093,0.192018,0.200766,0.127986,0.052463,0.338816,0.153539,0.218735,0.438412,0.288216,0.197559,0.217903,0.014914,-0.164246,0.107912,0.010358,-0.113558,0.019184,0.168881,0.373807,0.057594,-0.204190,-0.051874,-0.214037,-0.000966,-0.111507,0.038632,0.169559,0.310864,0.149023,-0.027216,-0.165661,-0.077305,-0.059057,0.347236,0.292907,-0.061654,-0.145492,-0.194108,0.231518,-0.007349,0.129440,0.330846,0.167691,0.073534,0.120513,0.098348,-0.098814,0.041399,-0.053239,0.680900,-0.010653,-0.057347,0.043862,0.166435,-0.334946,-0.296631,-0.249284,0.298207,0.058074,-0.170254,0.164165,-0.077974,0.262095,0.232127,0.006496,0.170057,0.195644,0.056536,0.313218,0.182891,0.095831,0.370951,0.263520,0.210879,0.057167,0.080671,0.100167,0.160463,0.145672,0.175607,-0.082927,0.033920,0.388517,0.155551,0.342306,0.019606,-0.350334,-0.525973,-0.445712,0.039963,0.396318,0.027038,0.015344,0.012386,-0.032310,-0.252944,-0.345538,0.353249,0.318132,0.255663,0.147419,0.274344,0.268019,0.204840,-0.056719,0.561143,0.355179,-0.015473,-0.002460,-0.011177,-0.055304,-0.079129,-0.134812,0.500331,0.133489,-0.239839,-0.006404,-0.272933,-0.240285,-0.196441,0.053825,0.267165,0.158074,-0.028798,0.066555,-0.084136,0.136183,0.292126,0.164065,0.082774,0.046601,0.166475,0.321313,0.065579,-0.144289,0.255670,0.152928,0.205060,0.077273,0.025807,-0.125234,-0.220704,-0.077496,-0.050035,-0.008163,0.049546,0.205151,0.035541,0.050733,-0.099721,-0.038206,-0.153494,-0.400526,0.210270,0.300364,-0.011458,0.144584,-0.441658,-0.082680,0.207237,0.059029,0.081583,0.262735,0.013846,-0.000087,-0.048681,0.197645,0.036100,0.087306,0.484762,0.273417,-0.104829,0.086852,0.125373,-0.189077,-0.095664,0.353152,0.321628,0.098576,-0.249112,0.002768,0.030163,-0.131172,-0.261808,-0.041608,0.139815,0.176139,-0.002368,0.246009,-0.144800,0.033468,0.322861,0.049636,0.154032,-0.043777,-0.128324,-0.131094,-0.139224,0.034530,-0.130460,-0.062905,-0.149877,-0.066108,-0.188220,-0.129489,0.154443,0.055453,0.184876,0.003589,-0.015271,-0.072469,-0.001928,-0.047755,-0.081673,0.189393,0.246570,-0.157180,0.036236,-0.066788,0.043041,-0.045967,0.126552,-0.019745,0.044101,0.140682,-0.047117,-0.102840,-0.092820,0.028152,0.098275,-0.151647,-0.199879,-0.002991,-0.030431,-0.107282,0.005160,0.237628,0.248659,0.186933,0.260039,0.193579,-0.242533,-0.146634,-0.196061,0.130421,0.157561,-0.063905,0.216248,0.323939,-0.140753,-0.142345,0.023481,0.035366,-0.076011,-0.203530,0.028523,-0.013007,-0.053676,-0.230489,-0.230879,-0.239172,-0.279722,-0.265342,-0.224656,-0.269843,-0.205768,-0.224030,-0.286228,-0.210715,0.165335,-0.038146,-0.265586,-0.050693,-0.092637,-0.165397,0.026229,0.098503,-0.078116,-0.233945,-0.006327,0.135534,-0.268748,-0.279039,-0.018174,-0.083694,-0.096171,0.106230,0.255252,0.279254,-0.180046,-0.286615,-0.294621,-0.028841,0.014004,-0.219236,-0.043610,-0.111541,-0.151992,-0.221937,0.156326,0.150006,-0.017656,-0.158068,-0.005908,-0.077979,-0.221017,-0.104471,-0.143337,-0.183345,-0.026565,-0.010756,-0.096245,-0.046123,-0.267003,-0.191678,-0.203446,-0.024297,-0.089621,0.018115,0.056377,-0.248013,-0.154145,-0.092752,-0.139425,-0.170052,-0.100506,0.142886,-0.148991,-0.033942,-0.089881,0.012898,-0.079856,0.201388,0.174370,-0.061839,-0.269515,-0.118231,0.135269,-0.046849,0.207009,0.305788,0.326101,0.216843,-0.232003,-0.352854,-0.321644,-0.246616,0.145221,-0.192433,-0.058831,0.332548,0.124751,0.204995,-0.180199,-0.220970,0.234060,0.030199,0.442283,0.263082,0.079336,0.113401,0.174796,0.045949,-0.029449,0.001422,0.290055,-0.001680,-0.158698,0.207961,0.176889,-0.097047,-0.367515,-0.344651,0.028007,0.229168,-0.278757,-0.215879,-0.137709,0.009016,0.106130,0.171050,0.141722,0.121931,0.305412,0.072036,-0.046898,-0.097167,-0.058908,-0.079311,-0.293242,-0.107620,-0.273538,-0.201150,-0.105839,-0.223382,-0.199490,-0.172022,0.111146,0.264127,0.210077,0.157903,-0.037152,-0.125494,-0.113452,-0.313588,0.017796,0.329303,-0.067986,-0.104898,-0.292380,-0.316177,0.161842,0.005086,0.431233,0.008514,-0.140767,-0.061126,-0.214499,-0.179351,-0.295806,-0.040024,-0.115627,-0.098999,-0.282130,0.209564,-0.132029,-0.230497,0.020762,-0.068978,0.134446,0.093255,0.175922,0.136084,-0.159870,-0.150628,-0.001442,0.072294,-0.006206,-0.049233,0.003285,0.399402,-0.144600,-0.160436,-0.208333,0.344224,0.185444,0.335362,0.290347,-0.254124,-0.045754,-0.074584,-0.072072,-0.203205,-0.226471,0.181019,-0.154395,-0.022966,-0.051000,-0.044241,-0.162629,-0.078651,0.032449,0.085985,0.123149,0.043924,0.032111,-0.157019,0.045680,0.064546,0.025415,-0.109949,-0.297044,-0.074901,-0.385324,-0.171724,-0.090423,-0.197319,-0.106586,-0.021969,-0.060860,-0.058750,-0.251373,-0.205749,0.068544,0.183115,0.080207,0.058655,-0.098815,0.093351,-0.013721,-0.182593,0.177304,-0.098184,-0.041705,-0.111953,-0.222804,0.042911,0.052232,-0.103471,-0.193002,-0.106320,0.245633,0.134071,-0.158429,0.007556,-0.114685,-0.031907,-0.169107,0.408875,-0.061080,0.353360,0.060185,-0.162889,-0.016263,-0.111004,-0.144377,-0.119192,-0.110161,0.110309,-0.104565,-0.101125,-0.031856,-0.046357,-0.104708,-0.141247,0.183425,0.398367,0.133438,0.230838,0.186539,0.142636,-0.141071,-0.513113,-0.092429,0.237302,0.201594,0.140724,-0.051328,-0.255540,0.135380,0.126362,0.226316,0.161872,-0.097737,-0.171076,0.225581,-0.061697,0.068372,0.146939,0.177514,-0.011512,-0.146983,-0.054116,0.037700,-0.129368,-0.076655,0.111177,0.050732,0.159453,0.129549,0.157415,0.018248,0.005667,-0.269916,0.047349,-0.109463,0.075193,0.196888,0.437060,0.017864,-0.025933,0.079540,0.227915,-0.030215,-0.003087,0.227254,0.176745,0.055812,-0.121349,-0.058570,-0.121720,-0.235020,0.113379,-0.198849,-0.071350,-0.153069,-0.113682,-0.239673,-0.147983,-0.235270,-0.415768,-0.119539,0.234312,0.144351,0.115494,-0.002469,-0.103349,-0.167965,-0.143493,-0.100434,-0.120913,0.077829,-0.412692,-0.027633,-0.091868,-0.167108,-0.102774,0.009485,0.090766,0.162233,-0.160400,0.086052,-0.073497,-0.081729,-0.131652,-0.116750,-0.218400,0.109806,-0.079539,0.256156,0.312209,0.096017,0.075393,0.047420,-0.023702,-0.317165,-0.040495,-0.182642,-0.368407,-0.187102,0.033349,0.203849,0.135779,-0.016006,-0.207319,0.127308,0.003690,-0.074370,0.083632,0.167194,0.124257,-0.043530,-0.143205,-0.089104,-0.215392,-0.279460,0.143241,-0.028193,-0.025742,0.013923,-0.119961,-0.176680,-0.192505,0.032438,0.198522,0.235153,0.214546,0.109778,-0.047790,-0.020958,-0.296351,-0.018790,0.296409,0.361511,0.046103,0.010607,-0.209718,-0.052606,0.251934,0.377297,0.064878,-0.066767,0.092507,-0.035421,-0.098069,0.005405,0.142992,0.085243,0.081105,-0.120398,0.239913,0.139260,0.000371,0.147709,0.023130,-0.029751,0.230198,0.308679,0.247823,-0.139469,-0.097676,-0.189755,-0.019157,-0.034348,-0.175437,0.226294,0.409691,-0.107689,-0.023393,-0.060899,0.104616,0.232784,0.072668,0.137805,-0.136734,-0.162999,0.168814,0.100311,0.194248,0.046278,-0.107453,-0.216781,-0.020767,0.118199,0.059689,0.057089,-0.048135,0.141033,0.246923,-0.035202,0.083069,0.089118,0.275087,-0.218788,0.045859,0.144391,-0.040604,-0.072480,-0.039054,-0.293779,0.159137,-0.008584,0.121551,0.413277,-0.211187,-0.096168,0.374933,0.216816,0.071997,0.016293,0.024998,0.128478,0.002431,-0.222812,0.080655,-0.071620,0.153345,-0.127891,-0.243768,-0.160552,-0.148931,0.077374,0.140353,0.194754,0.182454,-0.188996,-0.080344,-0.258396,-0.142298,0.137923,0.200950,0.279117,0.125856,0.152198,0.089367,0.290613,0.040717,0.444361,0.179698,0.075492,0.314389,0.343780,0.209527,0.334763,0.310631,0.368838,0.328366,0.340720,0.390746,0.161525,0.019486,0.332135,0.122744,-0.066365,0.105679,0.278041,0.300402,-0.028310,0.002239,0.140538,-0.226803,-0.015673,-0.237207,0.374455,0.357892,0.225820,0.094230,0.242336,0.041622,-0.064208,0.114820,0.412017,0.352278,-0.094814,-0.085510,-0.006994,0.003937,0.032122,-0.088040,0.300288,0.292025,0.111034,-0.231510,-0.137217,-0.104337,-0.080499,0.071293,0.334849,0.338383,0.121045,0.064524,-0.031443,0.082276,0.013376,0.188759,0.386334,0.330488,0.384776,0.147304,0.143724,0.272689,0.460116,0.360018,0.391573,0.200694,0.117931,-0.168726,-0.085881,-0.259090,-0.410569,-0.019381,0.224702,0.263202,0.045511,-0.225517,-0.103284,0.245718,0.137374,0.107565,0.044211,0.544644,-0.038434,-0.214773,-0.088611,0.121811,-0.031542,-0.079372,-0.044016,0.256814,-0.086009,-0.191360,-0.117231,0.238131,-0.203617,-0.168959,0.509422,0.265676,0.265482,0.038840,0.239673,-0.034964,-0.041798,0.028970,-0.134243,0.107836,-0.166504,-0.017507,0.147669,0.051431,0.171020,-0.126082,0.393022,0.084855,0.108598,0.220862,0.027009,-0.134515,-0.164040,-0.107872,0.285126,0.118430,-0.053465,0.158613,-0.134233,0.128301,0.514835,0.345725,0.129142,0.303715,0.281775,0.203081,0.243045,0.219771,0.225438,0.166605,0.308085,0.384855,0.095978,0.126975,0.175258,0.053956,0.185647,-0.018220,0.384449,0.349282,-0.320623,-0.011889,0.307296,0.359422,0.233404,0.084992,0.172527,0.429580,0.195090,0.174801,0.338651,0.196199,0.225653,-0.199264,0.431727,0.316359,0.030335,0.021559,-0.208138,-0.117885,-0.166182,-0.097260,0.121398,0.224624,-0.088179,-0.094805,-0.087883,-0.085338,-0.154687,0.048629,0.321901,0.353846,-0.219653,-0.204568,-0.149463,0.146788,-0.098500,0.176436,0.334599,0.288417,0.157348,-0.277695,-0.235557,-0.031402,0.457317,0.143317,0.201811,0.295064,0.134348,0.295967,-0.022192,-0.115298,-0.111651,0.181017,0.169603,0.122794,0.019564,0.011920,0.069350,0.333413,0.085619,-0.079080,0.181910,0.365695,0.118327,-0.060203,0.153766,0.214196,-0.006281,0.035798,0.225841,0.236496,-0.129826,-0.067800,-0.065290,0.202967,-0.164044,-0.115494,0.439154,0.208397,0.288821,0.117794,0.146488,0.242126,0.151354,-0.151048,0.024594,0.282250,-0.149708,-0.007958,0.173036,-0.146541,-0.096260,-0.144165,0.434039,0.116645,-0.023937,-0.078307,-0.090462,0.171695,0.011956,0.000450,0.350527,0.277527,0.207804,-0.033606,-0.006059,0.005834,-0.013129,0.056200,0.293779,0.094930,0.076247,0.044535,-0.116961,-0.252956,-0.385561,0.051735,0.237119,0.058173,0.019925,0.067015,0.173037,0.147325,0.013257,0.051972,0.107947,0.442154,-0.349693,0.210439,0.233998,0.126781,0.158585,-0.155177,-0.108029,0.340892,0.151000,0.070458,-0.127832,-0.004909,-0.049096,-0.036721,0.299220,0.322402,-0.031991,-0.009916,-0.149800,-0.270692,-0.113005,0.018466,-0.062827,0.165931,-0.109413,-0.204703,-0.405514,-0.203674,-0.307916,-0.063163,0.358853,0.118602,-0.120293,-0.396735,-0.229006,-0.077133,-0.051882,-0.049327,0.230180,0.216903,0.015265,0.261024,0.221423,0.019164,0.436526,0.545886,0.102646,0.212202,0.246404,0.149833,-0.004838,-0.119229,-0.247558,0.236290,0.288373,0.300130,0.076483,-0.005069,0.104868,0.256928,0.232290,0.346791,0.111080,0.509784,-0.220468,-0.175905,-0.274513,-0.455563,-0.364515,-0.019235,-0.345972,0.370380,0.155910,0.130448,0.243008,-0.066280,-0.177056,0.030174,0.357417,0.258971,0.034423,0.230584,-0.243995,0.048915,0.100558,0.141401,-0.258443,0.148950,-0.094130,-0.292077,0.109513,-0.008721,0.101102,0.007625,0.526094,0.210550,0.032276,0.183243,0.235261,0.027214,0.067052,0.137906,0.373609,0.300533,0.099725,0.527587,0.432095,0.320864,0.335697,0.428437,0.324104,0.160574,0.244661,0.220309,-0.053876,-0.013590,-0.421303,-0.111443,0.155610,0.236312,0.219341,0.025396,0.135056,-0.258220,0.037281,0.066469,0.191713,0.359669,-0.042352,0.000045,0.095223,-0.158814,-0.035051,-0.101440,-0.075491,0.386082,0.090216,0.206017,-0.043171,-0.005894,0.090379,-0.046491,0.483208,0.207283,0.017997,0.048964,-0.220194,-0.173305,-0.153244,-0.098644,-0.136841,0.083473,-0.231955,-0.337079,-0.319702,0.019578,-0.062537,0.117632,0.393233,0.249570,-0.283517,-0.192258,-0.167471,-0.061399,0.066198,0.127950,0.386564,0.279433,0.237707,0.154979,-0.260167,0.227595,0.437590,0.200639,0.096172,0.170343,0.228407,0.281156,0.074267,0.019194,0.180709,0.070288,0.162617,0.167775,-0.090641,-0.329712,0.066771,-0.129067,-0.014792,0.133385,0.180437,0.142599,-0.077680,-0.196162,-0.196926,0.097268,0.076418,-0.008986,0.153280,0.305409,0.121390,-0.116735,0.043459,0.024278,0.197286,0.059402,-0.146789,0.123482,-0.250315,0.128586,0.008482,0.094959,0.012588,0.157449,-0.254098,0.046910,0.142741,-0.035487,-0.130254,-0.086446,-0.011463,-0.042571,0.097412,0.143752,0.084882,0.099074,0.067232,0.254287,0.000688,-0.009635,0.171251,0.168273,0.084473,-0.166550,-0.022093,0.408048,0.203334,0.045412,0.169376,0.236589,0.257500,0.240569,0.059824,0.041786,0.080400,0.246256,0.190393,0.247197,0.189591,-0.107097,-0.073384,-0.283734,-0.122837,-0.041667,0.075887,0.158060,-0.067286,-0.060074,0.050645,0.386705,-0.267738,0.012096,0.169962,0.265359,0.247048,-0.025806,0.072078,0.230396,-0.016865,-0.073070,0.205455,0.212054,-0.415352,-0.134961,-0.060416,0.073244,-0.018167,0.102410,0.154712,0.215632,-0.083624,0.011258,0.005397,-0.059776,-0.065929,-0.059763,0.249739,0.199967,0.083447,-0.126215,-0.025760,-0.142590,-0.023611,-0.247167,0.210632,0.211925,0.045405,0.141461,0.121104,0.289100,0.198088,0.042493,0.104717,0.145808,0.138005,0.319883,0.250950,-0.122506,0.159635,0.031504,0.199050,0.094326,-0.130125,-0.048253,0.035949,-0.276593,-0.110404,0.128939,0.196180,0.420149,0.345767,0.293786,0.033821,-0.205422,-0.272981,0.060841,0.062240,0.333981,0.109592,0.272124,0.007823,-0.284652,-0.351238,-0.105282,0.010636,0.082973,-0.061352,-0.065119,-0.099564,-0.279119,0.086188,0.326586,-0.017946,-0.037220,-0.239654,0.110112,-0.030755,0.046131,-0.090079,0.085275,0.198891,0.032876,-0.211206,-0.424690,0.237397,-0.188018,-0.259572,-0.083980,0.048669,0.096554,-0.241706,-0.248679,-0.068704,-0.043851,0.031443,-0.307919,0.191154,0.137272,0.213184,0.132368,0.190982,0.081675,0.168789,0.059747,0.118452,0.234980,0.144070,0.145659,0.360907,-0.030540,-0.105418,0.168324,0.141769,0.124223,0.171552,0.189701,0.032373,-0.313956,-0.089235,0.005700,0.205306,0.251544,0.300855,-0.017921,0.137331,0.021744,0.040292,-0.010414,0.046418,0.217807,-0.180974,-0.037533,-0.074363,0.036354,-0.062811,0.005710,0.064733,0.165683,-0.127086,0.051986,0.035916,-0.095240,0.210596,0.076838,0.144658,0.133634,-0.034676,0.074177,0.125197,-0.015769,0.134943,-0.005573,0.053738,0.133434,-0.168659,0.004924,-0.207458,-0.019441,0.108062,-0.075408,0.068722,0.207617,0.152347,0.135782,0.115709,-0.038311,0.029391,0.173551,0.239436,0.224727,-0.000820,-0.070440,0.114102,-0.187538,-0.055811,0.104273,0.257611,0.284664,0.468058,0.218519,0.048886,-0.117381,-0.196161,0.202530,0.130472,0.267923,0.195649,-0.196624,-0.065039,-0.382464,0.088072,0.079544,-0.055861,0.110274,-0.216452,-0.222724,-0.153930,0.086254,-0.097854,0.036866,0.063135,0.187701,-0.197791,0.172796,0.036025,0.069053,-0.037418,-0.029220,0.203360,0.236497,0.225446,-0.168927,0.062059,-0.013900,-0.163907,0.022956,0.105444,0.248553,-0.040554,-0.014719,-0.193533,0.118918,0.093158,-0.072877,0.091151,0.176826,0.078627,0.176705,0.184677,-0.040053,0.008664,0.100041,0.083173,0.195080,-0.066791,-0.029002,0.278236,0.170388,-0.032955,0.002798,0.129852,0.216483,0.378956,-0.189785,-0.072244,0.173451,-0.097245,-0.121257,0.088217,0.214760,0.021164,-0.244787,-0.196403,0.147731,0.097674,-0.081213,-0.005026,0.174664,-0.118748,0.153345,-0.083433,-0.056514,-0.044486,-0.064119,-0.261276,-0.014083,0.020407,0.054087,-0.172897,0.091276,-0.115691,0.002332,0.129453,-0.041136,0.124543,-0.123156,-0.101739,0.141935,0.036502,-0.065225,-0.001398,0.214098,-0.276811,-0.109896,0.035292,0.132845,0.273915,0.014309,0.161565,0.181069,0.100703,0.245932,0.160849,-0.106583,0.114958,0.195929,0.161363,0.089045,-0.240855,-0.308740,-0.241425,-0.183519,-0.087274,0.185701,-0.021661,0.284303,-0.172611,-0.112681,-0.296159,0.126653,0.074725,0.069929,0.047514,0.425830,0.182669,0.411813,0.424445,0.138887,-0.115808,-0.061850,-0.103202,0.091587,-0.142420,0.111809,0.070190,0.002270,0.201122,0.089637,-0.267817,-0.021416,0.042985,-0.106482,-0.032728,0.050826,-0.001610,-0.011804,0.030466,-0.017670,-0.299407,-0.285554,0.458614,0.057342,-0.129836,-0.121239,-0.027010,0.051638,-0.088445,-0.183773,0.286517,0.275033,0.279459,0.031698,0.079336,0.205508,0.171840,0.087835,0.088057,0.065317,0.008748,0.178936,0.087805,0.158881,-0.126393,-0.125704,0.428909,0.075379,-0.252183,0.270265,-0.057143,0.316879,-0.145581,-0.185217,0.137707,0.094113,0.083468,-0.199957,0.168267,0.237852,0.116151,0.037846,0.173402,0.270641,0.012848,0.058597,-0.143247,0.175509,-0.250660,0.101067,0.045225,-0.062595,-0.187918,0.177046,-0.132705,0.041764,-0.071067,-0.039868,-0.082643,-0.342413,0.080735,-0.133608,0.173553,0.093016,-0.022436,0.023335,-0.103601,-0.014181,0.348790,0.033425,0.024769,0.025422,-0.062206,-0.027686,-0.268677,0.196411,0.282407,0.090426,0.170592,0.108915,0.116053,-0.018001,0.166023,0.377239,0.091077,0.154601,0.131736,-0.040607,-0.068373,0.190549,-0.116980,0.334531,-0.178759,0.003553,0.105116,-0.136687,0.029301,-0.017855,-0.152470,0.037303,-0.061179,-0.059772,0.204454,0.073505,-0.205625,-0.086547,-0.110974,-0.088857,-0.261199,0.092167,0.103463,0.117219,-0.116613,-0.225912,0.016725,0.100270,-0.071513,-0.067336,-0.153837,0.068922,-0.142247,-0.032340,-0.015057,-0.346792,-0.134487,-0.146470,-0.077826,-0.053273,-0.268181,-0.145056,-0.136511,-0.151452,-0.190584,-0.056453,0.117644,-0.040531,0.055510,0.260004,0.172814,-0.184400,-0.015877,-0.112011,0.058220,0.018200,0.061826,-0.021753,0.129102,0.097561,0.087233,0.093539,0.057265,-0.031482,0.124249,0.093240,-0.193588,0.130417,0.358905,0.146403,-0.019734,0.093956,0.140031,0.108515,0.185695,0.055888,-0.002366,-0.006337,0.019641,0.028735,-0.249026,-0.292640,-0.047456,-0.052236,-0.064638,-0.197174,0.140649,-0.044739,-0.005566,-0.065624,-0.134402,0.125115,0.004676,-0.043941,-0.010077,-0.052847,-0.016967,-0.217436,0.047715,-0.038682,0.143995,-0.145463,0.032535,-0.004617,-0.171552,-0.062802,0.081572,0.040819,-0.156281,-0.014328,-0.039239,0.055770,0.030172,0.218771,0.240650,0.056878,0.107590,-0.080393,-0.045273,0.051726,0.078037,0.092506,0.082007,0.483040,0.182725,0.221693,0.065875,-0.006068,-0.274164,0.284071,-0.046594,0.264518,0.166457,-0.197326,0.125523,-0.201716,0.038831,0.174708,0.275017,0.220379,-0.389187,-0.068393,0.169552,-0.235913,0.123905,0.203457,0.195516,0.019609,-0.291434,-0.275376,0.155000,-0.194564,-0.160654,-0.275241,-0.012593,-0.026854,-0.153789,0.229347,0.014283,-0.163937,0.000485,-0.203979,0.050393,0.083933,0.252323,0.088131,-0.163106,-0.141273,-0.049682,0.148420,-0.069908,-0.220903,-0.157424,0.020056,0.138114,-0.040113,-0.029483,0.340569,0.163455,0.132094,0.164795,0.033208,-0.081424,0.073741,-0.049339,-0.022522,0.061979,0.131022,0.135963,-0.000261,0.001890,-0.042743,0.063063,0.202481,0.166609,0.044429,0.111199,0.076641,-0.029121,-0.020938,-0.211566,0.070316,-0.159263,0.028118,0.193250,-0.018108,0.167579,-0.090988,-0.114352,-0.081520,-0.051917,-0.157857,-0.025733,0.021447,-0.071924,0.058297,-0.294656,0.081276,0.211659,0.144312,-0.265596,-0.122662,0.066508,0.049939,0.000480,0.274680,0.273858,-0.025781,0.186027,0.214568,-0.112726,-0.075377,-0.094202,-0.003806,-0.051725,-0.007278,-0.021393,0.022501,0.044478,0.077065,-0.012445,0.425888,0.162844,0.153511,0.107769,-0.130088,0.106252,-0.052860,-0.057076,-0.018758,-0.026845,0.288860,0.109558,0.054451,0.035454,0.056754,0.081141,0.057135,-0.115488,-0.028477,0.021426,0.005440,0.064408,-0.224343,0.018471,0.208474,0.332296,0.126666,-0.110146,-0.108011,0.346780,0.006895,-0.337346,0.079301,0.036418,0.088249,-0.230247,0.108402,-0.072078,-0.063256,-0.188021,