-0.417271,0.182529,0.131631,0.206034,0.176318,-0.180994,-0.346774,-0.510397,0.244528,0.015024,0.140289,0.090095,-0.004465,-0.404416,0.053301,-0.091831,0.079199,-0.091240,-0.089589,0.022851,0.032254,0.011528,0.196660,-0.150704,0.013471,-0.399108,0.087848,0.214058,-0.050230,-0.327878,0.222820,-0.081433,-0.394327,-0.138428,0.078400,-0.052201,0.042607,-0.313405,0.178529,0.137176,-0.209931,0.203821,0.333020,-0.529059,-0.288768,0.184535,-0.360258,-0.163300,0.173776,0.054426,-0.158900,0.193078,-0.128878,-0.311095,-0.148562,-0.156772,0.165055,-0.327797,0.163911,0.183821,-0.215725,0.255917,-0.167769,-0.376900,0.047455,0.120053,0.192035,-0.253565,-0.678293,0.090384,-0.104558,0.183771,0.138077,0.236372,-0.239393,-0.531320,0.012083,0.159335,-0.124997,-0.212774,0.135006,-0.358002,0.091801,-0.113614,0.143454,-0.517359,0.205846,-0.481767,0.239577,0.272149,-0.320017,0.062386,-0.292422,0.144892,-0.342710,-0.340062,0.195735,0.054609,-0.321974,-0.483545,-0.153020,0.171290,0.178879,0.153354,0.001864,-0.453369,0.033382,-0.410185,-0.173558,-0.596898,-0.030486,-0.289279,-0.793174,-0.095576,0.168467,-0.086554,-0.244554,0.173072,-0.250277,0.202596,0.182957,0.049099,0.010302,0.221161,0.171014,-0.222304,0.181357,0.132430,-0.426556,0.155481,-0.793578,-0.728819,0.013482,0.063620,-0.379398,0.091238,0.178322,0.097223,-0.156520,0.087368,0.224948,-0.085439,-0.198664,0.178417,-0.531529,-0.645929,-0.176042,0.101101,0.197072,0.244374,0.130278,0.114205,-0.350521,0.115879,-0.802218,-0.503371,0.273296,0.221321,-0.493096,0.203659,-0.065540,0.082174,-0.953793,-0.326362,0.148470,0.078380,0.190877,0.159485,-0.766167,0.154175,-0.252113,-0.131158,-0.603038,0.193211,0.310237,0.125446,-0.748292,0.058025,-0.146863,-0.226856,0.213706,-0.270683,-0.240993,-0.562567,-0.196030,0.138202,0.173710,-0.652933,0.205092,0.265788,0.207564,0.004404,-0.845299,0.069829,0.222412,0.254736,0.257731,-0.617910,-0.162858,-0.173379,-0.966124,-0.147428,0.221181,0.137933,0.143962,-0.539396,0.243408,-0.566888,-0.049864,0.276442,0.136612,-0.204042,0.098111,-0.151887,-0.157442,-0.102474,-0.215393,-0.204052,0.100085,-0.166759,-0.475857,-0.652561,0.147039,0.205291,0.113465,0.060060,-0.327632,0.120064,0.152601,0.160533,-0.343978,-0.563086,0.216039,-0.333471,-0.250051,-0.397903,-0.565162,0.156303,-0.436296,0.154804,-0.761766,-0.450602,0.038432,0.065171,0.159805,-0.606550,-0.194223,0.163852,0.100225,0.208188,0.222634,0.282037,-0.330110,0.090532,0.261444,0.250213,-0.043143,-0.479263,0.038284,-0.190156,0.120925,-0.661378,0.166758,-0.480997,-0.220816,-0.311705,-0.057986,0.112617,-0.214621,0.028598,0.197379,0.011861,0.213940,0.146210,-0.035556,0.121104,-0.138900,-0.080858,0.122444,0.183933,-0.142351,0.057086,0.169268,0.183649,0.004475,0.236259,-0.326526,0.232873,-0.138469,0.176450,-0.127494,-0.206811,0.117252,-0.749200,0.129322,0.093017,-0.417868,-0.595719,-0.293973,0.107559,0.155314,0.176753,0.142517,-0.242974,-0.188309,0.258326,0.160284,-0.066232,0.123975,0.215720,0.102744,-0.526055,-0.074723,0.212660,-0.573274,0.011776,-0.369054,0.160187,-0.434666,0.174043,0.083888,0.075039,-0.150568,0.011655,-0.182084,-0.025688,0.278053,0.056235,0.042806,0.161794,0.208013,0.213874,-0.127821,0.086251,0.116123,-0.134360,0.141268,-0.118079,-0.263921,-0.610957,0.201362,0.162665,-0.169132,0.101710,0.337578,0.283244,0.011660,0.209691,0.149634,-0.213734,-0.578428,0.178371,0.150274,-0.442684,-0.016803,0.136710,0.151649,-0.509244,-0.222309,0.049382,0.153909,-0.109091,0.039617,0.200255,-0.029773,-0.251694,0.253153,0.181370,-0.206923,0.175208,0.152281,0.147352,-0.044828,-0.187067,-0.244176,0.198246,-0.335077,-0.530046,-0.637938,0.156780,0.221575,-0.470702,0.143316,-0.043825,0.261514,0.190777,-0.214608,-0.146726,0.118402,0.228673,0.038241,0.151623,-0.235608,-0.408908,0.241103,-0.444108,-0.460323,-0.017353,0.146898,-0.597528,-0.573782,0.083829,0.042674,0.068500,-0.378730,-0.018319,-0.316535,0.149289,0.246983,0.210997,0.197250,-0.206173,-0.397717,0.082534,-0.319979,0.211767,-0.067557,0.206561,0.035806,0.241290,-0.400466,0.098956,0.004327,-0.102729,0.140803,0.120713,-0.188337,-0.150490,0.129323,-0.406021,-0.163004,0.178444,0.241250,-0.109721,0.142052,-0.199479,-0.177878,0.252175,-0.099075,0.047266,0.090384,-0.057097,-0.048507,0.092424,-0.135845,-0.273193,0.206564,0.086639,-0.005477,-0.191552,-0.382669,-0.410392,-0.204683,-0.261408,0.224742,-0.474087,-0.186254,0.042029,0.212872,0.229359,0.028747,-0.068810,-0.207724,-0.309239,0.228452,-0.298564,-0.187776,-0.248723,0.111580,-0.085230,-0.241459,-0.204810,-0.254142,-0.184588,-0.251984,0.240562,0.171242,0.153799,0.226542,0.104699,0.150368,0.037349,-0.353104,0.099705,0.171812,-0.436733,0.179030,-0.174714,-0.088956,0.268221,0.114508,-0.084679,-0.297603,0.216799,0.236738,-0.277871,0.113720,0.154735,0.125248,0.109475,0.008385,0.175345,0.123627,-0.166385,0.194334,-0.050307,0.192609,-0.237611,-0.217966,0.091260,-0.240690,-0.044179,-0.167786,-0.046919,0.187570,0.128361,-0.724771,-0.066039,0.266178,0.158645,0.067822,0.162079,0.212273,0.136335,0.168035,-0.332993,-0.325888,0.219117,0.016634,-0.642924,-0.392332,-0.110997,0.105985,0.245944,0.069641,-0.770519,0.211587,0.207347,0.158754,0.240034,0.244918,-0.142759,0.146290,0.015121,0.208336,0.019161,-0.642522,-0.480291,0.184047,-0.406791,0.104758,-0.631216,0.196730,-0.062808,0.069850,0.102870,-0.349570,0.242582,0.211028,0.203413,-0.112794,0.291771,0.109278,-0.440178,0.058371,-0.123733,0.249430,0.134898,-0.769846,-0.160723,0.179214,-0.504447,0.203461,-0.254304,-0.036246,-0.007180,0.252476,0.215463,-0.014119,-0.013476,-0.240919,0.114731,0.205974,0.090766,0.032955,0.122026,-0.304463,-0.385918,0.138282,-0.390520,0.243266,0.227120,-0.570449,0.265306,0.172883,0.184981,0.149183,-0.479341,-0.125195,-0.277636,-0.016718,-0.353396,0.220078,-0.404496,-0.017838,-0.397321,0.031395,-0.014077,-0.742116,-0.447788,0.229443,-0.047815,-0.322255,0.031164,0.152755,-0.398957,-0.433071,-0.306157,-0.725737,-0.344791,0.193309,0.219358,-0.213100,0.206793,0.161393,0.238214,-0.544226,-0.458452,0.185222,-0.401548,-0.324200,-0.222749,0.026162,-0.259677,-0.332781,-0.521264,0.328334,-0.134469,0.181732,0.156866,0.292208,-0.173448,0.079071,-0.316096,0.159778,0.192377,0.072769,-0.117128,0.113031,0.082482,-0.460652,-0.565580,0.191870,-0.152392,-0.045417,-0.055646,0.285953,-0.033452,0.243633,-0.724383,-0.137203,0.020068,0.082003,-0.229327,0.275151,0.189346,0.212959,-0.590131,-0.169527,0.034615,-0.146973,-0.476396,-0.149493,0.054614,0.066902,-0.087906,0.058574,0.144431,-0.488842,-0.052383,0.189746,0.117128,-0.309070,0.066715,0.110800,-0.277132,-0.166184,-0.207591,0.159988,0.114787,-0.345534,-0.007335,-0.030478,-0.411930,0.157236,0.197221,0.098461,-0.260532,0.008723,0.063460,0.189087,-0.034862,0.185473,-0.099085,0.262727,-0.054501,0.122190,0.214331,0.119670,-0.073416,0.052165,0.052099,-0.001884,0.022063,-0.385605,0.175477,-0.195500,-0.419804,-0.290157,0.001178,0.250942,-0.112929,-0.178729,0.130964,-0.210979,-0.484069,0.139777,0.017077,-0.137978,0.187873,0.047328,-0.207340,-0.124988,0.148564,0.242103,-0.433259,-0.299357,0.126811,0.059678,-0.221649,0.158143,0.141153,0.225434,0.176742,0.066754,0.247070,0.162030,0.225020,0.156473,0.191753,-0.409132,0.148258,0.119094,-0.224999,-0.610909,-0.815476,-0.499005,0.111447,0.184701,-0.152007,-0.386497,0.205483,0.159671,0.154279,0.093744,0.099343,-0.578119,-0.117952,0.212555,0.149763,0.203808,0.193951,0.185802,0.189682,-0.443748,-0.473741,0.163142,0.157079,0.032781,0.023123,0.070401,0.129646,0.280611,0.203965,0.250053,-0.059812,-0.349284,-0.354549,-0.161654,0.252574,-0.228903,-0.384376,0.236248,-0.445309,-0.299613,-0.112215,0.259071,-0.071867,0.225568,0.214142,-0.014659,0.141584,-0.049257,-0.378237,-0.105758,-0.031765,0.112745,-0.019919,-0.251143,-0.288863,0.224214,0.157954,0.161939,-0.248675,0.258637,-0.756808,-0.229916,-0.092028,-0.124938,-0.382897,0.185999,-0.308926,0.228930,0.175958,0.110731,0.214873,-0.019064,-0.094704,-0.144047,0.079196,-0.092821,0.110261,-0.168749,0.179371,0.132167,0.238091,-0.009707,0.159145,-0.176156,0.182439,0.097341,0.000792,0.062487,0.240274,0.255973,-0.145755,-0.817547,-0.405034,-0.428557,-0.337394,0.099822,0.211438,0.124255,-0.165997,0.221013,-0.489862,-0.253811,0.113687,-0.389633,-0.547299,-0.221692,0.161000,-0.187703,-0.395057,-0.315308,0.039007,-0.489515,-0.678662,-1.042068,0.163839,-0.198808,0.199272,-0.463130,-0.041069,-0.125769,0.253096,-0.415017,-0.894785,0.175329,0.212872,-0.231088,-0.439196,-0.229464,-0.455157,-0.568835,0.153915,0.148297,0.075557,-0.091145,0.060305,-0.122322,0.053494,-0.338938,0.105805,-0.067518,0.152010,-0.261406,-0.355536,-0.254862,0.062298,-0.542406,-0.673323,-0.219308,0.192227,0.022411,-0.400158,0.319842,0.009301,0.216640,0.260490,0.185784,0.119353,-0.398631,-0.208806,0.271911,0.155180,0.172696,-0.642975,-0.144602,0.166488,-0.122513,-0.196180,-0.368076,0.180962,-0.296117,0.225219,0.121531,-0.042156,0.205635,0.062660,-0.089854,0.045636,0.096652,0.044313,-0.090867,-0.404614,-0.128114,0.098641,0.158056,0.067374,-0.009079,-0.329603,0.271444,0.179808,0.210336,-0.191357,0.102876,0.128652,-0.300996,0.004423,0.139798,0.094682,-0.556819,0.108576,0.258615,0.131045,0.288499,0.134604,0.007280,0.161307,-0.364655,-0.687741,0.034491,0.096214,0.195969,-0.414573,0.233984,-0.516190,-0.241285,-0.028721,0.193181,0.093988,-0.682010,-0.002232,0.225744,-0.357880,0.087954,0.210894,0.252896,0.153953,-0.008902,0.149012,0.038246,0.017193,-0.053762,0.282497,0.165281,0.197131,0.091133,-0.707637,-0.227818,0.027860,0.134627,-0.328760,0.175105,0.127762,0.153621,-0.161955,0.177960,0.141604,-0.273768,-0.611700,0.086776,-0.412205,-0.262807,0.232770,-0.346365,0.098402,-0.010914,-0.345055,0.042887,0.131246,-0.075222,-0.378500,-0.905919,-0.011022,-0.197715,-0.010947,0.234544,0.179519,-0.042519,-0.477120,0.108470,-0.326857,0.198717,-0.259689,0.089236,-0.250368,0.171067,0.059229,0.109601,-0.294008,-0.421777,0.124013,-0.410872,0.132819,0.102361,0.120972,-0.420762,0.126149,0.122436,0.206933,-0.374178,-0.188851,0.163683,-0.005703,-0.492220,0.151933,-0.030170,-0.455902,0.187217,0.032041,-0.042784,-0.435966,0.125530,0.011636,-0.235097,-0.325954,0.044166,0.212438,-0.497564,0.032078,-0.045774,0.133874,0.178816,-0.131220,0.152554,-0.782493,0.135562,0.197334,-0.116504,-0.064481,-0.200743,-0.395053,0.072937,0.121414,-0.144889,-0.496441,0.252646,0.151704,0.128703,0.084045,-0.168164,0.144143,0.210238,-0.465714,-0.340606,0.044538,-0.338140,-0.232622,-0.443265,0.215282,-0.162336,-0.381644,-0.455718,-0.003710,0.025181,-0.529904,-0.268054,0.205958,0.195233,0.056803,-0.034019,0.248839,-0.504936,0.214953,-0.409587,0.078615,-0.199207,0.080793,0.212852,0.168250,0.284879,0.001983,-0.377485,0.165619,-0.044140,0.104082,0.100841,-0.129764,0.166070,0.026322,0.217799,0.108681,0.135216,0.066720,-0.142368,-0.198620,-0.064738,0.271930,0.093796,0.214190,0.130307,-0.131131,0.230389,0.188627,0.042560,0.181584,0.094882,0.074962,0.086054,-0.006644,0.107782,0.176316,0.247204,0.155390,0.068936,-0.378152,0.192353,0.063658,-0.348384,0.223500,0.217219,0.081653,0.090328,0.124738,0.000671,0.198552,0.292161,0.135270,-0.055480,0.125378,-0.475847,-0.046586,-0.322036,0.190292,0.223403,-0.206757,-0.076826,0.159663,0.228033,0.063385,-0.427437,-0.435055,0.025497,0.092946,-0.533476,0.079607,0.210766,0.144682,0.202514,-0.571519,0.192489,-0.274524,0.182389,-0.782598,0.051603,-0.247881,0.019348,0.037467,0.081286,-0.301399,0.185306,0.008362,0.125483,0.102658,-0.484501,-0.049603,-0.230338,0.167725,-0.111829,0.224492,-0.757309,0.057005,-0.556534,0.237671,-0.343513,0.202308,-0.049611,-0.496737,0.257168,0.100039,-0.387841,-0.235144,-0.011502,-0.615232,0.219333,-0.060265,-0.261085,-0.174651,0.046612,0.192810,-0.445198,-0.233913,0.035072,0.011573,-0.382274,-0.334200,0.072336,0.017586,0.203558,0.245448,0.105765,0.247014,0.189987,0.163064,-0.425779,-0.072239,-0.456922,-0.454114,-0.087233,0.161623,0.140133,-0.119245,-0.739468,-0.017573,0.124597,-0.422170,0.116998,-0.079135,0.202774,0.084043,0.108453,0.106536,-0.495189,-0.260455,-0.077035,0.019742,-0.427229,0.213138,0.157273,0.216514,0.230253,-0.323606,0.156495,0.198249,0.061242,0.090642,0.127998,-0.352910,0.129507,-0.659003,0.270735,-0.089966,0.219464,-0.167521,0.272027,-0.395350,0.238023,-0.193562,