0.014273,0.154981,-0.142091,0.228581,0.151749,0.261288,0.080421,-0.016165,0.226800,-0.046660,0.114590,0.168562,-0.384819,-0.082623,-0.413345,0.193561,0.045187,0.072841,0.296916,0.164692,0.203207,0.264313,-0.646040,0.207099,-0.427184,0.137065,-0.179601,-0.304246,0.180619,-0.492215,-0.302466,0.032161,-0.085030,0.032111,0.171491,0.309320,-0.187554,0.025793,-0.094495,0.152776,-0.500338,-0.037429,-0.545222,0.245537,-0.045093,0.247795,-0.587850,-0.279018,-0.059288,-0.477547,-0.318267,-0.249755,-0.014896,0.195150,-0.393621,-0.199169,0.257842,0.249866,0.110609,-0.302724,0.118776,-0.325067,-0.125179,-0.186899,-0.367372,-0.154059,-0.579163,0.082887,-1.010736,-0.157557,0.110675,-0.042385,-0.944280,-0.147364,0.138565,0.097090,0.142594,0.148510,0.191396,-0.112649,-0.575787,0.109462,-0.100830,-0.024207,-0.476983,-0.408825,0.136749,-0.281023,0.029430,-0.056850,-0.325332,0.195171,0.218890,0.235536,0.172431,-0.239305,0.232342,0.133204,-0.080644,-0.134176,-0.180433,0.014790,-0.369070,0.137249,0.186171,0.042772,0.130978,0.125334,-0.587281,-0.390224,0.216757,0.204561,-0.407994,-0.305321,-0.045824,0.224338,-0.031437,0.193406,0.377782,-0.341950,0.267132,-0.149265,-0.312204,0.132215,-0.016892,0.137076,0.267781,-0.315007,0.464055,-0.319886,0.266749,-0.100271,-1.164365,0.360187,0.149278,-0.343267,-1.129923,0.212390,0.262090,0.115319,-1.025948,-1.061382,0.146270,-0.638252,-0.679966,-0.087772,-0.218950,0.443497,0.315864,-0.790826,0.318302,0.592846,0.090705,0.144683,0.293885,-0.420103,-1.041021,0.328914,0.217588,0.035090,-0.168045,0.137657,0.196220,-0.211248,-0.201122,-0.853256,-0.919925,0.054186,0.232801,0.042787,-0.402490,-1.095844,0.173241,0.296890,0.518392,0.123628,0.274360,0.094201,-0.381816,0.073555,-0.083430,0.335398,-0.448156,-0.406538,0.072003,-0.678516,-1.124682,-0.284043,-0.197365,-0.439771,0.513576,0.185765,0.280762,-0.393409,0.254817,-0.598671,-0.332314,0.022234,-0.400716,-0.904529,-0.936708,0.532872,-0.002295,-0.239822,0.277598,0.186565,0.229944,-0.627232,-1.026806,0.217140,0.149714,0.338275,0.471561,-0.986695,-0.438208,-1.264358,0.503217,0.038558,-0.300062,-0.764146,-0.479645,0.270514,-0.034037,0.323351,-1.006668,-0.174202,0.213722,0.157922,-0.020088,-0.192048,-0.371362,-0.535966,-0.053061,-0.555669,-0.814406,-0.678743,-0.982586,0.261816,0.285697,0.283130,-0.860682,-0.373262,0.560297,-0.823497,-0.593768,0.257655,-0.589940,-0.758857,-1.275180,-0.882438,0.232137,0.152710,0.230576,-0.289126,-0.686999,-0.774542,0.031482,0.115701,0.048964,0.183718,-0.001971,-0.546493,0.093259,0.096483,0.248506,0.177817,-0.578240,0.167335,0.089257,-0.093397,0.121925,0.155887,-0.374490,-0.570446,-0.142761,-0.143763,0.106152,-0.230284,-0.317021,0.113027,0.000967,0.076164,0.225503,0.166169,-0.343103,0.057382,0.414131,0.060314,0.002502,-0.490031,-0.269805,0.418047,-0.302065,0.020955,-0.292131,0.313131,-0.479418,0.126410,-0.187159,0.211928,0.065414,-0.436609,-0.131313,-0.032773,-0.175650,-0.152493,0.157297,0.064085,-0.705062,-0.561201,-0.247856,0.214948,-0.217054,-0.334018,0.106103,-0.181832,0.142718,-0.485141,0.288813,0.120163,-0.648813,0.262741,-0.021662,0.057950,0.001252,-0.439467,-0.546253,-0.115703,-0.248152,-0.255628,0.148893,0.185581,-0.131212,0.101786,0.179563,-0.018845,0.156371,-0.229708,-0.443127,-0.168224,-0.099238,-0.040821,-0.461967,0.146212,0.158036,0.134996,0.101208,0.157097,0.106546,-0.244851,0.117157,0.257180,0.243158,-0.034799,-0.542580,0.146912,-0.001181,0.220137,-0.769533,0.158425,0.160102,0.193203,-0.637363,-0.097505,0.162152,0.161038,0.162255,-0.017953,-0.357000,-0.314920,-0.362637,0.200701,-0.360564,-0.209981,-0.279906,-0.230973,-0.199689,0.132484,-0.151028,-0.374658,-0.074008,0.162476,0.054518,0.186532,0.206775,-0.203486,0.299103,0.256170,-0.024324,0.282776,0.151462,0.088741,-0.393366,-0.413954,0.176848,-0.627125,0.240626,-0.216014,0.126164,0.160401,0.123903,-0.054151,-0.403220,0.157844,-0.171657,-0.592362,0.175350,-0.024283,0.273761,-0.164286,0.242644,0.181249,0.164526,-0.242579,0.171722,-0.041190,-0.654403,0.276388,0.210899,-0.462504,-0.296060,0.032763,-0.475378,-0.206099,0.170520,0.068178,0.163838,0.204001,0.106621,0.372179,0.327173,-0.612297,0.247699,-0.000027,-0.490428,-0.829636,-0.711376,0.270843,-0.604290,0.201688,0.304932,0.263004,0.071299,-0.051317,0.107247,-0.144152,-0.740020,-0.646003,0.208625,0.034265,-0.327727,-1.106593,-0.363076,0.343933,-0.220744,-0.909237,-0.068505,-0.032921,0.087009,-0.921907,0.242064,0.167058,-0.479895,0.034002,0.198538,0.132320,-0.036660,-0.001686,-0.194014,0.161409,0.152405,-0.758981,-0.479000,0.236003,0.300893,0.164431,-0.038650,0.253941,0.069516,-0.430448,0.180500,-0.423310,0.257230,-0.844759,-1.103992,-0.001340,0.134629,-0.534891,-0.084716,0.120652,-0.358104,-0.223347,0.224663,-0.604316,0.247539,-0.295184,-0.057628,0.175264,0.096781,-0.426451,-0.658423,-0.053063,-0.190646,0.051803,0.215163,-0.207236,-0.020334,0.139956,-0.004255,0.115528,-0.482892,0.038442,-0.725188,-0.632258,0.249108,-0.112923,0.132582,-0.055937,-0.324037,-0.730957,0.061603,0.185565,-0.307348,0.146507,0.248806,0.122000,0.142695,0.154873,0.175159,-0.732785,-0.298084,0.265255,-0.367552,0.241777,0.180779,-0.351517,0.196406,-0.638320,-0.332518,0.171980,-0.577686,0.156670,-0.159760,-0.276622,-0.522550,0.311421,0.184431,0.179109,-0.141838,0.235653,0.051568,-0.335537,0.185692,0.000481,0.146887,0.022196,0.121828,-0.322662,0.066976,-0.361691,0.213990,-0.066212,0.179007,0.049029,-0.737694,-0.475309,-0.249426,0.226431,-0.515394,-0.035029,0.098779,-0.488340,-0.132596,0.005275,0.338528,0.117344,0.041594,0.318949,0.171494,0.040259,-0.009922,-0.144979,0.164558,-0.089521,-0.131902,0.304334,-0.481873,0.197593,0.191007,-0.584799,-0.532972,-0.399314,0.101349,0.093904,-0.575671,0.134295,-0.313368,0.166602,0.216946,0.192255,-0.446994,-0.681726,-0.368897,-0.274381,0.284704,-0.439678,-0.444009,0.249059,0.056168,0.222727,-0.016154,0.150144,-0.310575,0.220745,-0.546193,0.195809,0.174504,-0.041791,-0.626482,0.245020,0.069081,0.159243,0.199851,-0.670503,0.105200,0.175118,-0.116601,0.041672,-0.849100,0.208447,-0.534535,-0.310736,-0.149984,0.215072,0.055634,-0.540911,-0.087554,-0.331012,0.026092,0.187826,0.042480,0.182185,-0.433183,0.313145,-0.362295,0.201433,-0.674318,0.256131,0.108076,-0.099142,0.188544,-1.197065,0.561961,-0.348300,-0.967920,-1.048894,-0.004065,0.466738,-1.055806,0.054185,0.330598,-0.637738,0.370511,-0.290812,0.103818,0.243267,-0.898548,-1.401797,-0.335217,0.274886,0.352734,0.246063,0.234051,-0.284977,-1.196788,0.191246,0.452177,-0.262686,-0.017865,-0.510306,-0.425904,0.464058,0.196398,-0.025797,-0.896961,-1.057047,-1.238791,-0.536008,-0.675940,0.292201,0.089158,0.144961,0.201829,-0.803794,0.406092,0.498526,-0.532544,0.454996,-1.483304,0.260207,-1.782371,0.342856,0.372935,-0.824224,0.367966,-0.028708,-0.395944,-0.008278,0.284241,-0.830556,0.245947,0.187048,0.196032,0.296189,-0.654872,-1.135502,-1.373226,-0.044672,0.161447,-0.270348,0.530575,-1.364790,0.253469,0.179073,-0.437386,-0.794345,-0.336856,-0.654909,-0.141318,-0.461914,0.417289,0.182617,-0.604584,-0.306047,-1.087992,0.535276,-0.423071,-0.890016,0.207696,0.261527,0.243329,-0.293834,0.227567,-0.829801,-0.263616,-0.496448,0.353604,-1.040360,-0.124605,-0.801927,-0.684486,-0.015848,0.341101,-0.894965,-0.091551,-0.084503,0.204668,-1.237005,0.280131,0.391873,-0.693284,-0.353537,-0.626374,0.324169,0.201700,-0.374745,0.383461,-0.706771,-0.311666,0.149981,-0.387377,-0.326306,0.179579,0.052440,-0.516090,0.080328,0.215125,0.175089,0.107749,0.144063,0.172053,0.095682,0.119604,0.173918,-0.094230,0.148130,0.282068,-0.314983,-0.132975,0.235496,-0.281724,-0.372324,-0.429369,0.127284,-0.278019,0.157579,0.189175,-0.425447,-0.349725,-0.484394,-0.542760,-0.339762,0.139533,-0.024430,-0.559043,0.208615,0.148407,-0.185110,0.202515,-0.646139,0.108028,0.225966,-0.387395,-0.067245,-0.329981,0.261126,0.170670,-0.804733,0.157628,0.065259,-0.151708,0.244959,0.281820,-0.381394,0.111336,0.246401,0.103133,-0.748865,0.098957,0.273629,-0.265436,0.134211,0.174169,-0.092252,0.110545,-0.335754,-0.237771,-0.445904,-0.069589,-0.178229,-0.542537,-0.585624,0.097841,0.168350,0.084878,0.123858,0.019595,-0.531486,0.118436,0.150550,-0.635718,0.157383,0.148072,-0.158629,0.104741,-0.006508,-0.035414,0.010982,0.241683,0.180002,-0.273579,0.210287,0.119200,-0.247350,0.229214,-0.307631,-0.413357,0.128716,-0.350459,0.211060,-0.362952,0.019897,-0.284071,-0.163264,-0.225042,-0.103165,-0.119537,0.146172,-0.251651,0.234716,-0.445537,0.189383,-0.401615,-0.241096,-0.103133,0.177639,0.217092,-0.033792,0.268579,-0.401834,-0.699078,0.114135,-0.593975,0.112770,0.261375,0.167599,0.271705,-0.116342,-1.249765,-0.243825,-0.219649,-0.896805,0.254870,0.257811,-1.425577,-1.881241,0.230534,-0.002810,-0.931334,-0.690510,-0.036960,-2.414675,0.283619,-0.337494,0.125156,-1.633093,-0.995226,-0.126648,0.326182,-0.574645,-0.728025,-0.987156,0.234311,-0.276070,0.252957,-0.865483,-0.673854,0.234359,0.208472,0.137141,0.087841,-0.066471,0.084152,-0.464152,0.112386,-0.268014,0.246175,-1.158328,-1.217178,-1.582829,0.225857,0.299452,-0.221582,0.210351,-0.693153,0.326895,0.136860,-0.645257,0.203803,-0.668847,0.382257,0.138762,0.102915,-0.820218,-0.374868,0.235539,-1.260576,-0.951890,-0.395321,-1.081320,-0.337481,-1.616303,0.092294,0.249220,0.288378,0.209720,0.253948,0.183746,0.206035,0.253542,-0.363525,-0.409663,-0.203467,-1.109311,0.143048,0.155276,-0.787810,-0.245117,0.270594,-1.379032,0.274785,0.098201,-1.586932,0.258955,0.336969,0.311435,-0.343193,0.104118,0.308520,-0.651060,0.202031,-0.879629,-1.812393,-0.064322,0.305401,-0.925305,0.230828,-2.191992,0.270626,0.134738,-2.000703,-0.077650,0.230411,0.264484,0.262519,-0.859747,-1.014360,-0.588717,0.331382,-1.046185,0.314334,-0.347067,0.208665,-0.375229,-0.382101,-0.036112,0.190826,0.607809,0.303986,0.221007,0.292836,-0.019902,-0.653328,-1.655359,0.233985,-0.432472,0.064257,-0.394923,0.241741,-0.492611,-0.068445,-0.436960,-0.006147,-0.060843,-0.217471,-0.639013,-0.581248,0.193264,-0.453588,-0.310847,-0.936874,-0.092545,0.335185,0.160176,-0.528322,0.216661,0.016773,-0.472510,0.317533,0.200467,-0.208211,-0.067544,-0.080433,0.147532,-0.104386,-0.062220,-0.135272,-0.153141,-0.354899,0.013411,0.495612,-1.151540,0.309996,0.423587,0.152505,0.040905,0.012629,0.213837,-0.646132,0.124844,0.269619,0.382331,-0.642854,-0.261626,-0.589931,-0.230717,0.144967,0.279774,0.313976,-0.753403,0.296031,-0.282983,0.114163,0.128656,0.074118,0.056529,-0.147287,0.152522,-0.299495,0.512622,0.243161,0.142066,0.206537,0.475499,0.158593,-0.896166,0.087606,0.321587,0.186006,-0.344025,-0.507730,-0.415444,-0.519072,0.075154,-0.270706,-0.337069,0.065081,0.221487,0.293822,0.374370,-0.000486,-0.459464,0.224268,-0.127762,-0.173732,-0.059181,0.270905,-0.400288,-0.432502,-0.435776,-0.516533,0.282591,0.379783,0.140887,0.071078,0.032394,0.173373,-0.805901,-0.168136,0.442801,0.252874,0.277927,-0.398558,-0.312321,-0.541329,0.092318,0.089018,0.120845,0.445391,0.433188,0.081062,-0.414163,0.091207,0.412373,0.205613,-0.492133,-0.006013,-0.155213,-1.216812,-0.510662,-0.715566,-0.060524,-0.266692,-0.441721,-0.285717,-0.664067,-0.687269,-0.032647,0.185109,-0.055388,-0.057866,-1.383811,-0.409503,-0.710947,-0.345435,-0.780952,-0.695541,-0.377209,0.279601,0.428134,-0.018044,-0.414881,0.304461,-0.186725,-0.344874,0.090475,-0.526940,-0.697858,0.123261,-1.134039,0.277583,0.315124,0.128098,-0.100798,0.229005,-0.405601,-0.978774,-0.852549,-0.077338,0.207135,-0.865787,-0.924341,-0.506467,-0.292979,-0.780093,-1.116987,-0.620847,-0.693884,0.205300,0.266342,-0.090585,0.302519,-0.930863,-1.045244,0.207532,-0.171131,-0.049408,-0.633200,-0.708310,-0.710861,-1.426814,0.242572,-0.891647,0.440239,-0.862676,0.126406,0.331604,-0.162842,0.180478,0.281571,0.010384,0.108574,-0.430170,0.176879,0.221885,-1.171780,0.060014,0.046889,-0.353397,-0.708578,-0.652716,0.233335,-0.435781,-0.319237,0.247144,-1.130532,0.305204,0.240866,0.268033,0.237815,-0.412067,0.196732,0.162678,-1.443211,-0.508272,-0.938733,0.134465,0.306466,0.030897,0.189474,-0.360576,0.223064,0.235078,-1.084427,0.248738,0.297977,-0.433743,-0.288424,0.345062,-0.342873,0.292835,0.112820,0.011860,-0.412590,0.194632,0.053266,-0.230608,0.377981,0.205498,0.044721,-0.425255,0.325201,-0.657941,0.198840,0.287285,-0.845622,0.287055,0.408330,0.191374,-0.061277,