-0.095548,-0.051627,-0.029638,-0.061503,0.031103,0.058205,0.128377,0.134566,-0.124890,-0.064325,-0.030893,-0.095598,-0.006116,0.119283,-0.188696,-0.044863,-0.066039,-0.080880,-0.069974,0.031592,-0.113716,0.079683,0.002515,-0.103797,-0.070626,-0.076681,-0.019509,-0.077879,0.066275,0.044196,-0.058276,-0.138480,-0.246125,0.021301,-0.020167,-0.223008,-0.092830,0.201357,0.117728,-0.199908,0.086911,0.132476,-0.069761,-0.036151,0.067804,-0.015139,0.006300,0.031064,-0.066083,-0.036184,0.133057,-0.028120,-0.105779,0.057947,-0.172584,0.014206,0.019223,0.028126,-0.048646,0.125414,0.064017,-0.060756,-0.019230,0.122585,-0.058475,-0.055936,0.158255,-0.155128,0.155287,-0.084288,-0.121673,0.031131,0.165430,0.064432,-0.145896,-0.121004,-0.034591,-0.057480,-0.174817,-0.195716,0.055596,0.022933,0.090781,-0.039574,-0.146621,-0.160618,0.032494,-0.085613,-0.113542,-0.214693,-0.204223,-0.119638,0.112753,-0.027322,0.189929,0.003842,-0.038295,0.123064,-0.046432,-0.074448,-0.227198,0.069024,0.152796,0.093559,0.026357,-0.176231,-0.118940,0.087166,-0.111073,-0.153761,-0.033261,-0.031418,-0.097885,0.121834,0.012486,0.219459,0.072672,0.013500,-0.054959,-0.104584,0.011975,0.049503,-0.025533,0.116273,-0.006483,-0.200582,0.079708,-0.068333,