-0.098906,-0.061913,0.160050,0.077873,0.055884,0.252523,0.060736,-0.167448,-0.037145,-0.185640,0.062444,0.081925,-0.503489,0.015430,0.026336,-0.093384,0.065734,-0.100976,0.077948,-0.016311,-0.342117,-0.271553,-0.168470,-0.141886,-0.075008,0.119023,-0.339595,0.450969,0.167107,0.227357,-0.321746,0.245973,0.221370,-0.111064,-0.132948,-0.113204,-0.472058,-0.208316,0.510918,0.158100,0.006032,-0.024243,-0.113005,0.426436,-0.580095,-0.100438,0.503517,0.235154,-0.097883,-0.012530,-0.308041,0.537404,-0.371856,0.337276,0.399589,0.051037,-0.027909,-0.049962,0.339465,-0.100606,-0.617651,-0.024804,0.079506,-0.130005,-0.362323,0.262776,-0.170383,0.434856,-0.101815,0.150099,-0.157455,-0.082584,-0.010327,0.167900,-0.293348,-0.152954,0.062222,0.074347,0.085019,-0.475196,-0.552025,-0.171670,-0.269528,0.404884,-0.324145,-0.040966,0.077689,0.292594,0.041678,-0.245256,0.206094,0.369322,0.030714,-0.342581,-0.305801,0.068773,-0.209054,-0.396889,0.280033,0.181624,-0.184589,-0.150748,0.004543,0.456330,-0.075548,-0.960454,0.207788,0.167709,0.127810,0.296356,-0.093736,-0.246581,-0.578270,-0.438831,0.003559,-0.381738,-0.074524,-0.423330,0.151578,-0.101753,-0.310111,-0.362333,-0.222934,-0.018532,-0.588093,0.995342,0.687464,0.160983,-0.040831,-0.145933,-0.160999,-0.542944,0.188757,-0.294462,-0.599716,-0.106838,0.045224,0.621973,0.286861,0.191936,-0.209200,0.321093,-0.304433,-0.045772,0.137992,-0.108156,-0.602051,0.568516,0.426055,-0.099370,-0.075871,0.228206,-0.114726,0.012506,0.464475,0.231356,0.126425,0.268934,0.001875,-0.035233,-0.219340,0.135182,-0.283385,-0.179435,-0.016547,0.014926,-0.057448,-0.099382,-0.045952,0.041697,0.000971,0.181452,0.253718,0.250363,-0.130573,0.095000,-0.054714,0.249202,-0.235152,-0.031408,0.148422,0.109691,0.147609,0.154252,0.040316,-0.468726,-0.165762,-0.952811,-0.069376,0.544759,0.235922,0.124396,-0.064185,0.234603,0.211169,0.174965,-0.525317,0.207256,0.104687,-0.117650,-0.151059,0.126365,-0.191389,-0.189325,-0.199099,-0.596687,0.051161,-0.355242,-0.263952,-0.095296,-0.063075,0.046963,0.037690,0.766558,0.322217,0.025837,0.164203,0.251304,-0.058114,-0.586707,0.049554,0.130226,0.489884,0.118735,0.119531,0.241279,-0.462931,-0.035714,-0.283266,0.164843,-0.037734,-0.326687,0.049899,0.071816,-0.109205,-0.015269,-0.124968,-0.162191,0.118111,0.332467,-0.009971,-0.027017,0.265836,0.078195,0.141255,-0.215524,-0.437367,0.134525,0.569674,-0.619383,-0.302476,0.187719,0.255388,-0.260269,0.203914,0.000287,-0.013675,0.035250,-0.252034,-0.102629,0.021108,-0.107267,-0.619421,-0.195728,-0.217327,-0.692229,0.223823,-0.164571,0.511267,0.241222,-0.094803,-0.341701,-0.455230,-0.707252,-0.453552,0.307698,-0.270983,0.092048,0.329854,0.160865,-0.372917,-0.486321,0.101470,-0.177094,-0.244251,-0.271270,-0.095529,0.020755,0.258043,0.210475,0.442524,-0.338437,0.027223,-0.037089,-0.030264,0.053082,-0.069755,-0.110037,0.178892,-0.395479,0.062721,-0.216911,-0.145942,0.435834,0.047671,0.120466,0.116847,-0.418459,0.267803,-0.179188,0.185532,0.694394,0.027897,-0.375525,-0.040396,0.050448,0.726994,0.129615,0.543137,0.161152,-0.025045,-0.175688,0.022661,0.189039,-0.322861,-0.275336,-0.159127,0.020655,-0.229535,-0.052064,0.035791,-0.302305,-0.104580,0.174891,0.215596,-0.865815,-0.312375,0.200567,0.187212,-0.628182,-0.325519,0.529697,0.134463,-0.363899,-0.148185,-0.022317,-0.157751,-0.159555,-0.196969,0.186878,0.269210,-1.026681,0.047688,0.274255,0.123838,-0.018451,-0.083465,0.288698,-0.190991,-0.128628,0.305903,0.112961,0.248513,0.218152,0.075444,-0.052543,0.288573,-0.056758,0.440781,-0.334475,-0.014586,-0.119615,0.070192,-0.029823,-0.223936,-0.209357,0.313063,-0.736799,-0.710691,0.486250,0.506674,-0.297123,0.090579,0.150107,0.078783,-0.681450,-0.320376,-0.333242,-0.560607,0.163995,-0.191214,-0.132859,0.032143,0.056489,-0.091293,-0.109515,0.255452,-0.069525,0.061075,-0.444812,-0.012579,-0.166954,-0.026890,-0.193210,0.327086,0.481343,-0.426586,-0.368207,0.101165,0.138708,-0.301316,-0.415541,-0.400020,0.505185,-0.060390,-0.868830,-0.037733,0.062290,-0.075877,0.009538,-0.168464,0.062336,0.112626,-0.978474,0.165470,0.049696,0.262904,0.145601,-0.282643,0.535395,-0.038483,-0.286367,0.376118,-0.278061,0.070869,0.224061,0.120529,-0.033209,0.148762,-0.022577,0.164652,-0.569947,-0.105768,0.567374,-0.121936,0.223519,0.001416,-0.098473,0.001074,0.249368,-0.160057,-0.466822,-0.119763,-0.119589,-0.286763,-0.021508,-0.281382,0.454452,0.324923,-0.243892,0.228890,0.133872,-0.069209,-0.108266,-0.398955,-0.445204,0.352237,-0.493830,-0.166013,0.081514,0.048257,-0.053726,-0.818347,-0.333871,0.276526,-0.418675,-0.149568,0.182060,0.217159,-0.353049,-0.656338,0.157484,-0.064744,-0.355733,0.106401,0.138223,-0.165634,-0.293914,-0.478958,0.089410,0.079870,-0.031167,0.747772,0.080225,-0.089968,0.076798,0.101455,-0.163966,-0.121597,-0.316154,0.590942,0.172681,-0.160854,-0.169883,0.116845,-0.625899,-0.356579,-0.249182,0.698592,0.179597,-0.004680,-0.007319,-0.008759,0.127145,0.058021,0.187843,-0.709220,-0.696751,-0.097950,-0.133342,-0.048804,-0.159948,0.000422,0.097979,-0.160173,-0.391753,0.531321,0.021276,-0.166463,0.161454,0.171126,-0.319832,-0.193260,0.233914,0.018408,-0.311763,-0.120383,0.237769,0.331028,0.534225,-0.297809,-0.548184,-0.098992,-0.319001,0.105617,-0.421151,-0.194203,0.060118,-0.642338,-0.384610,-0.385762,0.162026,0.305817,-0.006398,-0.136565,0.015310,-0.775899,0.202896,-0.075825,-0.008718,-0.162640,0.024229,0.171244,-0.113387,0.023535,0.169081,0.096666,-0.145878,-0.083099,-0.168242,0.239685,0.205207,0.173511,0.162653,-0.076290,-0.198082,0.891515,-0.644809,-0.265886,-0.097451,-0.025030,-0.155075,-0.223144,0.542368,-0.065045,1.263166,0.210413,-0.301849,0.076505,0.008172,-0.181325,-0.122165,0.535319,-0.009358,0.442122,-0.320387,-0.459570,0.100306,0.323571,-0.175714,0.275770,-0.028026,0.195149,-0.489660,-0.123799,0.262568,-0.403998,0.192336,-0.256564,-0.006947,0.082813,-0.067455,-0.039052,0.128868,0.089914,-0.116570,0.058656,0.310128,0.079862,-0.282854,-0.057788,-0.141703,0.059182,-0.009385,0.357585,0.285311,-0.329785,-0.181862,0.058916,0.041397,0.151063,-0.368345,-0.201429,0.074669,-0.160731,0.111468,1.013367,0.252322,-0.218947,0.072234,-0.111080,0.579416,-1.116490,-0.502661,-0.297029,0.304471,0.448299,-0.085818,0.174594,0.180282,0.114313,0.126628,0.376727,-0.083338,-0.043639,-0.012954,-0.225631,0.240226,0.466222,0.232324,0.256160,0.059387,0.035410,0.024135,-0.170875,0.227628,-0.088185,-0.028275,0.736091,-0.192027,-0.095211,0.385178,0.154566,-0.001842,0.068824,0.027344,-0.000827,0.012667,-0.081478,-0.180363,0.143438,0.019484,-0.032218,-0.547294,-0.560852,-0.356351,0.061277,-0.071362,-0.570226,-0.051951,0.436692,0.284359,-0.093748,-0.177061,-0.040882,-0.082436,-0.166781,-0.099876,-0.015922,0.436152,-0.286649,-0.156568,-0.385691,0.069786,-0.047191,0.062248,-0.324822,0.059671,-0.044937,-0.513709,0.261000,0.054225,0.118674,0.223761,0.326234,-0.103699,0.094763,-0.141300,-0.238029,0.100640,0.108540,-0.399233,0.448782,0.013201,-0.186585,0.161508,-0.190464,-0.451556,0.159359,-0.510949,0.091838,0.256057,-0.306872,-0.143273,-0.359963,0.192651,0.072874,-0.289612,0.025139,0.141943,-0.008129,0.719836,-0.263457,-0.002310,0.095763,0.290449,0.070545,0.140499,0.012694,0.357653,0.003491,-0.382957,0.479999,0.215172,0.102353,-0.091739,0.026141,0.101938,0.310152,-0.346980,-0.503204,0.113042,-0.386629,-0.325213,0.066907,0.174710,0.616037,-0.118153,-0.092586,0.378811,-0.176963,-0.359641,0.329566,0.207465,0.029567,0.282482,0.134036,0.230954,-0.179711,0.446771,-0.320058,-0.132783,-0.268590,-0.218609,0.158463,-0.500560,-0.017550,0.188828,0.008244,-0.158100,0.145666,0.421982,0.287640,0.101983,0.054752,-0.031727,0.470485,0.358624,0.093484,0.363602,-0.458745,0.442577,-0.051236,0.042565,0.631386,0.173271,-0.025143,-0.071621,-0.612889,-0.063384,0.249450,-0.065187,0.692159,0.012368,0.110292,-0.331012,0.099751,-0.011572,-0.144176,0.389929,0.003893,-0.023578,-0.322388,-0.142196,-0.037121,0.266018,-0.199187,0.062009,-0.174799,0.052603,-0.141807,0.362105,-0.196400,0.710815,0.597865,0.276492,0.290929,-0.092290,0.601761,-0.232236,0.075862,-0.410312,0.218336,0.275441,0.141371,0.220615,-0.323114,0.390665,-0.139268,-0.234873,-0.514546,0.155862,-0.123623,-0.416736,0.257996,-0.013057,0.006190,-0.177014,0.003584,-0.011029,-0.000794,0.239431,-0.139679,-0.066909,0.597932,-0.124294,-0.233340,-0.076579,-0.127107,0.000686,-0.374877,-0.107865,-0.293884,0.022968,0.156297,-0.128715,0.026401,0.398206,-0.053853,-0.397655,-0.176793,0.230086,-0.125377,0.024101,0.256060,0.121049,0.391068,-0.398252,-0.095094,0.594594,0.156946,-0.296739,0.034548,0.016845,1.054948,0.063234,-0.223056,0.759566,0.965830,-0.029578,0.209487,-1.743272,0.333263,-0.145992,0.130720,0.062520,0.203632,0.504511,0.345627,-0.209577,-0.600284,-0.231560,-0.199471,-0.094060,-0.316195,0.170412,-0.097523,-0.247459,0.220046,0.155927,-0.347013,-0.163778,-0.287301,0.160196,0.114306,-0.268584,-0.007116,0.032455,0.293161,-0.217883,0.052189,0.240015,-0.163304,-0.068440,0.128117,0.968874,0.378989,-0.013443,-0.153855,0.135859,0.132797,-0.101927,0.171800,0.219814,-0.066031,0.182024,-0.078284,0.137078,0.028056,-0.166010,0.109374,-0.023419,-0.294296,0.025538,0.496034,-0.276617,0.151223,-0.485539,0.596339,-0.062344,-0.154365,0.248529,-0.264914,-0.382548,0.885375,-0.125552,-0.019148,0.048650,0.104650,-0.567136,-0.162676,-0.048326,0.274961,0.149594,-0.254147,-0.163483,-0.035796,-0.056124,-0.442898,0.208468,0.309483,-0.332205,0.017830,0.115715,0.357206,-0.134380,-0.098953,-0.018700,0.182297,-0.060806,0.078597,0.121003,0.524111,0.026258,0.023389,-0.010907,-0.017121,0.143736,-0.044851,-0.282724,-0.063626,-0.062626,-0.137720,-0.040489,-0.015843,0.033034,0.030390,0.019024,0.134265,0.167604,-0.126105,-0.031628,-0.031171,0.046073,0.208980,-0.177788,-0.273544,-0.081088,-0.029971,0.271275,0.112545,-0.141524,0.094427,0.183275,-0.050695,-0.014758,0.195059,-0.087308,-0.462024,-0.345554,-0.093732,-0.039280,0.067181,-0.299163,0.043761,0.040005,-0.144755,-0.618837,0.608938,-0.001371,0.015786,-0.172956,0.085865,-0.003445,0.092164,-0.398080,0.059321,-0.156577,0.043876,0.118911,-0.540601,0.616599,-0.026693,0.220405,-0.235016,-0.082097,0.198853,0.156692,-0.239299,0.302504,0.265650,0.248899,-0.051901,-0.269694,0.348173,0.401768,-0.000714,0.095648,0.199206,0.091340,-0.215758,0.170473,0.139490,0.055106,0.703006,0.073466,-0.118923,-0.107983,0.561987,-0.067927,-0.057633,-0.254933,0.774694,-0.624962,-0.982472,-0.077967,0.521596,0.070559,-0.013309,-0.081690,0.075547,-0.568055,0.042287,0.223545,-0.216970,0.031779,0.100284,0.311735,0.368882,-0.063466,-0.064558,-0.112393,-0.160705,0.508657,0.862111,0.289352,-0.472214,0.353880,-0.351351,-0.248196,-0.245990,0.035328,0.644958,0.659415,-0.438679,0.168601,-0.026539,0.184580,-0.019527,0.634752,0.296756,0.323625,0.200964,-0.061322,-0.209875,0.198576,-0.126048,1.025882,0.124842,0.064912,-0.307494,0.065740,0.243969,0.082724,0.571681,-0.173058,0.367623,-0.472423,0.307300,0.089351,0.077471,-0.068626,0.257817,0.022342,0.741004,-0.173623,0.188400,0.200603,0.672231,-0.191934,0.218145,-0.043752,-0.098389,0.405561,-0.196835,-0.289516,-0.223603,0.258514,-0.030129,-0.062736,-0.170657,0.575558,-0.032535,-0.222324,-0.412634,-0.069514,-0.375826,0.243832,-0.364111,0.145142,-0.146925,0.322847,0.083599,-0.127081,-0.146485,0.114785,0.339701,0.120494,-0.051899,-0.104427,-0.449703,0.155959,0.007580,0.179909,0.663952,0.212894,0.018534,0.351879,0.173559,0.005539,0.094725,0.122535,0.543646,0.266242,0.197290,0.120061,-0.058131,0.078588,0.138332,-0.288655,0.100109,0.318081,-0.138970,-0.357037,0.072347,0.002971,-0.001245,-0.114416,0.021821,-0.426769,0.239864,-0.076837,0.733824,0.166478,-0.463113,0.032185,-0.059917,-0.060215,-0.445482,0.394223,0.742866,-0.327175,-0.025054,0.007359,-0.063306,0.283889,-0.920997,0.411054,0.267131,-0.672556,-0.419505,-0.145492,0.173240,-0.348902,0.215785,0.261583,0.258097,0.101238,-0.598687,0.505757,-0.015242,-0.321643,0.551606,-0.349307,0.192639,-0.075952,-0.263379,0.381779,0.108936,-0.350842,0.180442,0.061741,-0.144931,-0.252776,-0.381285,0.047264,0.292766,-0.166827,-0.032210,-0.033329,0.167150,-0.049821,0.028957,-0.040240,0.311002,-0.213998,-0.158324,0.043867,-0.200964,0.082544,0.317768,1.078357,-0.147365,0.046527,-0.308128,0.284440,0.307746,0.167613,0.067752,0.021870,-0.044923,0.016537,-0.197358,0.432832,-0.175247,-0.075332,0.434050,0.018945,0.051789,0.617503,-0.917694,0.207401,0.547331,-0.139350,-0.541875,0.266893,0.227035,0.086619,-0.197304,-0.090062,-0.005900,-0.095592,0.108748,0.086251,-0.151019,-0.849500,0.163088,0.142338,-0.431371,0.015579,0.154366,0.094578,-0.343976,-0.463160,0.002661,0.074711,0.090582,0.245497,-0.188815,-0.114265,0.101849,-0.072138,0.044395,0.126758,0.062660,-0.133565,0.015028,-0.325659,-0.262783,-0.148476,-0.350515,-0.172796,0.380339,0.016064,-0.323286,-0.120037,0.270921,-0.296454,0.036969,0.132654,0.228437,-0.154306,0.344923,0.373653,-0.052666,-0.131466,0.212765,0.097715,-0.239340,0.083953,-0.354771,-0.206340,0.127403,0.027667,-0.097537,0.146268,0.254978,-0.410400,-0.111011,0.265588,0.324992,-0.387037,0.550642,0.366445,0.175391,0.269831,0.069035,0.777875,0.113936,-0.336934,-0.090927,0.091218,0.246501,-0.110550,-0.119808,-0.214576,0.133675,-0.340390,-0.416490,0.143321,0.118216,-0.117416,-0.218584,0.587777,0.282414,-0.343856,-0.134767,0.049744,-0.136889,-0.007280,0.101961,-0.263418,-0.151678,-0.430262,-0.204248,0.185654,0.066364,-0.020848,-0.005377,0.453383,-0.042572,0.096754,-0.471586,0.207523,0.388432,-0.468274,0.604673,0.156231,-0.142076,-0.379043,0.768776,-0.002917,-0.019052,0.371856,0.218959,-0.188125,0.042417,-0.159544,-0.111901,0.242497,-0.307121,-0.432925,-0.102148,0.223771,-0.019718,-0.261444,0.277764,0.347014,0.063054,0.094836,0.143176,0.104515,0.152686,0.123705,-0.048862,0.383405,-0.043423,-0.026143,-0.159448,-0.018592,0.234779,-0.049154,-0.074551,0.101437,-0.172756,-0.079433,-0.179125,-0.226960,0.381799,0.170221,-0.067711,0.043023,-0.360996,-0.129817,-0.248704,0.128349,-0.008053,-0.153907,-0.171869,0.369412,-0.449226,-0.139613,0.429783,-0.038234,0.012707,-0.439057,-0.157685,0.375417,0.506181,-0.460840,0.017528,0.095688,-0.042640,0.160150,0.399561,0.096893,-0.372191,0.179050,-0.059824,-0.136703,-0.066769,-0.002323,-0.291309,0.124794,-0.244483,-0.092163,-0.193355,0.155557,-0.121480,-0.561846,0.449933,0.332107,0.063517,-0.026859,0.174041,0.457281,0.414024,-0.664589,0.186307,0.304987,0.068975,-0.374744,0.080777,0.193714,0.346896,-0.077597,-0.263783,-0.012408,-0.019212,-0.068152,-0.075764,0.066432,0.221025,-0.226643,0.308703,-0.055122,-0.182043,-0.058297,-0.107676,-0.133096,-0.141287,0.233131,-0.334712,0.120207,0.011871,0.175081,-0.029291,0.308578,-0.104402,0.235682,-1.160309,0.642757,0.175046,0.199963,-0.406938,-0.131574,-0.100882,0.151729,-0.078035,0.443330,-0.168983,-0.040249,-0.243633,0.052209,0.050960,-0.108728,-0.006627,0.008733,-0.394135,0.553462,0.403216,-0.157478,0.006622,-0.287621,0.318198,-0.361817,-0.092501,0.126749,0.495083,0.223719,0.160283,0.119664,0.114475,-0.102204,0.300158,-0.000377,0.515790,-0.205099,-0.416284,-0.100066,0.049519,-0.108898,0.385698,-0.274483,0.183915,-0.011256,-0.365039,-0.379478,-0.033864,0.024194,-0.201916,-0.300233,-0.059424,-0.205888,-0.297729,-0.165597,-0.241817,-0.038756,0.166677,-0.041453,-0.227576,0.084271,0.068330,-0.061166,-0.384467,-0.438642,-0.382410,0.321817,0.176911,0.127592,-0.563877,0.352818,0.166155,-0.107864,0.327934,0.204030,-0.069890,-0.031081,0.592303,-0.073200,-0.275171,-0.350119,0.160176,0.071741,0.142323,0.213162,-0.730164,0.181453,-0.239869,0.109816,0.164322,-0.199572,-0.032725,-0.406308,0.207344,0.548160,0.091060,-0.322122,-0.217686,-0.041517,0.356914,-0.440348,-0.319410,0.741480,0.146691,-0.010067,-0.096051,-0.096015,0.398280,0.159326,0.353780,0.259416,-0.099350,-0.138787,0.147269,-0.106557,-0.216591,0.094355,0.524229,-0.056331,0.415148,0.395513,0.360700,-0.005338,0.102265,-0.082381,0.186855,0.153755,0.885871,0.673737,-0.458235,0.108057,-0.240938,0.295141,0.018931,-0.189741,-0.151535,1.092095,0.384683,-0.472488,0.127339,-0.060480,-0.072799,0.631065,0.515078,0.917130,0.681823,-0.055056,0.132721,-0.039640,-0.014359,0.015601,-0.026350,0.168871,-0.781205,-0.243465,0.100638,-0.147383,-0.225628,0.092983,0.044256,0.475815,-0.245671,-0.081194,-0.024278,0.216171,-0.121681,-0.148326,0.015780,0.921575,0.557256,0.019769,-0.209409,-0.024555,-0.300010,-0.187213,0.037268,-0.236460,-0.195186,-0.048157,-0.120326,0.080606,-0.203828,-0.226401,-0.210392,0.557407,0.227753,-0.260353,-0.102334,-0.288120,0.049776,-0.078010,-0.180202,-0.015480,0.051122,-0.299114,-0.456931,0.015251,0.013068,-0.336848,0.518287,-0.201868,-0.595222,0.432829,0.173240,-0.097889,-0.036131,0.085810,0.048377,0.158679,-0.167539,-0.217346,0.688700,0.136243,-0.193046,-0.275011,-0.188920,-0.025196,-0.590707,-0.414711,-0.070227,0.017910,-0.177383,-0.417584,-0.165294,-0.340647,-0.380785,0.552136,-0.003289,0.386487,-0.278816,-0.425428,0.355626,-0.226323,-0.412712,0.289809,0.093578,-0.736914,-0.231930,0.295970,0.059211,0.035897,0.062943,0.145061,0.037130,0.149761,0.057062,0.107768,0.158870,-0.231468,-0.136433,0.334306,0.308931,-0.382342,-0.647238,0.631307,-0.013358,0.042261,-0.009648,0.039034,0.227648,-0.284519,-0.099735,-0.133290,0.381091,-0.187449,0.071628,-0.105587,-0.070518,-0.090796,-0.050535,1.198538,-0.035018,-0.107528,0.230309,0.050899,-0.056627,0.054129,-0.195489,0.021043,-0.187641,-0.590884,0.836560,0.018532,-0.164058,-0.139543,0.297307,0.004707,0.122385,-0.061404,0.149383,0.144571,0.031250,0.184274,0.749565,-0.224554,-0.170527,0.359342,0.014566,-0.175877,-0.175557,-0.106653,0.307697,0.579874,-0.159669,-0.191869,-0.019691,0.271654,0.169712,0.196560,-0.077037,0.016544,-0.186157,-0.225386,-0.297704,0.004027,0.166557,0.125208,0.004079,0.368959,-0.049714,0.395950,0.058170,-0.796680,0.327343,0.312125,-0.064164,0.012369,0.632124,-0.425920,-0.270379,-0.006430,-0.401272,0.113985,0.120480,-0.038270,-0.263535,0.092212,-0.164034,-0.257600,-0.219071,-0.167280,-0.488240,-0.754088,0.169115,0.100438,0.131669,0.260059,-0.080595,-0.116639,0.312903,-0.344671,0.112030,-0.012749,0.056133,0.099702,0.061964,0.169092,-0.025197,0.149893,0.259091,-0.243226,-0.428639,-0.039152,-0.003763,-0.196731,-0.275219,0.422361,0.187203,-0.146760,-0.091996,0.188343,0.292921,-0.703550,-0.405739,0.126890,0.106345,-0.208629,-0.293485,0.090545,-0.180165,-0.573429,-0.233717,0.691122,-0.015725,0.311925,0.042669,-0.430224,0.049727,-0.327515,0.004698,0.328644,0.173946,-0.040721,-0.038096,-0.666691,0.017982,0.099466,0.208176,0.135870,0.109364,0.324636,-0.225851,-0.120542,0.086518,-0.026479,-0.328028,-0.043803,0.313975,-0.430649,-0.229657,-0.118954,0.187891,-0.128987,0.206087,-0.059679,-0.090505,-0.391306,-0.183158,-0.046730,0.230057,-0.066910,0.072982,0.085987,0.093419,0.064538,-0.255650,0.032276,0.055487,-0.102534,-0.737390,0.110756,0.158225,0.082898,-0.096321,-0.005989,0.494196,0.429391,-0.562128,0.037753,-0.161181,0.164631,-0.294938,0.376848,0.087326,0.159937,0.024015,0.275834,-0.371757,0.461451,0.230510,0.141037,0.268826,0.242201,-0.033227,-0.185440,0.553906,-0.162018,-0.681349,0.009789,0.357797,-0.014664,-0.133025,0.354218,-0.209523,-0.012050,0.497354,-0.303963,-0.287687,0.090405,-0.338356,-0.285206,-0.158006,-0.232913,-0.025269,0.303126,-0.207582,-0.042765,0.167451,0.075124,-0.216825,-0.174634,-0.033315,0.535540,0.002885,0.436328,0.181940,0.149585,0.364232,0.044451,-0.255273,0.116055,-0.183030,-0.176493,0.156734,-0.183763,0.209204,-0.075504,-0.045919,0.035028,-0.018379,0.074178,-0.089490,-0.103775,0.094888,-0.069459,-0.077844,-0.004666,0.016978,-0.387545,-0.074767,-0.190066,-0.252042,-0.171668,0.192197,-0.242064,-0.285260,-0.282095,0.084567,0.013066,-0.318940,0.409631,-0.898021,0.161527,0.086640,0.055923,0.127372,-0.219976,0.086836,0.289520,0.155445,0.284463,0.237139,0.134197,0.387398,0.000879,0.391513,0.115897,0.260976,0.110451,0.252572,-0.013951,0.224331,0.229015,-0.077532,-0.379481,-0.101069,0.286944,0.106609,-0.174537,0.169600,-0.009971,-0.298274,0.231734,-0.165033,0.034880,-0.486553,-0.065413,0.204179,-0.019613,-0.248748,-0.319925,0.233328,0.150286,-0.365941,-0.138840,-0.088478,0.238297,0.041910,-0.285390,-0.264849,-0.108608,-0.478340,-0.113684,-0.017127,-0.119091,0.075127,-0.019627,-0.772078,-0.047360,-0.391459,0.131581,-0.022575,-0.430499,0.138209,-0.400732,0.914963,-0.277092,-0.380536,0.211311,0.833889,-0.153140,-0.288775,0.087081,0.328175,0.096101,-0.304417,-0.439953,1.135674,-0.234448,0.480051,-0.143807,-0.017676,-0.017610,-0.001310,-0.021850,0.309184,-0.570525,-0.090756,0.002951,-0.311777,0.292555,0.301535,0.434580,0.185686,0.270041,0.200688,-0.331377,-0.069933,0.322574,0.209803,-0.285448,-0.031216,0.179738,-0.066578,0.179940,-0.185263,0.133466,-0.234656,0.290252,-0.019972,0.318143,0.294268,-0.005399,0.063517,-0.096970,0.165572,-0.228308,-0.017520,0.244545,-0.066880,0.007819,-0.051107,-0.106972,-0.293203,-0.434217,-0.053087,0.055576,0.353875,-1.059446,0.476826,0.090416,-0.117162,-0.099798,-0.217516,-0.164889,-0.127318,0.314002,0.084008,0.434117,-0.252936,0.080702,0.070827,-0.050312,0.148005,0.013920,0.097194,-0.011433,0.089531,0.100536,0.284491,0.149295,-0.009959,-0.115635,0.226823,0.138424,0.131592,0.086878,0.510003,-0.102120,-0.023547,0.262680,0.027257,-0.004894,0.132228,-0.166662,0.451042,0.111003,-0.008128,0.267756,-0.192307,0.237374,0.167848,-0.013451,-0.047166,-0.232000,0.158734,-0.048906,0.154098,0.145659,-0.113101,-0.334123,-0.118350,-0.310865,0.297124,-0.250061,0.006016,-0.166606,-0.208524,-0.164703,0.045061,0.267654,-0.187800,-0.392252,0.066651,0.250926,0.592838,0.095296,0.102108,0.480836,0.080605,-0.211600,-0.043600,0.079641,-0.626005,-0.163520,0.422808,0.221524,-0.094912,-0.251458,-0.223989,-0.072603,-0.271741,-0.204959,0.930127,0.437128,0.189989,-0.133919,0.066037,0.143036,-0.041003,-0.028912,-0.036634,0.139092,-0.068310,-0.754431,0.086168,-0.028863,0.041589,0.004891,-0.099247,-0.125655,0.072543,-0.043600,-0.295081,-0.057170,-0.117218,-0.366088,0.117095,0.069407,0.079126,-0.021469,0.089000,0.296185,-0.000792,-0.231433,-0.196253,0.288168,0.479917,0.314481,0.293819,-0.209976,0.282167,-0.219834,0.101053,-0.195729,-0.631150,-0.332909,0.017180,-0.312384,-0.340641,0.053636,0.110151,0.483477,-0.304902,-0.560010,0.011741,-0.483352,0.042988,0.139750,0.442535,0.458751,0.214466,0.152300,-0.368810,0.565372,-0.091194,0.099806,0.642963,0.868158,-0.257260,-0.225322,0.010762,0.132117,0.045579,-0.173313,0.526236,0.300910,0.417559,0.065334,0.244810,-0.158901,0.290788,0.026080,-0.012755,0.154690,-0.093298,0.351059,0.236682,0.115382,-0.021466,0.088371,-0.028109,-0.200596,-0.254046,0.067853,0.373228,0.049183,-0.004066,-0.566303,-0.079764,-0.074001,-0.228136,-0.307541,0.575451,-0.259839,-0.355190,-0.061804,-0.072055,-0.019639,-0.398537,-0.378099,0.060493,0.173102,0.261132,-0.128162,0.684851,-0.170351,0.274572,-0.239126,-0.493392,0.147608,-0.344988,0.254797,1.113694,0.254976,-0.091676,-0.201525,0.072232,-0.172702,0.303979,0.350819,0.971577,0.385010,-0.152099,-0.190404,0.038093,-0.075347,-0.091146,0.626297,-0.536844,0.426356,0.077700,-0.175957,-0.390785,-0.276110,0.139666,0.251293,-0.348811,0.174929,0.083691,0.060814,0.025804,-0.193941,0.239827,0.113322,0.132222,0.045471,0.075073,0.213856,0.107339,-0.099003,-0.041667,-0.292310,-0.215398,0.230884,0.402029,0.466270,0.476733,-0.315240,0.108041,-0.369412,-0.117013,0.091113,0.023924,-0.519214,0.517014,-0.255221,-0.000569,-0.148558,0.548962,-0.238261,0.245374,0.150295,-0.214469,0.195557,-0.385547,-0.105325,0.685525,0.170511,-0.441743,-0.052420,-0.274037,-0.364388,-0.312940,0.210414,0.826892,0.413891,0.067123,-0.183088,0.268162,-0.517447,0.260658,0.370795,0.035416,0.415828,0.048745,-0.268559,-0.069525,-0.256875,0.058572,0.747844,-0.092557,0.510992,0.025983,-0.228432,0.077838,-0.104122,0.566918,0.756231,-0.094268,0.216648,-0.147080,-0.097398,0.229785,0.241405,0.203303,0.324570,-0.318568,0.532910,0.288262,0.668227,0.137171,-0.153553,0.216936,0.107861,-0.048611,-0.006110,0.456403,-0.558796,0.022448,0.265235,-0.206575,-0.113891,0.073202,-0.679031,0.138154,-0.074599,-0.315012,-0.072172,-0.172868,-0.092662,0.460554,0.120284,-0.010269,0.294259,-0.533873,-0.389168,0.135360,0.081357,1.020223,1.017270,-0.283018,0.050861,-0.159665,0.031868,-0.139858,0.115224,0.946621,0.138767,-0.096872,0.214140,-0.348379,-0.170370,0.108117,0.006106,0.921172,-0.233637,0.092908,0.169694,-0.094766,-0.076049,0.363731,0.070349,0.657776,-0.385083,0.490683,-0.086366,0.261421,-0.088909,0.202852,-0.112808,0.066769,-0.285989,0.449490,0.579365,0.363891,-0.350737,0.261406,-0.013836,0.071943,0.360591,-0.036215,0.238799,-0.190992,-0.200258,-0.151695,0.161633,0.138503,-0.138433,0.078409,-0.065206,0.071850,0.073963,0.330978,0.278581,-0.074504,0.007891,-0.191145,-0.073990,-0.159945,0.368566,0.245594,0.157078,0.146584,0.256080,-0.226801,0.188680,0.074650,-0.248772,-0.118908,-0.231673,0.067806,-0.228741,-0.350905,0.623906,-0.061236,-0.309147,-0.273241,-0.347246,0.235509,-0.604983,-0.248920,0.415149,-0.323529,0.125111,-0.557709,-0.436550,0.129042,0.004491,-0.397955,0.101892,0.187479,0.095313,-0.274371,0.032083,0.011146,-0.610830,-0.230733,0.001492,0.190111,0.241015,-0.506649,-0.104366,0.820806,0.628983,0.140503,0.236413,0.815576,0.006044,-0.162888,0.263342,-0.006558,-0.029413,0.463495,-0.083157,-0.099869,-0.013915,0.184138,0.180813,-0.305215,0.278406,-0.054214,0.082760,0.008161,0.026492,-0.125479,-0.301698,-0.440559,-0.020174,0.516220,-0.373284,0.172879,-0.033197,0.094496,-0.495858,-0.071892,0.109920,-0.076894,-0.211236,0.044804,0.104272,0.295752,-0.140769,0.333193,-0.007874,-0.462001,0.061191,-0.214086,0.418584,-0.205901,0.114151,0.050961,0.222604,0.419645,-0.065686,0.251897,0.211187,-0.033193,-1.072953,-0.116970,-0.081911,0.561716,0.526515,-0.921720,0.048143,0.257339,0.147511,0.178972,0.524633,-0.816122,-0.452066,0.171493,-0.197298,-0.188596,0.152047,0.550779,0.430549,0.206665,0.604176,-0.081853,-0.129582,0.233212,-0.049273,0.617508,-0.232156,0.211993,0.249819,-0.116717,-0.241253,-0.251035,-0.022406,0.059708,0.167327,-0.135228,0.609188,-0.428119,-0.141223,-0.185432,0.069103,-0.704526,-0.066660,0.014085,0.269633,0.035775,0.296755,-0.090144,-0.236191,-0.446695,-0.268803,-0.128296,-0.304334,-0.014503,-0.161153,-0.164570,0.172199,0.011939,0.106817,-0.113851,0.245332,-0.327448,-0.139757,0.161476,-0.134937,-0.002722,-0.440336,0.372794,-0.444181,-0.334947,-0.079288,-0.417545,0.258198,0.066312,0.049359,0.278707,-0.058125,-0.254440,0.165541,-0.292880,-0.046717,0.138513,0.135300,0.101834,-0.127677,-0.320281,-0.690153,-0.513302,0.181371,-0.073613,-0.289637,-0.169497,0.271217,-0.225020,-0.694186,-0.815181,-0.570733,-0.251885,-0.364261,-0.114056,-0.149761,-0.313359,0.063534,-0.193083,-0.109096,-0.129559,-0.243785,0.514041,-0.060283,-0.262698,0.205334,0.386592,-0.039315,-0.071562,0.333981,0.020574,0.064856,-0.139108,0.149094,0.323861,0.015322,0.043003,-0.164535,0.433922,-0.289434,-0.099124,0.357018,-0.005528,-0.310892,-0.264483,0.468452,-0.061249,-0.143948,-0.057401,0.137389,0.562684,0.002388,0.064423,0.287065,0.548231,-0.202697,0.135315,-0.514703,-0.648902,0.150617,0.128697,0.510533,0.244507,-0.051595,0.252053,-0.324795,-0.186016,-0.321560,0.196712,-0.116953,-0.134703,-0.598479,0.267635,-0.057404,-0.120869,-0.106567,0.316217,0.167322,0.116983,0.000156,0.177549,-0.130989,-0.095814,0.421233,0.128556,0.186564,0.076353,0.193516,0.091900,0.011484,-0.035850,0.304375,-0.355203,-0.211684,0.178622,-0.182570,0.358988,-0.208593,0.176419,-0.152711,-0.367661,0.311548,0.085237,-0.571395,0.263266,-0.004400,0.465369,-0.190273,-0.040339,-0.502620,-0.293517,0.022309,0.048069,-0.464262,-0.087100,0.476974,0.004008,-0.098825,0.526416,-0.327904,-0.233573,-0.201197,-0.892675,-0.009124,0.017325,-0.329033,0.197873,0.185239,0.058935,-0.030173,-0.425543,0.184987,-0.374638,-0.701181,0.093409,0.064414,0.122032,0.154219,0.000856,0.073003,-0.041062,-0.180311,0.462188,-0.145429,0.067618,0.558985,0.113067,-0.023308,0.209301,0.068251,0.146194,-0.237377,-0.459255,0.280237,0.188254,0.259795,-0.191296,0.132548,0.207258,0.014215,-0.081911,0.616165,0.187588,-0.588287,-0.321938,0.155582,0.092689,-0.117135,-0.316178,0.187877,-0.014262,-0.233686,-0.338483,0.066253,-0.750545,0.500623,0.151962,-0.129712,0.311403,0.051775,0.106768,-0.127138,0.218158,-0.495264,-0.001573,-0.533429,-0.385569,0.158661,0.109383,0.048106,0.053571,0.193299,0.141241,-0.241149,-0.305731,0.483757,-0.299157,-0.119362,-0.053160,0.171589,0.026314,-0.091347,-0.099850,0.070429,0.233597,0.005304,0.449885,-0.226472,-0.069507,0.152061,0.221965,-0.110600,0.221000,-0.006302,0.360765,-0.118873,-0.523197,0.277190,0.376113,0.149300,0.099155,-0.174336,0.328234,0.125380,-0.776868,0.718716,-0.035704,0.037472,0.018686,0.090471,0.012466,0.237256,-0.500152,0.471295,0.069679,-0.222440,-0.157685,0.315895,-0.723306,0.513409,-0.080097,-0.066493,0.670948,0.069255,-0.101248,0.441186,0.642631,-0.854574,-0.602138,0.059834,-0.615718,-0.022227,0.136408,-0.256749,-0.304192,0.050236,0.484942,-0.390671,-0.364446,-0.169674,0.049992,-0.243412,-0.103703,-0.133766,0.186826,0.200960,-0.162616,0.305411,-0.049582,0.281446,0.340289,-0.232808,0.021520,0.505028,0.185863,0.225355,-0.061276,0.201708,0.155069,-0.246839,-0.088682,0.199761,0.142049,-0.175865,-0.305061,0.045914,0.204705,-0.514579,0.407220,0.049120,0.116410,-0.215941,-0.296732,0.112164,0.147192,-0.407607,0.364497,-0.005718,0.165775,0.120999,-0.021303,-0.205094,-0.189398,-0.576839,0.301642,0.410317,-0.179276,-0.097372,0.151131,-0.108128,0.235660,-0.190662,0.014045,-0.049058,0.217740,0.100773,-0.081343,0.317549,0.137682,0.153217,-0.155729,-0.267273,-0.191312,0.273794,0.115944,0.117571,-0.174926,0.660033,0.744485,-0.172309,-0.390251,0.102994,-0.186595,-0.018346,0.075327,0.001743,0.215412,-0.036193,-0.310737,-0.382959,0.328804,-0.004339,-0.214770,-0.010214,0.117765,0.174459,-0.212721,-0.272579,0.094509,-0.046159,-0.077642,-0.388989,-0.095603,0.381405,0.351729,0.104885,0.196928,-0.099964,-0.279776,-0.191499,-0.296284,-0.349427,-0.034457,0.052682,0.023212,0.399300,-0.041342,0.372053,0.293015,-0.649900,-0.555341,0.054254,0.688935,-0.164217,-0.254672,0.162350,-0.267247,0.011213,0.230886,0.923273,-0.014624,0.080989,-0.150844,0.216637,0.196600,-0.012075,-0.030485,-0.170782,-0.630277,-0.551313,0.276566,-0.166711,0.260017,-0.090150,-0.190743,-0.018984,-0.050804,-0.543703,0.226809,0.234271,0.116308,0.162041,-0.398722,0.021950,0.347337,-0.499986,-0.312079,0.104281,0.145591,-0.244295,-0.460950,-0.159397,-0.091040,-0.219010,-0.311390,0.099015,0.057660,0.005193,-0.290048,-0.132511,-0.111545,0.540526,-0.337269,-0.040579,-0.112586,-0.225406,0.300593,-0.461942,0.100304,-0.194007,-0.711759,-0.902416,-0.387611,-0.196579,0.208700,-0.699557,0.206281,0.103227,0.215287,-1.723957,-0.015896,0.089200,-0.131561,0.138747,0.119189,-0.485891,-0.086186,-0.457182,0.255275,0.040978,-0.076021,0.147011,0.279050,-0.160140,-0.150106,-0.126723,0.945517,0.418095,0.071461,-0.180011,-0.081426,0.115303,-0.208740,-0.364759,-0.282703,0.110675,0.206672,0.281419,-0.218569,-0.009627,0.102011,-0.531996,-0.534079,-0.110633,0.211681,0.168242,-0.481366,0.197584,0.147282,-0.393414,-0.265239,-0.046729,0.021183,0.057005,0.708940,0.276853,0.138095,-0.260620,-0.688658,0.082118,0.132703,0.177945,0.018256,0.165205,-0.043881,-0.192508,-0.820105,0.697606,0.285553,-0.251514,0.098672,-0.066294,-0.162484,0.163378,0.454983,-0.029376,-0.108531,0.198544,0.130792,0.147383,-0.320302,-0.149905,-0.128183,0.275618,0.274648,0.405890,-0.188475,0.203319,0.287172,-0.232944,0.031781,-0.500238,0.144850,-0.010506,0.180717,0.016226,-0.190354,-0.178639,0.032750,0.381454,-0.044534,-0.560077,0.230318,-0.066286,-0.304421,0.388796,0.444649,0.075743,0.046437,-0.374632,0.117268,-0.094962,-0.313284,0.027501,0.201977,0.157788,0.018661,0.460091,-0.065953,-0.108152,-0.141941,0.137237,0.250301,-0.232559,-0.497376,0.095350,0.204785,-0.501449,-0.137550,-0.025877,0.259636,-0.155189,-0.392185,0.202103,0.112052,-0.012720,-0.335058,0.046642,0.002535,0.117719,-0.085803,0.339712,0.127495,-0.743746,0.168388,0.257472,0.067739,0.077346,0.212347,0.104673,-0.042105,-0.049609,-0.021655,0.268281,-0.312638,0.339496,0.287207,-0.269170,-0.080406,0.420553,0.066496,-0.079962,-0.423936,0.041703,0.238363,0.315558,-0.673945,0.287643,0.224344,-0.403644,0.119625,-0.003026,0.150699,0.076301,-0.105432,-0.022956,0.229896,0.059325,-0.264525,0.005183,-0.065656,0.126274,0.155037,0.199982,0.255349,0.333917,-0.134301,-0.153400,-0.271263,-0.079706,0.094462,-0.319655,0.081558,-0.050592,-0.248938,1.188823,-0.388402,-0.490425,0.205076,-0.115195,-0.502680,0.454462,0.231838,0.444518,0.558498,0.179904,-0.161403,0.146648,0.029775,-0.117196,-0.010271,0.035809,0.634538,0.455713,0.095045,0.636175,-0.029701,-0.502071,-0.018598,-0.045756,0.328769,-0.525228,-0.629042,0.308687,0.041494,-0.132629,0.048568,0.247305,-0.221543,-0.076059,0.345588,0.023769,-0.381871,0.248315,0.400563,0.057457,-0.439380,-0.585701,-0.128572,-0.490355,-0.470953,0.037411,0.316567,-0.062906,-0.143561,0.900882,0.272716,-0.001726,-0.398496,-0.045266,0.262003,-0.008498,0.182293,0.236004,-0.052850,-1.051380,-0.047889,-0.419365,-0.049616,0.595944,-0.534450,0.023287,0.235256,-0.000345,-0.377333,0.490023,-0.443536,0.505236,0.176112,0.270547,-0.221478,0.072835,0.128566,-0.312064,-0.336777,0.093837,0.378144,0.233326,0.117965,-0.083354,-0.056130,-0.021799,0.226274,0.322535,0.186225,-0.023576,-0.683596,-0.118746,0.028506,-0.096206,-0.056357,0.320623,-0.073535,0.355232,0.145673,-0.449327,-0.487460,0.268594,0.425689,0.096214,-0.114684,0.008800,0.181551,-0.158434,-0.210897,-0.235234,0.022346,0.102960,-0.122954,-0.254420,0.469911,0.235866,-0.077115,-0.068359,0.681006,-0.250640,0.093743,-0.178901,-0.120327,-0.258999,-0.054696,-0.523817,0.046538,0.222709,-0.355815,0.020935,0.137092,0.198066,-0.237467,0.278865,0.505474,-0.112764,-0.116323,0.299850,0.079597,0.298351,0.036227,-0.041983,-0.308235,0.126821,0.152229,0.418275,0.388058,0.508152,0.099158,-0.283218,-0.125953,0.035520,0.370218,-0.157146,-0.003672,-0.229464,0.231555,-0.216230,0.101333,-0.192501,0.166911,0.084807,-0.163690,-0.437009,-0.099587,-0.116143,0.053720,0.274437,0.017473,0.015804,-0.175185,-0.252307,-0.462953,0.139340,0.049806,0.244791,-0.033231,0.138695,0.225935,-0.078375,-0.307320,0.152114,-0.139109,-0.103605,0.025569,0.141239,0.021677,-0.133068,0.396969,-0.296063,-0.653149,0.759111,0.131803,0.319617,0.120762,0.059290,0.098291,-0.206520,0.864124,0.118366,0.106097,0.174123,0.052979,-0.020983,-0.114931,-0.405624,0.358952,0.089852,-0.372720,0.138556,-0.240967,-0.156778,-0.347734,-0.102064,0.080973,-0.548383,0.421344,0.392313,0.022349,0.040826,0.431960,-0.208147,-0.045001,0.189471,0.418935,0.372606,-0.069661,0.081834,-0.057909,0.130979,0.468727,0.044671,0.064905,-0.232985,-0.189055,-0.409330,-0.272323,-0.247428,-0.254540,0.151979,0.034706,-0.153487,0.144292,0.304789,-0.033580,-0.236513,-0.089378,0.078630,-0.126223,0.277607,0.294257,-0.145207,0.223128,-0.321486,-0.526745,0.333605,0.132760,0.268511,-0.474810,0.572606,0.127510,0.136713,0.000948,0.577745,0.229571,0.138890,-0.284719,-0.608924,-0.161321,-0.206530,-0.082490,-0.020238,-0.218228,0.277675,-0.292474,0.265641,-0.270529,0.038534,-0.177011,0.200020,-0.117873,-0.275222,-0.178891,0.495006,-0.060012,-0.348561,0.279165,-0.092324,0.190203,-0.495747,0.089415,0.124584,0.332334,-0.242601,0.488543,0.342237,-0.155736,0.105002,0.085049,-0.094625,-0.318915,0.380059,0.165321,0.046570,-0.103663,-0.136451,0.056319,0.053082,0.247723,-0.000625,-0.217568,0.073863,-0.005225,0.218046,0.264215,0.070035,-0.271183,-0.101896,0.261800,0.070106,-0.034586,0.087920,0.222683,0.212088,-0.860903,1.196194,0.270861,-0.801473,-0.042664,0.130595,0.138198,0.238688,-0.350381,-0.348005,-0.543553,-0.196120,-0.025808,0.165352,0.044542,0.063971,0.107607,-0.784193,-0.106808,0.037351,0.137888,-0.410848,-0.213088,-0.135051,-0.070143,-0.272810,-0.005781,0.114290,0.156471,-0.068336,-0.363885,-0.178486,-0.090064,0.297196,0.069805,-0.160243,-0.107843,0.152440,-0.484280,-0.237397,-0.027250,0.167475,0.122392,-0.249253,-0.136384,-0.227280,0.135278,-0.291281,-0.192412,0.228741,0.062167,-0.048531,0.220675,-0.140333,0.288568,-0.244441,-0.100725,-0.282459,0.472374,0.307180,-0.084094,0.089907,0.179213,-0.094480,0.229773,-0.324090,0.100034,0.415243,-0.362760,0.154520,0.077686,0.019296,0.432501,0.188814,-0.375906,-0.025711,-0.126605,0.353311,-0.029988,0.427987,0.124899,0.093359,0.001868,-0.340274,-0.476170,0.224978,-0.736271,-0.566038,-0.429815,0.361306,0.428807,-0.263312,0.015979,0.301662,0.367056,0.134334,0.098194,-0.179127,0.069730,0.030464,0.352317,-0.118319,0.116983,0.177006,0.148717,-0.109220,-0.196694,-0.168151,0.528260,0.862589,-0.141825,0.429791,0.198019,0.014706,-0.029354,-0.205093,-0.304843,-0.409645,0.074503,-0.001566,0.181317,0.087195,0.153079,-0.134181,0.168441,-0.076473,0.061535,0.145426,0.087406,0.216040,-0.567326,-0.529156,0.156455,0.123509,0.072554,-0.410252,0.780143,0.277551,0.009062,0.024465,0.037361,-0.157678,0.069138,-0.008419,0.054525,-0.112685,-0.305929,0.183196,-0.010758,-0.563475,-0.237230,0.120010,0.129631,0.011621,-0.222599,0.355413,0.101024,-0.398264,0.605281,-0.064524,0.248007,0.247831,-0.058183,-0.209879,0.013162,0.307683,0.270713,0.554936,-0.008632,0.607957,-0.173725,0.427248,-0.043590,-0.091492,-0.003225,0.426242,0.350630,-0.028471,0.710576,0.203767,0.096183,0.250285,0.258013,-0.100951,0.395820,-0.683005,0.090750,0.471938,0.168820,-0.075387,0.268753,0.137200,-0.582152,-0.375869,-0.477888,-0.083258,-0.120110,0.425699,0.147448,-0.066125,0.345304,-0.270504,-0.381173,0.278804,-0.295385,0.262169,-0.150713,-0.228505,0.257306,0.243322,0.222974,0.414460,-0.594820,0.226635,-0.492714,-0.209892,-0.091884,0.028927,0.286221,-0.077771,-0.058418,0.009743,0.591783,0.177634,0.066056,0.054825,-0.140081,-0.211039,0.163899,-0.347830,0.158496,0.449184,-0.184397,-0.164003,-0.036573,-0.189333,0.147854,0.477049,0.077523,-0.137427,0.283036,0.163355,0.110155,0.002342,0.034178,-0.096412,0.322798,-0.289171,-0.493388,-0.189858,0.001058,-0.666438,-0.214265,0.149969,0.237106,0.089235,-0.907331,-0.478862,0.037717,0.160541,0.380119,0.422850,-0.008208,-0.365533,-0.070663,-0.399046,-0.430301,0.588502,-0.090229,0.037377,-0.221825,-0.408714,0.092597,0.483747,-0.100143,0.231843,-0.661751,-0.227479,-0.598335,-0.249862,-0.009819,-0.095303,0.202860,0.103995,-0.094175,-0.012188,0.420337,0.004647,0.111695,-0.250820,-0.095120,0.008599,0.220937,0.016793,-0.308377,0.247373,0.120097,-0.606293,0.143974,-0.372490,0.213297,-0.264608,0.135581,0.132049,0.029735,-0.027636,-0.308146,0.006158,0.128702,0.094090,0.356672,-0.259747,-0.280219,0.550947,-0.164381,0.175808,-0.398389,0.295955,0.342386,0.271394,-0.628735,0.240986,-0.992703,-0.360706,0.278993,0.223143,0.176311,0.506837,0.379857,-0.079302,-0.384491,-0.091576,-0.094756,0.133777,-0.189830,-0.209901,0.295020,-0.229505,0.183502,0.420397,-0.262847,-0.189785,-0.199130,-0.289491,0.039519,-0.123555,0.195912,-0.138177,-0.003490,0.016248,-0.587653,0.293775,0.001193,0.126538,-0.262070,0.089287,0.085683,-0.019581,-0.633286,0.061234,0.155735,-0.170484,-0.259651,-0.112566,-0.044243,-0.034158,-0.322141,-0.152855,0.077940,0.030921,0.021537,0.037305,-0.070510,-0.240598,0.299116,-0.003478,-0.219212,-0.162985,0.361265,-0.134050,0.043371,0.226141,-0.242545,0.175801,-0.106773,-0.175742,-0.444914,-0.622776,-0.224494,-0.216944,-0.035526,-0.118672,0.175877,0.249886,-0.192802,-0.484624,0.635440,-0.079712,-0.199209,0.303161,0.080229,-0.251333,-0.095542,-0.032030,0.015644,0.233645,-0.044804,0.459615,0.492710,0.290611,0.058824,-0.177052,-0.062139,-0.218781,0.014833,-0.355475,0.001150,-0.139245,0.203689,-0.268972,-0.142601,-0.334599,-0.191900,0.162534,-0.136285,0.236344,-0.484506,0.237544,-0.206200,0.260734,-0.224630,0.117043,0.241751,-0.384681,-0.530024,0.137096,0.113021,0.180950,-0.133876,-0.447066,0.058727,-0.076199,0.510013,0.056576,0.082606,-0.185485,0.338146,-0.565303,-0.301922,-0.179973,-0.136599,-0.301875,-0.359854,-0.002850,0.240010,0.889883,0.243338,-0.557033,-0.132298,0.461868,-0.374983,0.197524,0.428208,0.107178,-0.222275,0.237898,-0.039654,0.130247,-0.017092,0.024060,0.658960,-0.396382,-0.272782,0.045820,-0.043790,0.290488,0.161407,0.369688,-0.179743,0.077691,0.320133,-0.036676,0.047412,0.025929,-0.133874,0.241672,0.418709,0.046152,0.374630,-0.069996,0.075442,0.102019,0.156794,-0.182774,-0.067645,0.542524,-0.017653,0.613004,0.418504,-0.922525,-0.418282,-0.139876,0.195331,-0.031526,-0.560040,0.253856,0.432565,-0.146031,-0.325543,0.332596,-0.303001,0.480144,-0.469735,0.200179,0.092538,0.253064,0.935518,-0.137774,-0.018189,0.543136,-0.222913,0.223701,0.454403,0.376093,-0.396711,0.000157,0.164274,0.557792,0.420610,0.010146,0.237276,0.233145,0.218094,-0.056070,0.354283,0.191878,-0.216313,-0.427385,0.032533,0.052703,-0.017432,0.220638,0.475356,-0.220286,-0.432201,-0.170474,-0.031947,-0.212637,0.382985,-0.016279,0.277156,-0.112759,0.232892,-0.140729,-0.045612,-0.162971,0.031658,0.068792,0.015728,-0.215136,0.466110,0.306285,-0.198116,-0.095470,0.037740,-0.291364,0.041858,-0.388031,-0.187284,0.638762,-0.231192,-0.584488,-0.080116,0.369764,-0.065686,0.068972,-0.420997,0.024015,0.349779,-0.337432,0.038961,-0.187272,0.015194,0.651191,0.138260,0.075632,-0.215028,-0.184702,0.021790,0.173621,0.110300,-0.185843,0.639839,0.237702,-0.309496,0.259413,-0.303239,-0.354881,-0.147895,-0.266371,-0.161926,-0.180320,-0.017413,-0.134987,-0.389971,0.258743,-0.268270,0.078613,0.139258,-0.376817,-0.274537,0.059148,0.268071,-0.062196,0.163239,-0.193375,-0.259601,-0.101122,-0.102057,0.216829,-0.106694,0.540970,-0.408503,-0.274191,0.370975,-0.019732,-0.276960,-0.020246,-0.105221,-0.294516,-0.185011,0.452722,-0.104796,-0.273113,0.000875,0.026782,0.725357,0.067763,-0.202428,0.071167,0.091545,-0.244805,0.015394,0.084836,0.380790,-0.077766,0.103275,-0.145456,-0.105546,0.333883,-0.483943,-0.071062,0.276717,-0.405929,0.132057,-0.551546,-0.450412,-0.216462,-0.022063,-0.131040,0.078430,-0.054650,0.215019,-0.110204,0.095630,-0.345265,0.065638,0.379436,-0.088664,0.345505,-0.252923,-0.030903,-0.365710,0.011309,0.247799,0.070903,-0.141043,-0.114307,-0.303424,-0.026387,-0.209415,0.131664,0.107888,0.013019,0.290311,-0.230319,-0.149085,-0.029557,0.471362,0.032998,-0.088341,0.289858,-0.413429,-0.229457,-0.128760,-0.138481,0.027975,0.064660,-0.406026,0.429167,-0.537405,0.119397,-0.273359,0.613023,0.230733,0.303197,0.224893,0.200888,0.350893,-0.090871,0.100421,-0.369108,0.465007,0.075267,0.041674,0.304208,-0.149935,0.345186,0.012979,-0.318671,-0.442021,0.537366,0.128804,0.055525,-0.221935,-0.373879,0.097040,-0.155351,-0.393612,0.015533,0.017068,-0.063775,0.006218,0.495442,0.461363,-0.076935,-0.021825,0.274478,0.224649,0.090648,-0.358661,-0.085640,0.080530,0.039055,0.182716,-0.353515,-0.247295,0.320357,-0.206971,0.560688,-0.805190,0.059218,-0.302061,-0.184264,0.089726,-0.245186,-0.115560,-1.015205,-0.189890,0.556303,0.677815,-0.200841,0.190230,0.379883,0.746865,0.051511,-0.156156,1.039901,0.671612,0.141216,0.309129,-1.148036,0.254981,-0.214393,0.144289,-0.031905,0.254283,0.090346,0.207123,-0.092968,-0.723590,0.196604,-0.150979,-0.258132,-0.002932,0.298496,0.264944,-0.315829,-0.306963,0.246593,-0.091218,-0.230859,-0.466951,0.258887,-0.005592,-0.384228,-0.243786,0.122398,0.554538,-0.252669,0.074830,0.393527,0.074485,-0.204644,-0.176846,0.315728,0.171775,0.022019,-0.133941,-0.168093,-0.079051,0.390725,-0.307767,0.782030,-0.381827,0.119230,-0.069894,-0.103473,0.227833,-0.489266,-0.401894,-0.356367,0.031903,0.117491,0.432045,-0.242149,0.259350,-0.212745,0.126397,-0.121402,-0.245851,-0.058256,-0.048192,0.160570,0.739188,0.061868,0.314841,-0.114427,0.101122,-0.307446,0.176673,-0.046732,0.090814,0.376727,-0.322797,-0.097638,0.181342,0.274147,-0.565949,0.284448,0.220637,0.089052,-0.223930,0.021284,0.230067,-0.151397,-0.336971,-0.017154,0.128929,-0.261447,0.000976,0.390161,0.854179,0.039648,-0.072650,-0.092046,0.285640,-0.093063,0.108085,-0.112922,0.638909,-0.369771,-0.054286,-0.129950,-0.281972,0.058768,-0.063844,0.279398,-0.142158,-0.189481,0.096843,0.005666,-0.226563,-0.110398,0.350958,-0.358558,-0.226139,-0.057627,0.093807,0.464872,-0.248082,0.170111,0.409328,0.213104,-0.059464,-0.093877,0.115857,-0.257870,-0.030554,-0.399874,-0.093693,-0.131181,0.016392,0.072655,-0.086398,0.060398,0.322592,-0.237334,0.052081,-0.162684,-0.174361,-0.028720,0.384843,0.222938,-0.027097,-0.450131,0.127664,0.012400,0.122148,0.052387,0.480197,-0.012708,0.269386,-0.167714,0.213974,0.054758,0.316087,-0.111997,0.533146,-0.006285,-0.299621,-0.267393,-0.369648,-0.069910,-0.037379,-0.364394,0.026565,-0.024961,-0.213903,0.081311,0.149783,0.210568,-0.080930,0.033926,-0.041758,-0.385767,0.034366,0.113036,0.306347,0.081541,-0.147003,-0.132881,-0.091582,-0.236173,-0.301929,-0.455941,-0.072747,0.105215,0.307547,-0.257550,0.049934,-0.425836,0.250105,0.350619,0.043991,0.065321,0.962508,0.028014,-0.171591,-0.358813,-0.342376,-0.244641,-0.157550,0.411343,1.256479,-0.254893,-0.053257,-0.156465,-0.216566,0.182111,0.023951,-0.026913,0.387212,-0.431378,0.160861,0.132012,0.063994,-0.211430,-0.026654,0.170763,0.460771,-0.023224,-0.004011,0.059206,0.006248,0.096279,0.146877,0.020803,-0.525268,0.006339,-0.018589,-0.092929,0.058186,-0.017965,0.025292,-0.173832,-0.039701,0.332334,-0.514768,0.124035,0.270255,0.003674,0.310888,0.735574,0.005580,-0.493533,-0.821641,0.572551,0.348913,-1.114382,-0.541378,-0.786556,-0.129431,0.018067,-0.274973,-0.030890,-0.142481,-0.719857,0.026997,-0.056994,0.012804,-0.051644,0.007854,0.257120,0.096764,-0.047266,-0.276226,0.322374,0.308227,0.365875,0.040082,-0.084471,0.186582,0.280949,-0.091475,-0.084302,-0.020164,0.341096,0.028437,0.058907,0.292427,0.357878,0.065355,-0.086342,-0.013838,0.234042,-0.173295,-0.712416,-0.533268,-0.238966,-0.096585,0.144795,0.003661,0.006594,-0.280016,-0.386654,-0.122674,-0.112922,0.008077,-0.138608,-0.040599,-0.284369,0.119157,-0.799558,-0.166139,0.179469,-0.038557,0.229651,-0.080741,-0.258200,-0.275124,1.086108,0.549063,-0.404929,-0.428872,-0.380167,-0.105776,0.063533,-0.360122,-0.328450,0.591447,-0.237822,0.070871,-0.101318,-0.056645,0.279876,-0.109542,0.281377,-0.058057,-0.189034,0.298050,0.004784,0.540931,0.250981,-0.047468,-0.161730,0.263967,0.216894,-0.207388,0.442951,-0.384942,0.022305,-0.411445,-0.159086,0.014298,-0.191975,0.051511,-0.154095,0.084230,0.172573,-0.409430,0.034690,0.087318,0.469078,0.123527,0.308344,-0.296232,0.295010,-0.139984,-0.249472,-0.002433,-0.122807,0.129973,0.179358,-0.067833,0.021054,-0.155895,0.132939,0.307870,-0.081769,-0.181807,0.137313,-0.145227,-0.212464,0.078541,0.384074,-0.067175,0.074886,-0.009334,-0.179305,-0.159327,0.120799,-0.311161,0.096277,-0.396932,0.113869,0.130516,0.145803,0.007661,0.264660,-0.108276,-0.269569,0.116684,-0.011375,0.169775,-0.079616,-0.023817,-0.139415,-0.253721,0.044389,-0.027231,0.017367,-0.371545,-0.027198,-0.396367,0.615344,-0.419559,0.247718,-0.033829,0.250848,-0.050282,-0.042412,-0.167536,0.480002,-0.502522,0.469428,0.090937,-0.107205,0.437791,0.308828,-0.407711,0.370110,-0.155587,0.182575,-0.146671,0.075414,0.033624,0.010504,-0.480686,-0.002268,0.100194,-0.024591,0.005414,0.209447,-0.111911,-0.119583,-0.168951,-0.256001,-0.268276,0.331933,0.030932,0.981672,-0.244678,-0.405697,-0.010095,-0.208948,-0.373405,0.044779,0.061121,0.182298,0.444877,0.160300,0.292647,-0.022375,-0.024931,-0.188669,-0.166129,0.112636,0.387721,0.305888,0.113967,0.035675,-0.092145,0.169008,-0.234230,0.330554,0.256785,-0.864986,0.731445,0.022362,-0.685960,-0.195828,-0.059262,-0.000254,-0.036754,-0.820594,0.347515,-0.276381,-0.311773,0.191578,0.187816,-0.191275,0.260133,0.115501,-0.564627,0.254781,0.149856,-0.007470,0.054401,-0.255043,-0.214154,0.096795,-0.154704,-0.002925,-0.212975,0.498851,0.243779,-0.266132,-0.241501,0.195289,-0.351385,0.171336,1.447936,0.619738,0.294512,0.991215,0.261263,-0.104733,-0.115698,0.117894,-0.272018,0.383840,-0.363287,-0.106329,0.085470,-0.061303,0.199931,-0.175467,0.176516,-0.230949,-0.198976,0.195456,0.097089,-0.043279,0.023005,-0.166378,0.188638,-0.386446,-0.152872,0.344271,0.114273,0.034457,0.259857,-0.001682,0.130632,0.111278,-0.235460,-0.006647,0.093081,-0.259777,0.492492,-0.610835,0.007766,-0.013229,-0.038023,-0.218227,-0.245731,-0.155222,0.151426,-0.026268,-0.053570,0.230616,-0.159891,-0.126058,-0.242765,-0.201259,0.054126,0.042272,-0.127243,0.242710,0.188001,-0.307101,-0.176928,-0.195882,-0.275136,0.061058,1.136089,0.263389,0.439099,-0.075891,-1.134083,0.008099,-0.024463,-0.095006,-0.113248,0.241054,-0.068886,-0.417808,0.009256,-0.090766,-0.088405,-0.003200,0.080331,0.104773,-0.165673,-0.049054,0.070370,-0.139129,-0.218723,0.126225,-0.252849,0.444866,-0.382711,0.003691,0.394871,-0.062376,-0.390430,0.004210,-0.386741,0.316296,-0.152381,-0.260974,0.208605,-0.408382,-0.329802,0.187734,-0.251535,0.061993,0.121314,-0.004413,-0.144921,-0.043773,-0.301364,0.187785,-0.301971,-0.065064,0.059733,0.165951,-0.414227,-0.208998,0.027969,-0.013826,-0.229782,0.185935,0.151097,0.008533,-0.455007,0.131827,-0.063898,-0.390353,0.112588,1.449541,-0.003523,0.356345,-0.068975,-0.197318,-0.024273,0.135596,-0.123758,-0.471787,0.275118,0.199631,0.112914,0.054487,0.060648,-0.136150,-0.158341,-0.081721,-0.210787,0.291973,-0.054456,-0.174358,0.039219,-0.020356,0.026495,-0.046341,0.029430,0.125371,0.167341,0.121623,0.097282,-0.027521,0.411646,-0.458042,-0.303159,0.238450,0.669334,-0.140889,0.023901,0.022944,0.144602,-0.089899,0.241780,-0.263875,0.504584,-0.202698,-0.193588,-0.035334,0.273202,-0.591525,0.273278,-0.142933,0.343626,-0.020471,-0.292931,0.693937,0.167442,0.625527,0.112251,0.033019,-0.125915,0.475962,0.001017,0.263138,-0.203095,0.279002,0.108971,-0.006818,0.440433,0.094985,-0.645768,-0.381885,0.088177,-0.203353,-0.464408,-0.259783,-0.114916,-0.376367,0.011867,0.138890,-0.266148,-0.021126,-0.113003,-0.211807,0.235753,0.791423,0.224093,0.085565,-0.360563,-0.061780,-0.376410,0.098557,0.332037,-0.186241,0.474614,-0.003111,0.379818,0.291364,0.289405,0.144164,-0.161187,-0.351326,-0.310551,-0.206041,0.166988,0.237945,0.213396,0.103540,-0.407875,0.312001,-0.371032,0.170269,0.021541,-0.043038,-0.130535,0.139137,0.444906,0.116904,0.332580,-0.483775,-0.699009,-0.153853,-0.150883,0.415960,0.104692,0.226014,0.513359,-0.386317,-0.530063,-0.221713,0.645143,-0.677129,-0.289640,0.125681,-0.109899,0.627901,0.160565,2.200187,-0.010373,0.346654,0.165390,-0.127571,0.003046,-0.044013,0.222879,0.264382,-0.056453,0.136403,-0.119206,0.079052,0.061316,0.073872,0.249504,0.025711,0.140392,0.086743,0.030560,0.196647,-0.229722,-0.169585,-0.411273,-0.309452,0.001845,0.090120,-0.128818,-0.172934,0.593229,-0.060204,-0.168997,-0.095245,0.046814,-0.171443,0.026059,0.194179,0.144187,0.042927,0.231011,0.520270,0.075185,-0.043072,-0.048148,-0.305442,0.195615,0.126812,-0.265798,-0.064320,0.208324,0.312904,0.347822,-0.015415,0.149400,0.141159,-0.439863,0.528748,0.001436,-0.615986,-0.066123,-0.027416,-0.026944,0.250186,-0.057158,0.164044,-0.099902,0.305663,0.010684,0.006386,-0.094505,-0.402736,0.103207,-0.326475,0.055484,0.227137,-0.136546,0.210842,0.120168,0.041215,0.143489,-0.304639,0.090426,0.317063,0.652435,0.286226,-0.212854,-0.054380,-0.188693,0.154487,0.204281,-0.072446,-0.185110,-0.148311,-0.085589,-0.308315,0.006610,0.111193,0.018400,-0.265082,0.018034,0.663509,-0.445021,-0.192929,-0.041370,-0.149468,0.068071,0.247374,-0.112552,-0.268627,0.048975,-0.208423,0.239612,0.258449,-0.314137,-0.339913,-0.157644,0.125091,0.243026,0.045402,-0.023524,0.016790,-0.072539,0.319252,-0.194611,-0.310536,-0.001481,0.158034,0.115565,-0.121553,-0.281895,0.375088,0.234387,-0.139585,-0.021829,0.243542,-0.055322,0.455010,-0.493818,0.545363,0.088139,0.248989,-0.262130,-0.533592,0.030964,-0.130668,-0.023646,0.085056,-0.516645,0.169310,-0.217355,-0.508911,0.035910,-0.159864,0.180484,-0.120562,0.067122,0.171509,0.202932,-0.157764,0.055033,-0.137839,-0.144364,0.013322,0.085359,0.048009,0.331351,-0.243777,-0.260598,0.225546,0.039443,0.094574,-0.354596,-0.503207,0.214615,-0.135166,-0.160278,0.118032,-0.287459,0.129387,0.243418,0.236825,0.289330,0.038491,0.017134,0.057178,-0.445713,0.060277,-0.445600,-0.459289,-0.146269,0.400292,0.129695,0.427954,-0.059636,0.090186,-0.377202,0.070701,-0.159425,-0.086340,0.059027,-0.173443,0.200625,0.068110,0.117757,0.058826,-0.185677,0.027163,-0.291625,0.133002,-0.091449,-0.429398,0.067896,-0.220527,-0.034443,0.569740,-0.016622,0.204868,-0.036224,-0.328112,-0.005959,-0.345196,0.317582,0.309563,-0.016238,0.041342,0.166409,-0.010256,0.006528,0.092463,0.003001,-0.069215,0.032716,0.014929,-0.037196,-0.158001,-0.591853,-0.262653,-0.083175,0.222334,0.183550,-0.032301,-0.168728,0.194878,0.207370,-0.045620,0.307464,0.250612,0.301191,-0.139694,0.111700,0.140166,0.026484,-0.171016,-0.153090,0.799591,0.069307,0.059045,0.348298,-0.073231,0.534090,-0.073202,-0.324586,0.066369,-0.190018,-0.168739,0.254807,0.048374,0.179394,-0.331859,-0.046713,0.050282,-0.071329,0.202628,0.146089,-0.153953,0.538403,0.040090,0.129834,0.302253,-0.420726,0.032746,0.331397,-0.360881,-0.094010,-0.214447,0.574372,0.204251,-0.088145,0.027521,0.211352,-0.296648,0.083980,-0.626372,-0.101318,0.217891,-0.020084,-0.209956,0.280012,-0.414798,-0.675003,0.197164,-0.280115,-0.001874,0.302931,-0.152177,-0.374699,-0.084960,-0.006490,0.083203,0.245738,0.175570,0.309178,0.126237,0.146670,-0.398588,0.268120,-0.174918,0.132422,0.072233,0.046041,0.212355,0.434816,0.642958,-0.061204,-0.098210,-0.197858,-0.158329,-0.090462,0.329486,-0.094178,0.142963,-0.074328,0.175610,-0.170903,-0.051736,0.079389,0.134789,0.123794,-0.428409,0.330438,0.320014,-0.518329,0.320673,-0.209053,0.441609,-0.027351,-0.391218,-0.175949,-0.248221,0.418433,-0.054546,0.191908,0.001447,-0.060456,-0.095515,0.025238,0.114471,0.132275,-0.361972,0.146372,0.392848,-0.372621,0.100626,-0.579528,-0.184440,0.548508,-0.200260,0.084383,0.314234,-0.497185,0.027392,-0.009173,0.105142,0.187011,0.184904,-0.123500,0.289008,-0.091340,-0.051736,-0.326171,-0.271127,-0.088618,0.078136,-0.452918,-0.118244,-0.254186,-0.136398,0.025216,-0.162828,0.012523,-0.202063,0.286015,0.451239,0.148535,0.205367,0.599648,0.098665,0.019585,0.163184,0.244456,-0.413664,0.189116,-0.120546,0.276738,0.009164,-0.222812,0.347903,0.422777,0.212767,-0.328027,0.171170,0.179529,-0.137590,0.150655,0.199225,-0.030502,0.253532,0.223176,0.250328,-0.269877,-0.311217,-0.101328,-0.130053,-0.098898,-0.198563,-0.154844,-0.000367,-0.061805,-0.430067,-0.201010,0.462750,0.177412,0.035238,-0.141695,-0.084794,0.246431,-0.208874,-0.181777,-0.332462,0.099616,-0.680358,-0.258350,-0.263517,0.161137,-0.216484,-0.301848,-0.241307,-0.478561,-0.161057,-0.068779,0.085944,0.196033,0.238907,0.436587,0.826944,0.661219,-0.287886,-0.422782,0.220917,-0.254342,0.005687,1.140046,0.108322,-0.504475,0.140564,-0.349300,0.069731,0.269002,0.118075,0.054979,0.263131,-0.083344,-0.213639,-0.005637,0.182078,0.106413,0.001682,0.336448,-0.111621,-0.100369,0.048295,0.252819,0.276175,-0.355851,-0.476124,0.676134,0.284337,0.263116,0.256054,-0.096153,-0.226778,-0.085061,0.210029,1.065819,0.228896,-0.502161,0.053636,0.118292,-0.190098,0.145232,-0.221962,0.164005,0.338008,-0.286019,0.564326,-0.078730,-0.475095,-0.369409,-0.195099,-0.109692,0.580612,-0.605289,0.280797,-0.562910,0.054545,0.390558,0.176153,0.037349,0.632065,0.453428,0.162744,0.642548,0.080554,-0.259901,0.151053,-0.318504,0.320697,0.224901,-0.279976,0.319939,-0.036571,-0.174679,0.024376,0.561306,0.163733,-0.250923,-0.303927,-0.122677,-0.011584,0.404216,-0.173719,-0.049595,-0.031460,-0.321041,-0.380447,-0.268198,-0.485566,-0.101691,0.382050,-0.205802,0.272951,0.077580,-0.181907,-0.126102,-0.012051,0.380112,0.278234,-0.080063,-0.031429,-0.121562,-0.481482,-0.119438,0.188737,-0.022223,-0.119679,-0.052804,-0.069535,-0.407154,-0.281257,-0.088944,-0.668297,-0.439563,-0.306092,-0.107916,0.000616,-0.528590,0.091772,0.611899,-0.246399,0.287462,-0.089015,-0.022955,0.813645,-0.666045,-0.235419,-0.521920,-0.147307,0.216347,0.189443,0.190673,-0.242603,0.727481,0.200052,-0.110536,0.119694,-0.537402,0.221786,0.344055,-0.461670,-0.333904,-0.011607,-0.136515,0.252218,-0.571522,-0.012673,0.331042,0.009087,0.039906,-0.083620,0.080273,0.255288,-0.010732,-0.050224,0.333829,0.317571,0.382182,-0.312190,-0.154621,-0.022361,-0.250620,0.282491,0.024716,-0.176546,0.173374,-0.463862,-0.003574,0.231877,-0.070095,-0.439326,-0.359885,0.105911,0.220904,0.346091,0.101211,0.014068,0.334517,0.024260,-0.180895,-0.092134,0.327877,-0.389802,-0.234989,0.185584,0.257532,0.157567,-0.046250,0.266736,-0.330201,0.304856,-0.530879,-0.171576,0.275006,0.057302,-0.066920,-0.196575,-0.274621,0.234995,-0.231487,0.027346,-0.128168,-0.002133,0.282177,-0.143153,-0.046015,0.195436,-0.010059,0.297646,0.019168,0.047433,-0.791709,-0.121924,-0.566579,0.298175,0.310127,0.208268,-0.141888,0.213848,0.053182,0.073214,-0.045958,-0.084884,-0.026434,0.071415,0.242748,0.101351,0.305888,-0.188190,0.198517,0.084059,0.111159,0.435025,-0.203213,-0.277987,-0.081921,0.025058,0.091025,0.384924,-0.150792,0.147591,-0.742852,-0.185473,-0.025662,-0.031349,-0.176978,-0.040662,-0.001021,0.549974,0.519781,0.041972,-0.013985,-0.511920,-0.038203,-0.230504,-0.160015,0.078903,-0.115039,0.302877,0.444319,-0.493549,-0.204313,0.348469,-0.067002,0.289889,-0.434657,0.213430,0.448169,0.215793,-0.100520,0.227956,0.100658,-0.132673,-0.285668,0.167694,0.054651,-0.113503,-0.077368,0.307302,-0.069861,0.074969,-0.042403,-0.087213,-0.187152,-0.421005,0.084305,-0.264154,-0.092517,0.101880,-0.247943,0.505307,0.220118,-0.229839,-0.297133,0.079552,-0.121088,0.040910,-0.098919,0.039086,-0.481581,0.019949,0.420069,0.340113,0.193631,-0.049706,0.035244,-0.346092,-0.116042,0.198549,-0.118263,0.354281,-0.314473,-0.366542,-0.051822,-0.051087,-0.274622,-0.077949,0.127762,-0.233569,0.140778,0.219058,0.182307,0.093420,0.196565,-0.422667,0.296571,-0.094008,0.317341,-0.027415,-0.699970,-0.035450,0.461729,0.004002,-0.143115,0.106344,0.087663,-0.422299,-0.051523,0.285509,-0.262996,-0.230045,-0.078191,0.139495,-0.071866,-0.076842,0.053977,-0.319748,-0.044857,0.093407,-0.113535,0.035200,0.229571,0.127552,-0.127959,-0.221585,-0.014006,0.053321,-0.030717,0.032674,-0.138299,-0.030973,-0.312218,0.024929,-0.598372,0.004000,0.463014,0.513317,-0.247344,-0.306591,-0.625583,-0.001196,-0.170571,0.158484,-0.288045,-0.133428,-0.192516,-0.028173,0.053721,0.042982,-0.020328,-0.257579,0.199194,0.022873,-0.120999,0.024311,0.086861,0.305884,-0.294391,0.216218,-0.241018,0.543137,-0.186358,0.072414,-0.487205,0.180127,0.394994,0.217635,-0.156065,0.272981,0.171780,-0.372086,0.040319,0.001362,-0.596222,-0.181238,-0.176118,0.079066,-0.143139,0.135932,-0.193975,0.359583,-0.224916,-0.486226,0.053468,-0.071220,0.096057,0.214377,0.129966,0.301767,0.022476,-0.721742,-0.204517,-0.114207,0.055995,-0.053428,-0.003326,-0.034774,-0.188393,-0.248605,-0.175518,0.288815,0.239481,-0.052244,-0.299411,-0.082797,-0.009016,0.110820,-0.195380,-0.280371,0.224403,0.513295,0.419552,-0.103887,0.006818,0.229842,-0.146082,0.387369,-0.006153,0.016077,-0.391218,-0.103997,-0.019545,0.332274,-0.262858,0.020856,0.595270,-0.129470,-0.194079,-0.172315,0.095431,-0.455811,0.312451,-0.423375,0.427448,-0.028530,0.295147,-0.899819,0.027812,-0.244499,0.339344,-0.650416,0.179510,0.576320,-0.163880,-0.841539,0.104208,0.285410,0.098862,0.144499,0.452211,-0.467993,0.546188,-0.573790,0.139771,0.370865,0.047401,-0.047471,-0.292129,-0.088098,0.064281,-0.304156,0.060354,0.238781,-1.008505,-0.209308,-0.419258,-0.046652,-0.064652,-0.096802,-0.158127,0.019070,-0.255236,0.011210,-0.315118,-0.162762,0.066057,-0.306824,0.187264,-0.475690,-0.119112,-0.316968,0.126063,0.143047,-0.329541,0.336746,0.095504,-0.134516,0.061071,-0.163000,-0.038150,-0.005278,-0.042518,0.131561,-0.381789,0.447403,-0.290717,0.184961,0.000224,0.196598,0.369550,0.030900,-0.159596,0.034611,-0.192710,0.271789,-0.073970,-0.240207,-0.112230,-0.225103,-0.300117,0.365695,-0.161071,-0.088506,0.282500,-0.486895,-0.039785,0.483731,-0.283778,0.230151,0.149087,0.231190,-0.383009,-0.420699,0.174794,0.149604,-0.006521,0.011713,0.134365,0.269283,-0.232063,-0.782227,0.026618,0.916418,-0.144681,-0.264889,0.860176,0.217374,0.500731,0.475002,-0.002080,0.032222,-0.137563,0.266189,0.374430,-0.526836,0.310576,-0.168135,0.045825,0.364718,-0.216079,-0.103933,-0.103812,-0.294414,0.117434,0.008200,0.132231,-0.131483,0.049523,0.104750,-0.198365,-0.533610,-0.080035,0.302614,-0.006301,0.258657,0.509065,-0.078278,-0.188894,0.046798,-0.011779,0.111257,0.009269,0.292372,-0.148641,-0.091660,0.402051,-0.190805,0.229504,0.413366,-0.266843,0.200755,-0.213556,0.181054,0.081911,-0.203374,0.270403,-0.075340,0.391239,-0.268357,0.102320,0.158576,-0.201824,0.368611,-0.143425,-0.106356,0.410829,0.201444,0.051324,0.029391,-0.399108,-0.105262,-0.414771,-0.148978,0.131534,-0.006345,0.086323,0.439058,-0.129280,-0.044107,-0.085562,0.145095,0.445222,0.302620,0.243837,-0.370528,0.087495,-0.013742,0.344135,0.262649,-0.214744,-0.325090,-0.086772,0.559855,-0.387269,0.216658,-0.035974,-0.162422,-0.385482,-0.456947,-0.519664,0.006751,0.269661,0.135564,-0.012157,-0.254105,0.164583,-0.108012,0.150004,0.129291,-0.419051,0.340019,0.195738,-0.355378,-0.288486,0.155031,0.098341,-0.480010,-0.010158,0.165548,-0.398477,0.204644,-0.271786,0.314762,0.024186,0.168568,0.317800,0.006059,-0.078799,0.033722,-0.235247,0.230035,-0.039736,-0.125186,0.541087,0.738625,-0.485311,0.643055,-0.020527,0.117916,-0.030572,0.196446,0.443317,0.160551,-0.486317,-0.010627,0.240273,0.374131,-0.212518,-0.063065,0.331587,-0.066723,-0.180593,0.125901,0.380106,-0.081122,0.017243,0.487498,-0.215068,-0.062616,-0.327831,-0.124869,0.177640,0.088550,-0.047100,0.028484,-0.101198,-0.653342,-0.025300,-0.096976,-0.209522,0.105634,-0.366467,-0.195643,0.197848,-0.118958,-0.030908,0.249395,-0.346476,0.153670,0.238372,-0.122038,0.011651,0.161330,0.176952,0.215308,0.105826,0.130365,-0.242038,-0.172645,0.334098,-0.082282,-0.044495,-0.003726,0.040293,0.190310,0.133091,0.142270,-0.156945,0.027452,-0.315450,0.025759,0.252861,-0.115444,0.208428,-0.041355,-0.138188,-0.221422,0.045499,0.059225,-0.277665,0.531898,0.158460,0.109979,-0.084443,-0.070331,-0.044922,-0.170581,0.298788,0.789223,-0.011010,0.144237,-0.406845,0.363699,-0.205998,-0.461299,0.069239,0.985147,-0.368813,0.374743,-0.376526,0.140414,0.047479,-0.521703,0.300793,-0.079005,0.305294,-0.418413,-0.081019,-0.024057,0.239252,0.014776,-0.130878,1.051772,0.553531,-0.025738,0.192502,-0.022320,-0.004039,0.132689,-0.244468,0.199719,0.056725,-0.177040,0.060009,-0.106587,-0.159228,0.172546,-0.277885,0.398384,0.118189,-0.034694,-0.212588,0.326372,0.599574,0.005386,0.106511,-0.137717,0.122215,-0.312451,-0.150253,0.000814,0.033784,0.158947,0.350969,-0.230402,-0.186349,-0.007960,0.051605,0.094607,0.108085,-0.063353,0.072611,0.066687,-0.086749,-0.299752,0.078087,0.114787,-0.126491,-0.058121,0.152887,0.453747,-0.107188,0.149695,-0.462033,0.030190,0.047404,-0.229819,0.423731,0.108661,0.226270,-0.104906,-0.026765,0.286935,0.334707,0.017492,0.324549,-0.737149,0.406589,-0.182961,0.125923,-0.140104,-0.074361,0.317126,0.010283,0.233386,0.356728,0.029550,-0.061341,-0.182416,-0.278942,0.632128,-0.517067,-0.008487,-0.117854,-0.167490,-0.005945,0.394000,-0.584671,0.231292,0.227393,-0.000298,-0.111852,0.074863,-0.132737,0.159706,-0.183812,0.066884,0.000383,0.238974,-0.374393,-0.014690,0.006727,0.179359,0.027904,-0.035534,0.077294,0.187810,-0.122415,-0.499934,-0.320496,0.580232,0.068232,-0.508018,-0.140767,0.465053,0.428419,-0.041743,-0.475799,0.251124,-0.034298,-0.088387,0.328044,0.453187,0.416624,-0.362615,-0.266684,0.193753,0.170245,0.428976,-0.109419,0.214755,-0.377108,-0.225210,0.166716,0.042196,0.202856,0.011630,0.013378,-0.322316,0.058412,0.317736,0.087112,0.006045,-0.479997,0.277070,-0.001026,-0.033276,0.223927,0.030067,-0.316635,0.553571,-0.542953,0.068692,0.203862,0.106710,0.090361,-0.188698,0.091153,0.058631,0.184518,0.416120,0.256483,0.174231,0.227572,0.208050,0.152844,-0.139188,0.534977,0.595674,-0.265336,-0.140412,0.140865,0.073188,-0.012615,-0.338955,-0.200946,-0.237697,-0.082189,-0.331252,0.104160,-0.137999,-0.227800,-0.088891,0.031915,-0.030350,-0.375362,-0.146514,-0.046759,0.079272,-0.032054,0.039477,-0.107628,-0.212211,-0.147865,-0.110366,-0.044729,-0.097944,-0.286100,-0.072332,-0.243077,-0.028695,-0.313127,-0.187670,0.050876,-0.211612,0.348346,-0.203981,-0.287362,0.647820,0.128987,0.169457,-0.053608,-0.414289,-0.154819,-0.008805,0.848410,0.118030,-0.335993,-0.127081,0.382683,0.261350,-0.120675,0.189032,0.279935,-0.081818,0.257828,-0.096635,0.496740,0.314485,0.231295,-0.103115,0.092724,-0.045655,0.258217,0.421139,-0.006530,0.057110,-0.225655,-0.246459,-0.236783,0.203015,0.464382,0.393442,-0.689763,0.097363,0.154652,-0.219271,-0.000532,0.102489,-0.177604,0.013494,-0.258890,0.201128,0.279826,0.429912,-0.013284,-0.006608,-0.013610,0.540685,-0.105159,0.202421,0.062015,0.048359,0.424536,-0.040028,0.377335,-0.195800,0.149254,0.442169,0.577610,0.495468,-0.563771,0.014208,-0.176926,-0.254553,0.241662,0.325334,-0.324710,-1.013985,0.122573,-0.004194,-0.274441,0.150201,-0.137441,-0.032573,0.069964,0.397750,0.106726,0.269266,0.065436,0.159518,-0.418293,-0.202675,-0.233422,0.131005,0.077398,-0.100074,-0.091290,-0.002560,-0.273009,0.141428,0.110242,0.280670,-0.056354,0.031633,0.114714,0.005746,0.147416,-0.167815,0.033995,0.122416,0.027589,0.190148,0.079638,-0.124176,0.563895,0.117125,-0.051391,0.115216,-0.195293,0.211839,0.233022,-0.052218,0.134370,-0.391002,0.057475,0.025646,-0.104721,-0.125536,-0.150936,-0.591568,0.304065,-0.433469,0.367368,-0.285160,-0.181977,-0.466213,-0.375482,-0.171123,0.177162,0.198370,0.140838,-0.065393,0.145397,0.204801,0.748832,0.095785,0.186555,0.155333,0.170412,-0.193140,0.168249,-0.317038,-0.283262,-0.222100,0.043197,0.380283,-0.152645,-0.436021,-0.086710,-0.447025,0.088328,-0.049528,0.456681,0.267241,0.280464,-0.468740,-0.318731,-0.019036,0.124079,-0.086116,-0.271571,-0.223739,0.350503,-0.526873,-0.122093,-0.088931,-0.180131,0.013591,-0.485231,-0.423604,0.220328,0.129862,0.001812,-0.250347,0.047241,-0.153208,0.162095,-0.191219,-0.016830,0.033540,0.127673,0.164444,0.373875,-0.368850,-0.067512,0.325375,-0.156875,0.032901,0.017945,0.130395,0.156800,-0.544404,0.101255,-0.226163,-0.637877,-0.482457,0.253481,-0.228862,-0.359612,0.058399,0.246469,0.678078,0.252549,-0.748224,0.123806,-0.556089,-0.210487,0.390027,-0.045509,0.023493,0.680260,-0.164706,-0.073237,0.500897,0.011488,0.316221,0.328679,0.601984,0.024875,0.140707,0.324650,0.117204,0.193262,0.214621,0.745296,0.136617,-0.333009,0.257419,0.476419,0.204890,0.082484,-0.070333,0.425954,-0.101290,-0.398024,-0.153119,0.173880,-0.043560,-0.087526,-0.024162,0.275963,-0.102343,-0.225132,0.087894,0.067752,0.138954,0.008659,-0.586262,0.035074,0.045324,-0.287499,-0.282630,0.499544,-0.670650,-0.471067,-0.086552,0.021924,-0.005822,-0.398490,-0.241497,0.014767,0.144777,0.437290,-0.080159,0.307307,0.011835,0.005357,-0.136958,-0.059362,-0.054103,-0.303466,0.279622,0.040168,-0.058725,0.035190,-0.127542,-0.169908,-0.369723,-0.073735,0.393816,0.373668,-0.025168,0.367245,-0.109193,0.019161,-0.165176,0.029466,0.723310,-0.353308,0.065637,0.147629,-0.102747,-0.314059,0.089708,0.098976,0.459562,-0.720955,-0.262604,0.143380,0.029598,0.019675,0.202474,0.242688,-0.015292,0.101984,0.024749,0.114208,-0.161349,-0.249663,0.168595,0.076175,-0.322154,-0.106856,0.374413,-0.243682,0.690231,0.583841,-0.742443,0.329513,-0.191276,-0.093695,-0.073281,-0.175897,-0.621520,0.030482,-0.205138,-0.308574,-0.150829,0.332515,-0.092734,0.056973,0.206270,0.107031,0.039777,-0.316247,0.015880,-0.067208,0.294083,0.006441,-0.035669,-0.325118,-0.385972,-0.075875,0.471942,0.379599,0.355078,0.336484,-0.511510,-0.040865,-0.416795,0.180641,0.759234,-0.013287,0.128762,0.309086,-0.265365,-0.060231,0.180347,-0.083713,0.737525,-0.178219,0.488031,-0.051310,-0.071932,0.013985,0.135934,0.643140,0.795928,0.200712,0.053743,-0.121753,-0.337351,0.080164,0.514807,0.256092,0.542350,-0.079729,0.135771,-0.043819,0.404490,0.363694,-0.749486,0.531840,0.065031,-0.030294,0.088469,0.030132,-0.905272,0.076042,-0.127394,-0.592194,-0.055373,0.128095,-0.375297,0.029860,-0.149342,-0.010796,-0.005988,-0.233840,0.049393,0.182694,0.009309,-0.259550,-0.034103,-0.204315,-0.512102,-0.046857,-0.211240,0.843364,0.389172,0.037867,0.202222,-0.292123,0.119265,-0.212945,0.028906,0.965565,-0.174710,-0.066545,0.205509,-0.146631,0.008560,0.211643,0.128988,1.347368,-0.220427,0.192535,0.423549,0.157722,-0.145289,0.493921,0.018884,1.010216,0.037348,0.007380,0.091639,-0.031315,0.104600,0.083442,-0.408304,0.210493,-0.006212,-0.419047,0.051973,0.554593,-0.546132,0.031758,-0.325712,-0.141209,-0.268267,-0.108316,-0.075073,0.170585,-0.157105,-0.011368,-0.147517,0.025021,0.281938,-0.219476,0.458404,0.349611,0.011451,-0.387927,-0.081185,-0.119072,-0.279679,-0.382635,0.271759,0.323001,0.065643,-0.004378,-0.498930,-0.079651,-0.031404,-0.050866,-0.074325,0.070614,-0.039663,-0.152958,-0.342134,-0.366317,0.116744,0.245675,-0.340780,0.213818,-0.230397,0.691146,0.373898,-0.101093,-0.237855,0.285423,0.333188,0.003793,-0.282864,0.449830,0.238103,0.051424,0.000848,-0.287447,0.085200,-0.258708,0.384890,0.337458,0.024353,-0.150140,0.142377,-0.406719,-0.002126,0.090095,0.210772,0.101946,0.061485,0.247191,-0.485903,0.101478,0.002609,0.119905,0.301252,0.165332,0.507476,1.137932,-0.339402,-0.257836,0.093634,-0.213967,0.156467,0.198033,0.457940,0.938517,-0.267695,0.471184,-0.141950,-0.108140,0.333455,-0.119568,-0.059271,0.087862,0.390357,0.096032,0.170100,-0.075101,0.002828,-0.690694,-0.216724,-0.643198,0.698653,0.196862,-0.011850,-0.183906,-0.000442,0.401319,0.001243,0.025300,0.690822,-0.160891,0.076947,-0.307347,-0.419895,0.161055,0.277405,-0.248950,0.256443,0.142273,0.221671,0.098986,-0.598511,0.145670,0.504131,0.220467,-0.017584,-0.180650,0.113867,-0.176873,0.163065,0.017207,0.275013,-0.078516,-0.531739,-0.441709,-0.581877,-0.178825,-0.304687,-0.649985,0.102652,0.335939,-0.381748,-0.098021,0.061999,0.205305,-0.202477,0.018218,0.044775,-0.466437,-0.088950,-0.378839,-0.225234,-0.440169,-0.033133,0.198247,0.058545,-0.097342,0.339718,-0.017682,0.403476,-0.288051,-0.365545,-0.389488,0.020716,0.550155,0.430265,0.065206,-0.404178,0.334803,0.002876,-0.067831,0.063666,0.464068,-0.067434,0.059987,-0.477173,-0.356391,0.073082,-0.255750,0.066304,0.322288,0.045030,-0.168341,-0.251643,0.037636,-0.358213,-0.375840,0.037519,0.145416,0.214107,-0.230449,0.696719,0.020233,0.258601,-0.357999,-0.257279,-0.218910,-0.097714,0.011337,0.140444,-0.012049,0.025520,-0.074888,-0.238916,-0.049546,-0.470113,0.276964,0.037096,0.027668,-0.028160,0.403587,0.137877,0.261613,0.562432,-0.163077,0.066826,0.498444,0.075084,-0.110582,0.528716,-0.545393,-0.132994,0.316963,-0.088757,-0.252492,0.293525,0.185194,-0.417492,-0.247025,-0.221469,0.142468,0.257241,0.081298,-0.113338,-0.224777,-0.104301,-0.328539,0.146066,-0.536999,0.063477,0.117329,-0.094591,0.202453,0.160634,-0.146208,-0.288000,0.173453,0.439499,0.137973,0.118362,-0.103750,-0.374624,-0.100295,-0.041156,0.587027,-0.006573,0.055745,0.177140,-0.066457,0.180722,-0.052423,0.308884,-0.083709,0.221646,-0.304916,0.241697,-0.439144,0.393818,-0.114913,0.149787,0.254296,0.060323,0.156905,0.025865,-0.155448,0.073304,-0.116476,0.232333,-0.040704,-0.114182,-0.149538,0.094643,-0.061754,0.020287,-0.068344,0.014762,-0.028610,0.179362,-0.136333,0.061109,-0.140467,-0.032602,-0.535110,-0.232639,0.291895,0.232960,0.060251,0.382555,0.080804,-0.091386,-0.120268,0.532963,0.264353,-0.256517,-0.006415,0.143026,-0.345430,-0.179474,-0.117974,0.922284,-0.319654,-0.043834,-0.344035,-0.331711,0.150782,-0.303374,0.028382,-0.152398,0.651312,0.147972,0.025640,-0.025297,0.669418,-0.211286,-0.090401,-0.109709,-0.197820,-0.162807,-0.264238,0.241260,0.539746,0.036803,0.496413,-0.351878,-0.192452,-0.217950,0.115974,0.205450,-0.274227,0.160055,-0.037840,0.014999,0.099903,-0.176790,-0.191880,-0.079610,0.114600,-0.066933,0.141234,-0.159333,-0.234923,0.032108,0.132686,-0.244212,0.336262,0.054394,-0.267335,-0.087783,-0.018809,-0.104092,-0.026455,-0.213723,0.248553,0.259570,0.006144,-0.275254,-0.101360,0.038265,-0.104652,-0.145770,-0.319652,-0.253453,0.556040,-0.306363,0.174005,-0.055110,-0.179063,-0.221570,-0.209180,-0.072627,-0.361622,0.174264,1.024627,0.253783,0.138864,0.363762,0.553055,-0.096521,-0.074527,-0.107976,-0.185933,0.249094,-0.528900,-0.047509,-0.648945,-0.042305,0.309284,0.026937,-0.087857,-0.057393,-0.050032,0.375038,0.262971,0.101526,0.268017,-0.042359,0.206631,-0.352886,0.225229,-0.308195,0.122850,-0.183285,-0.435410,0.034594,-0.091816,-0.241931,0.344541,-0.015139,0.080617,-0.095285,-0.136429,0.187270,0.252859,-0.162602,0.187777,-0.033377,0.181655,0.481753,0.091632,-0.382758,-0.282226,0.214919,-0.122717,-0.182021,-0.239962,0.474285,0.315038,-0.283680,-0.148179,-0.123733,0.374479,0.074564,0.207285,-0.013504,-0.291670,0.096742,0.816580,0.046609,0.076800,0.588152,0.019823,-0.075477,-0.138715,-0.162599,-0.341182,-0.315652,-0.848285,-0.198116,-0.265545,0.055601,0.003381,-0.141782,-0.211724,-0.049739,-0.257596,0.232575,0.087669,-0.016014,-0.414474,-0.217050,0.008419,0.396871,-0.400116,0.149542,0.152282,-0.047177,-0.032824,-0.480270,-0.643580,0.344581,-0.251064,0.196706,0.136688,-0.106328,0.505366,-0.146174,0.073773,0.042560,-0.033226,0.007789,0.148325,0.362445,0.044978,-0.322017,-0.272389,-0.193848,0.071528,-0.138571,-0.176315,0.053944,0.253188,-0.119123,-0.231481,0.178490,-0.064608,-0.011117,-0.370149,0.081753,-0.027547,-0.198534,0.537446,0.425198,0.248433,0.402689,-0.182845,-0.108167,-0.145830,0.230551,-0.568799,-0.256120,-0.547031,-0.030442,-0.198428,-0.069375,-0.102008,-0.149665,0.107642,0.282464,-0.116903,-0.280362,0.329808,0.012256,-0.058494,0.059746,0.332158,-0.050493,0.035599,0.108389,0.497388,0.141666,0.092419,-0.234249,0.097446,0.132195,0.184139,0.017729,0.300634,-0.004640,-0.088443,-0.281449,-0.288193,0.172876,0.062922,-0.030694,0.016410,-0.237108,0.297242,-0.472901,-0.363702,0.003446,0.387819,-0.242816,-0.085975,-0.604598,-0.291939,0.031603,0.168175,0.070423,0.304775,0.204974,-0.062228,-0.157472,0.018552,-0.279535,-0.205658,0.034890,0.010603,0.171384,0.205320,-0.168241,0.328711,-0.531124,-0.506704,-0.814983,-0.177133,-1.048721,-0.162142,-0.158200,0.188175,0.024502,-0.792385,-0.358805,0.520374,0.295756,0.215195,0.487433,0.329694,0.288288,-0.334773,-0.224118,0.029115,-0.084482,-0.254774,-0.298854,0.619096,0.278061,-0.162068,0.492575,0.023686,-0.144480,0.044053,-0.120413,-0.267220,0.301760,-0.098812,0.135740,-0.085675,0.104908,-0.116444,-0.300232,-0.359400,-0.083795,-0.120843,0.188663,-0.186412,0.341925,-0.341677,0.298586,0.000681,0.476765,0.006639,0.124788,-0.160228,0.076052,-0.526365,0.291139,-0.046976,0.193237,-0.182719,-0.579482,0.568539,-1.117067,-0.291234,0.001766,-0.227431,0.393249,1.169700,0.128443,0.322381,0.525956,0.757230,-0.114080,-0.134954,0.550754,-0.137233,-0.352564,0.057641,0.225909,-0.053544,0.228884,0.013197,0.753143,0.446903,-0.161428,0.196744,0.060574,-0.095732,-0.058590,0.295944,-0.018921,0.129390,0.040410,-0.333838,-0.140213,-0.152080,0.228028,0.183448,0.001601,-0.116832,-0.034250,-0.179747,-0.419065,0.276509,-0.076919,0.013149,0.135682,0.456564,0.200799,0.143858,-0.198454,-0.095059,0.166346,-0.293977,0.004236,0.049834,0.226536,0.030866,-0.065141,-0.360687,-0.084018,-0.234741,-0.203342,-0.174924,1.048462,-0.307763,-0.504810,-0.169558,-0.397230,-0.175207,-0.409327,-0.403494,0.150923,0.215290,0.280387,-0.199247,-0.064132,0.036282,-0.246016,0.024106,-0.126689,-0.663217,-0.011800,-0.357289,0.283005,0.060421,-0.024016,0.232606,-0.165747,-0.305669,-0.074218,-0.242506,0.230785,-0.160470,-0.049016,-0.109714,-0.120248,-0.229003,-0.079572,-0.086736,0.118898,0.231308,0.152958,0.173400,0.118830,0.053301,0.059575,-0.084911,-0.085136,-0.226911,0.216365,0.094018,0.065931,-0.087666,0.191549,0.083464,-0.055976,-0.541894,-0.208044,0.169152,-0.077546,-0.356440,-0.149429,-0.013281,1.067923,-0.451470,0.606825,0.298467,-0.245522,0.074388,0.146934,0.088238,-0.245347,-0.076996,-0.041777,0.141821,0.157306,-0.794410,0.832177,0.465902,-0.082408,-0.036903,0.607463,0.236439,0.606567,0.226668,0.476935,-0.169534,0.286423,0.283696,0.248252,-0.149186,-0.304029,0.032161,-0.103541,-0.011666,-0.034046,0.351790,-0.063026,0.075657,-0.296318,-0.192789,0.233911,-0.139143,0.166834,-0.388459,0.263527,0.260572,-0.455556,-0.120299,-0.059737,-0.093652,0.185098,-0.561795,-0.016176,-0.069036,-0.007808,-0.321968,-0.197048,0.125274,-0.136762,-0.018499,-0.158624,-0.246214,0.184564,0.141652,0.113685,-0.041073,-0.000927,-0.332067,-0.516067,-0.375246,0.066844,-0.458519,-0.154934,-0.560953,-0.190602,-0.000155,-0.050246,0.427839,-0.256243,0.073331,0.150441,0.044990,0.089562,0.017110,-0.927231,-0.278187,0.003024,0.153310,-0.017116,-0.330998,0.778696,0.144731,-0.573285,-0.183751,0.127928,0.105480,-0.267488,0.229689,-0.252760,0.349833,-0.192502,-0.090811,-0.264082,0.034156,-0.016767,-0.030706,-0.392758,0.025982,0.241594,-0.068988,-0.212916,0.042988,-0.026149,0.085187,0.722853,-0.194695,0.003222,0.514128,0.090445,-0.166798,0.136672,-0.253180,0.096883,-0.523573,0.420079,0.090219,-0.242025,0.090161,0.298438,0.503310,0.586116,-0.697440,0.231252,0.844648,-0.212547,0.439692,0.329030,-0.361431,-0.367373,-0.071125,0.640514,0.754502,0.643097,0.728479,-0.393808,0.359777,0.009949,-0.233872,0.237340,0.259371,0.000668,0.054887,-0.378285,0.084969,0.018440,-0.065261,-0.049831,-0.059974,0.458247,-0.035607,-0.382973,0.125484,0.419554,0.035006,-0.598652,-0.283804,0.002969,0.298138,-0.033484,0.040283,-0.135440,0.115445,0.011713,-0.565509,-0.116110,0.223557,-0.087879,0.376745,0.019525,0.187782,0.178361,-0.072618,0.056129,-0.371336,0.362099,-0.009707,0.077099,-0.509564,0.126075,-0.490345,-0.124791,-0.116793,0.791759,0.639880,0.253502,-0.505797,0.183705,0.394324,-0.512577,0.793500,0.133811,-0.033780,-0.163544,-0.213182,0.014146,0.824805,0.787490,-0.267047,0.456848,0.625012,-0.156570,-0.148487,-0.800741,-0.160538,0.210843,-0.078345,-0.321762,-0.262044,0.386655,0.029335,-0.248842,-0.014365,0.405771,0.167939,-0.072538,0.322364,0.170051,0.375841,-0.381837,-0.599696,-0.006201,-0.289599,0.050673,-0.085842,-0.135258,-0.152898,0.315742,-0.529343,-0.037795,-0.124358,0.393088,-0.088509,0.141009,-0.041123,-0.181516,0.183569,0.334581,0.191418,0.231932,-0.183349,0.071544,-0.158881,-0.478803,0.072846,0.071889,-0.168439,-0.060820,0.154721,0.402774,-0.213255,-0.158453,-0.102184,1.165562,-0.743595,0.377220,0.272138,-0.588272,-0.054029,-0.021148,-0.136974,-0.476411,0.312935,0.315345,0.081842,-0.089777,-0.028116,-0.095241,-0.137962,0.142013,-0.565383,0.601037,0.025325,-0.078331,-0.054740,0.020717,0.297385,0.289913,-0.222704,0.074125,-0.006874,-0.098199,0.378818,-0.258442,-0.076778,-0.646888,0.129774,0.496319,0.402271,0.135262,-0.174304,-0.042876,-0.264864,-0.282288,0.109766,0.280828,0.799197,0.172278,-0.242545,0.202417,-0.346561,-0.105278,0.073814,0.118659,0.081973,0.022596,-0.036927,0.479527,-0.454098,0.187288,-0.584854,-0.229140,-0.533027,-0.191678,-0.061175,-0.002726,-0.054518,0.215795,-0.560812,-0.352635,-0.144472,-0.214263,-0.381747,0.050834,0.010779,-0.253863,-0.171133,-0.526206,-0.225506,-0.180564,-0.364611,0.219916,0.483407,-0.212593,-0.043046,-0.049764,-0.068411,-0.201547,-0.069292,0.055302,-0.381194,-0.046372,-0.304091,-0.106396,0.295607,-0.241962,-0.054737,0.206824,0.170055,0.229167,-0.087849,-0.012132,-0.230860,0.024298,-0.544478,-0.097161,0.262869,0.036062,-0.257584,0.031706,0.055684,0.584806,0.235809,0.189553,-0.458687,0.098587,-0.246493,-0.027029,-0.199091,-0.232596,-0.423753,0.015176,0.053358,0.086217,-0.180305,-0.349506,-0.029929,0.275207,-0.378860,-0.187147,0.498419,-0.293025,0.308853,-0.505631,0.288301,0.253482,0.065972,0.201612,1.322063,0.032905,0.136382,0.112389,0.040989,0.137570,0.175674,0.380804,-0.179659,-0.530310,0.138029,-0.146429,0.038274,0.195522,-0.092430,0.247110,0.598378,-0.314738,0.002887,-0.064200,0.151976,-0.258732,0.034740,0.009711,-0.056397,0.329733,-0.070910,-0.345136,-0.477713,-0.356358,0.103732,0.214024,0.137775,-0.092575,0.297899,-0.194531,-0.119103,-0.133254,0.018607,-0.068249,0.160501,0.291773,0.111068,0.074652,-0.154843,0.086461,-0.256067,0.023674,0.004693,-0.230308,0.033862,0.199588,0.213732,0.241819,-0.251344,0.047190,0.718342,0.909866,0.140605,0.085256,0.422702,0.037048,-0.083641,-0.025269,-0.044126,-0.039775,-0.064069,0.032570,-0.069216,-0.122879,-0.128331,0.263532,0.083070,-0.258207,0.173749,-0.078043,0.025978,-0.101582,-0.177666,-0.387980,-0.056913,-0.153363,0.112807,-0.105766,0.080322,-0.521339,-0.259662,-0.535539,-0.032251,0.515902,0.365399,-0.248757,-0.242254,0.345561,0.110470,-0.473315,0.574302,0.366021,-0.358644,-0.188925,-0.431087,0.589508,0.486664,-0.380330,-0.205890,0.333993,0.039238,-0.124949,0.398985,0.190924,-0.118125,-0.031242,0.149323,-0.021362,-0.112443,0.111672,-0.250443,-0.421585,-0.149227,0.155231,-0.043883,0.093808,0.123413,-0.211762,0.135417,-0.214296,-0.106627,0.192485,0.183933,0.259203,-0.289828,0.214014,-0.299720,-0.218897,-0.228463,0.113718,0.470732,0.699089,0.176925,0.006221,0.005851,0.216121,-0.391500,0.362940,0.351903,0.174025,0.183783,-0.249970,-0.034969,-0.214636,-0.568698,-0.143292,0.050395,0.016218,-0.166603,0.158176,-0.553878,-0.247147,0.218567,-0.414117,0.174341,0.007599,-0.054952,-0.201530,0.099326,-0.167977,0.727264,-0.220336,-0.095539,0.251175,-0.109149,0.036609,0.073873,-0.270840,-0.062119,0.236207,-0.077584,-0.023919,0.650143,0.225932,0.059376,0.551386,-0.516879,-0.353405,-0.178813,0.135273,0.238482,0.478160,-0.262076,-0.150399,0.222548,-0.021222,-0.156830,-0.199009,-0.023840,-0.292865,-0.056340,0.188494,-0.316811,0.140726,0.047367,-0.196427,-0.433035,-0.011438,-0.188813,-0.078324,-0.056042,-0.112668,0.239068,0.120183,0.065948,-0.045822,-0.180779,0.280119,0.102108,0.451360,0.234974,0.087294,-0.229217,-0.118896,-0.037350,0.119524,0.161695,0.138823,0.068489,-0.019534,-0.205922,-0.074071,0.211474,0.777068,0.260955,-0.187048,0.079142,0.094125,0.156222,-0.032418,-0.016849,-0.037091,-0.216965,0.037277,-0.071196,-0.037759,0.279818,0.444328,0.239217,-0.141318,-0.307358,-0.520250,-0.600364,-0.626853,0.009576,-0.534663,-0.345411,-0.471634,0.071779,0.026535,0.165724,0.176767,0.381735,0.420436,-0.031070,0.100797,-0.372338,0.011815,-0.446354,0.146861,-0.259254,0.076354,0.070458,0.146251,-0.293076,0.260749,0.023465,0.062831,0.084374,-0.230917,-0.436871,-0.037834,-0.001661,0.237337,-0.049119,-0.001836,-0.129290,-0.051471,0.077436,-0.183262,0.479749,0.286810,-0.175714,0.252050,-0.321433,-0.021144,0.184732,0.718220,-0.050050,-0.052857,-0.119421,-0.118947,0.143797,0.204892,0.341843,-0.199427,-0.413830,0.071489,-0.108658,0.001231,0.040883,0.397240,0.450658,-0.049885,0.005633,-0.106322,-0.617730,-0.257915,0.387544,0.475806,-0.317605,-0.119629,0.057864,0.044602,0.348460,0.231873,-0.852955,0.444001,0.060733,0.092572,0.000806,0.271660,-0.033617,0.093863,-0.462728,-0.352716,0.073791,0.211156,-0.221191,0.379494,0.202763,0.368158,-0.088768,0.092079,-0.078991,-0.438097,0.058737,0.155632,0.159389,0.441156,-0.383907,0.101322,-0.254963,-0.010706,-0.000137,0.167799,0.299635,0.054520,-0.294688,-0.375804,0.021492,0.131944,0.359435,0.001690,-0.044559,0.152514,-0.010251,-0.037832,-0.001459,0.357859,-0.270387,-0.061843,0.077864,0.068741,-0.145357,0.082164,0.295421,0.142440,-0.147807,-0.181766,0.398081,0.235239,-0.608001,0.663674,0.171749,-0.547887,-0.180423,-0.072985,0.314558,-0.344337,-0.159670,-0.267618,-0.329191,-0.030366,-0.013742,0.064014,0.128415,-0.020802,0.329189,-0.546557,-0.178243,-0.070436,0.162024,0.045063,0.599400,-0.642443,0.211263,-0.370238,-0.262074,0.464694,0.145530,-0.064335,0.419596,-0.449013,0.177152,0.134409,0.018651,0.008788,0.137506,-0.191127,-0.152812,-0.317546,-0.373838,0.290222,-0.346900,-0.147493,-0.111868,0.495214,-0.235152,-0.144611,-0.590952,0.173052,0.219405,0.160900,-0.316657,-0.112623,0.048370,0.044954,-0.433752,-0.345209,-0.392347,0.001954,-0.130056,0.002683,0.268904,0.923225,1.053954,-0.220128,-0.362807,-0.187740,0.440931,-0.912226,0.053752,-0.176991,-0.149016,-0.427255,0.117034,-0.308990,0.105317,-0.057779,0.125735,0.238796,-0.354720,0.015249,-0.226275,-0.289395,-0.229236,0.114384,0.053486,0.078607,0.265984,0.113321,0.305241,-0.258019,-0.748502,-0.695274,0.043064,0.109019,-0.116420,0.028957,-0.128514,0.394359,0.358099,-0.155639,0.290579,-0.098224,0.227496,-0.005933,-0.063161,-0.138095,0.183946,-0.309785,0.061412,0.072015,-0.425997,-0.010813,-0.137217,-0.301856,-0.912704,-0.023199,-0.168989,-0.328655,0.092129,0.587358,0.231661,-0.736020,-0.592179,-0.012213,-0.769136,-0.545988,-0.358095,-0.033437,0.040490,0.106709,-0.133595,-0.084946,-0.766183,-0.403730,-0.246790,0.636919,-0.121028,-0.005268,0.023810,-0.278457,0.094126,0.083220,0.539258,0.111235,-0.072693,-0.341340,0.647926,-0.125601,-0.171070,0.518502,0.338689,0.608276,0.040137,-0.224175,0.547759,0.135831,-0.007136,-0.043054,-0.486137,-0.123750,-0.070979,0.257948,0.083536,-0.062088,-0.041730,-0.239172,-0.189042,-0.076047,0.010021,0.271098,0.517611,0.435776,0.094964,0.057438,0.458197,-0.265773,-0.052993,-0.219526,-0.362668,0.126952,0.253490,0.092877,-0.058639,0.263248,-0.312001,0.047709,-0.407132,0.409628,-0.078286,0.212649,-0.999432,-0.052718,-0.044655,0.201878,-0.060079,-0.102334,-0.199294,0.019728,0.156942,0.051708,-0.687717,-0.187180,-0.058938,-0.487290,-0.055470,-0.182891,-0.414384,0.505753,0.084058,0.053253,0.129570,0.378451,0.382874,0.085373,-0.192481,-0.062161,-0.174813,0.029908,0.015350,-0.083816,-0.589145,0.268806,0.035876,-0.065199,-0.421796,-0.860939,-0.345648,0.418134,-0.051259,0.124819,0.358729,-0.038181,0.425338,-0.467098,-0.268795,-0.622703,0.108293,0.723451,-0.121364,0.130998,-0.342780,0.415481,-0.300543,-0.037246,0.122112,-0.096291,0.521466,0.354556,0.049317,-0.235310,0.345053,-0.151574,0.125586,-0.255581,-0.058561,0.160686,0.019908,0.240049,-0.084551,-0.050550,0.570107,-0.095052,0.129956,0.313670,-0.365630,-0.172857,-0.054170,-0.233543,-0.250655,0.055214,-0.196677,0.109012,-0.137067,-0.879858,0.019337,0.056896,-0.200806,0.354811,-0.293540,0.248967,0.086946,-0.236506,0.378267,0.359951,0.108456,0.181815,-0.047233,-0.157649,-0.120212,0.109704,-0.076905,-0.048454,0.003728,-0.095534,-0.071060,0.018484,0.044500,0.013199,0.243457,-0.056761,0.068571,-0.411837,0.453959,0.145390,-0.324727,-0.202513,0.223539,-0.012101,-0.056382,0.258378,0.607591,0.114698,-0.151935,-0.300835,-0.104650,0.364477,-0.275088,0.174646,-0.219429,0.514246,-0.721062,0.036725,-0.110378,0.031055,0.375146,0.440855,0.355766,0.140667,-0.572542,0.080186,-0.275061,-0.200302,-0.164637,-0.059547,-0.119038,-0.032591,-0.072653,-0.051948,0.211568,0.735941,-0.242584,0.052753,-0.212233,-0.477478,0.588192,-0.385533,0.199405,0.220730,-0.084329,0.150557,0.093606,-0.187174,0.162131,-0.000053,-0.131770,-0.167528,-0.010928,0.025606,-0.212540,-0.074183,0.089242,-0.766884,-0.019262,-0.453508,-0.094630,-0.144499,0.114585,0.009288,-0.263217,0.892996,-0.096806,0.347459,-0.132908,0.015800,0.160304,0.036916,0.498995,-0.499926,0.107627,-0.088793,0.605328,-0.431281,-0.096048,0.854783,0.094505,0.122041,-0.150688,0.053826,0.703321,0.645120,0.085035,-0.001760,-0.599110,-0.043711,-0.032966,-0.117488,-0.052354,-0.478403,0.476959,-0.486197,-0.263901,0.076564,0.268309,0.103508,-0.153231,-0.196489,0.047557,-0.230228,0.356794,0.316064,0.281671,0.259899,0.129112,-0.271023,0.058430,0.158202,0.529929,-0.290811,-0.110772,0.066484,-0.188391,0.345621,0.077151,-0.060525,0.348409,0.239462,0.256432,-0.184353,-0.027382,0.204419,0.083919,-0.164736,0.125036,-0.246371,0.028494,0.165674,0.091764,-0.569366,0.204650,-0.530151,-0.002056,-0.378079,-0.157859,0.159798,0.784124,-0.794835,-0.057447,-0.715183,0.722954,-0.195792,-0.058107,-0.281622,0.210395,0.347469,0.304397,0.115165,-0.559030,-0.092563,0.113696,0.187731,-0.192563,0.115955,-0.317707,0.050173,-0.296907,-0.491692,0.520068,0.106973,-0.217805,0.045196,0.025813,-0.359744,0.180041,0.081568,0.176920,-0.376388,0.137847,0.368856,0.130843,-0.371987,0.428692,0.092768,0.160238,-0.424581,0.218724,0.273792,0.261165,-0.153558,0.151853,-0.111237,0.694654,-0.025865,0.071849,-0.292922,0.044464,0.211585,-0.375930,0.047606,-0.306275,0.422841,0.116200,-0.345847,-0.118152,0.038367,-0.355175,0.105750,-0.015021,0.176517,0.595010,-0.222177,-0.328924,0.334832,-0.212316,0.144477,-0.006058,0.117332,-0.028594,-0.069296,0.064938,-0.101282,-0.199614,-0.017543,-0.349289,-0.051051,0.167060,-0.254445,0.204883,-0.144063,0.274442,-0.184459,-0.359024,0.048785,0.130214,-0.137386,-0.893723,0.192443,-0.070414,0.003524,0.019673,0.617258,0.538107,0.473472,-0.250272,0.003439,-0.365082,0.196275,-0.255881,0.214786,-0.049425,-0.087183,0.107765,0.009143,-0.193767,0.049799,0.152671,0.299904,-0.403754,-0.043619,-0.060854,0.190327,-0.163380,-0.117474,0.621907,0.094374,-0.033448,-0.692811,-0.013655,0.027012,0.051494,-0.285415,-0.015216,-0.532983,-0.002910,-0.299197,-0.288701,0.404422,-0.382312,-0.330214,0.183356,-0.003060,-0.107435,-0.137928,-0.202406,-0.035339,0.060764,-0.433729,-1.546159,-0.578102,0.192799,-0.384444,-0.148586,0.012714,0.206143,-0.338964,-1.360367,-0.503374,0.057099,-0.257004,0.080470,-0.167000,-0.501501,0.044073,-0.292482,0.138151,0.026593,-0.020482,-0.235030,0.233784,-0.001264,-0.337230,-0.464344,0.061492,0.319924,-0.399509,-0.233833,-0.036997,-0.415682,-0.216731,0.110325,-0.014302,-0.213003,0.122559,0.427691,0.114019,-0.196678,-0.554289,0.149550,-0.166326,0.198955,0.008142,-0.027979,0.269432,0.121653,0.089424,0.828363,0.206925,0.321920,0.516529,0.975219,0.324811,0.146998,-0.415784,-0.198544,0.189282,-0.569420,0.276283,-0.068188,0.230039,0.365968,-0.296492,-0.106415,0.625583,-0.152474,-0.263121,0.160902,0.052219,0.362818,-0.073624,0.019817,0.378353,0.414816,0.087051,0.114325,-0.269763,0.175426,0.027200,0.183341,-0.218184,-0.287653,0.079307,0.602537,0.124282,0.237986,-0.419712,0.314199,-0.074628,-0.059705,0.386782,0.292490,-0.052265,0.119355,-0.077216,-0.508595,-0.540616,0.112559,-0.306030,-0.089759,-0.052271,-0.339448,0.354154,-0.083899,-0.257881,0.106100,-0.169485,0.239651,0.218808,0.207382,0.212795,-0.015250,-0.325211,0.263651,0.036148,0.507606,-0.003029,0.092218,-0.090893,-0.128238,-0.223012,-0.048757,0.346794,0.075718,-0.283984,0.060528,-0.009634,-0.009658,-0.201500,-0.101572,0.079965,0.056170,0.158003,-0.454431,-0.167829,-0.488118,-0.121070,0.146056,-0.175887,0.117965,0.294198,-0.031565,-0.814000,-0.451357,-1.020338,0.272237,-0.285331,0.112207,0.464380,0.111724,0.518779,0.600680,0.158881,0.147062,-0.157058,0.012531,0.036686,0.053717,-0.543247,-0.314178,1.086985,0.499588,-0.351105,-0.019544,-0.138205,0.466588,-0.021306,0.208327,0.331023,-0.028986,-0.098395,0.008347,-0.105519,0.273730,0.047680,0.029349,0.106417,-0.192639,-0.027900,0.102480,-0.432471,0.168146,-0.006353,-0.169504,-0.618286,-0.469430,-0.152353,-0.070617,-0.023700,-0.474909,-0.330951,-0.087810,-1.010597,-0.623326,0.644012,-0.420797,-0.047130,0.552921,-0.509018,0.118024,-0.255982,-0.253291,0.145633,-0.417864,-0.114511,0.370562,0.153928,-0.207431,-0.066297,-0.059037,0.174693,-0.149657,0.239693,0.084933,0.201224,-0.135260,0.056625,0.324846,0.444456,0.012822,0.028498,-0.009063,0.247207,-0.368911,-0.080975,0.344661,-0.233001,-0.121275,-0.243722,0.026222,-0.120557,0.083363,0.645243,0.025684,0.205237,0.126674,0.152159,0.247908,-0.110663,-0.130783,0.249584,0.205271,0.239422,0.323546,0.008252,0.218951,-0.093605,0.079141,-0.173476,-0.093057,-0.237359,-0.027655,-0.272790,-0.265104,-0.114809,-0.691198,-0.063690,0.177868,0.133767,0.122930,0.057042,0.122934,-0.284209,-0.540207,-0.360547,-0.390065,0.101596,0.227569,0.164691,-0.407681,0.219092,-0.005698,-0.273663,-0.070724,-0.110152,-0.072019,-0.191881,0.265185,-0.479617,0.132539,0.449203,-0.143561,-0.174274,0.084965,0.241679,0.220053,0.188953,-0.267958,0.166461,0.042635,-0.233979,-0.032559,-0.177919,-0.016431,-0.640058,1.067247,-0.098980,-0.135314,0.288377,0.137443,-0.134511,-0.467990,0.365238,0.016357,0.575816,-0.511699,-0.306056,-0.052899,-0.908440,0.252233,0.090735,0.071173,0.152838,-0.255920,-0.553090,0.354180,-0.908590,0.159438,-0.029909,-0.448098,-0.039906,-0.056499,0.321223,0.195202,0.461412,-0.197445,-0.206320,-0.275431,-0.698844,-0.420697,0.357906,0.359883,-0.073614,-0.758881,0.064971,0.080653,-0.287423,-0.214447,-0.076348,-0.252221,-0.570666,0.016961,-0.299952,-0.054624,0.360491,0.051522,-0.198261,-0.110890,-0.099928,0.133061,-0.529401,-0.662903,0.262918,0.313559,-0.458251,0.076798,-0.000742,-0.055454,-0.605007,1.025953,-0.009465,-0.225157,0.558224,0.066576,0.351435,-0.258642,-0.409095,0.414317,0.123425,-0.549059,-0.036626,-0.004935,0.007284,-0.794335,0.021750,0.022971,0.129051,-0.401802,-0.206947,0.450796,0.192708,-0.117011,-0.073055,0.056004,0.041870,0.183975,-0.253146,0.456892,0.117396,0.190534,0.151007,-0.166279,0.435041,-0.412498,0.067457,0.029300,0.133221,-0.376793,0.275927,-0.238988,0.108712,-0.136509,-0.351106,-0.043655,-0.235565,0.107745,-0.485362,-0.603170,0.493979,-0.111088,-0.080848,-0.232043,0.043305,0.211371,0.034452,-1.342185,0.061159,-0.106499,0.089064,-0.055349,-0.117956,0.216201,0.232583,-0.160823,-0.184468,-0.083496,0.112900,0.371903,-0.210839,-0.039136,0.066764,-0.227184,0.084768,-0.282412,0.496945,-0.169007,-0.317955,0.253511,0.118279,0.110356,0.172357,-0.027603,-0.154725,-0.442895,-0.178571,0.058896,-0.016817,-0.120710,0.193357,-0.006427,-0.035960,0.027811,-0.123960,-0.114023,0.118826,0.020486,-0.169831,0.175834,-0.343168,0.030438,-0.315399,-0.121083,-0.316510,0.193788,0.134538,0.142704,0.125628,-0.070661,-0.058808,-0.222266,0.037463,-0.120691,0.332810,0.201564,-0.207148,0.358132,0.096539,0.497466,0.528075,-0.300626,0.773262,0.028218,-0.296184,0.169494,-0.347746,0.081303,0.370528,-0.072631,-0.157008,0.524583,-0.037562,0.002566,0.214073,0.612774,0.003041,0.065294,0.018454,0.643259,-0.375799,-0.115458,0.115431,0.560256,0.050882,0.133399,0.026923,-0.494213,-0.614884,0.020321,-0.025962,0.274051,0.304873,-0.019153,0.153686,0.111529,0.424748,0.083863,-0.143111,-0.215391,-0.466233,-0.265861,0.061361,0.173120,0.067069,-0.069950,-0.028737,-0.108367,0.042973,0.237039,-0.057593,-0.245161,-0.053436,0.080395,0.031322,-0.150394,-0.092763,-0.141047,0.433070,0.139471,-0.112500,-0.108098,-0.210882,0.261271,0.242856,0.755818,0.109549,0.163932,0.137845,0.167411,0.058763,0.182358,0.163434,-0.079458,0.106069,-0.187142,0.420635,-0.949874,-0.492109,0.316961,0.008847,0.755299,0.006563,0.244006,-0.264089,0.758950,-0.244880,-0.377499,0.274764,-0.008791,-0.162209,0.036115,-1.357366,-0.631730,0.326114,0.355056,0.019336,-0.382572,-0.192308,0.059927,-0.225002,0.400258,0.109180,-0.232004,-0.218910,-0.330704,-0.183379,-0.352090,-0.480088,-0.696209,-0.209833,-0.174200,-0.064351,0.017950,0.126228,-0.008740,0.400910,-0.344993,0.180197,0.025572,0.085157,0.346223,0.391530,0.364877,0.006215,0.745867,0.183215,0.244414,-0.237175,-0.673021,0.185377,0.077527,0.157522,-0.057633,-0.062685,-0.215732,0.229533,-0.547247,-0.264211,0.014644,0.148867,0.321983,-0.050091,-0.376283,-0.075905,0.153480,-0.365225,0.159240,0.783740,0.581634,0.037869,-0.615375,0.129415,-0.014467,-0.106658,-0.512050,0.065325,-0.030596,-0.011452,0.550255,-0.001834,-0.162560,0.148729,-0.488092,0.214143,-0.157636,0.028257,0.222072,0.188063,0.064730,0.205532,0.013967,0.341024,0.497508,0.005926,0.554721,-0.074125,-0.137987,-0.030025,0.641295,-0.105935,0.744868,0.495840,0.020868,0.373882,0.234055,-0.227076,-0.058410,-0.064490,-0.137455,-0.125292,-0.466808,-0.397746,0.334838,-0.361050,0.176369,0.013457,0.087592,0.246163,-0.114646,0.334575,-0.095482,0.116407,0.061510,0.151834,-0.290659,0.101100,0.357362,-0.313286,0.443677,0.157377,0.039507,0.002188,-0.014900,0.006537,0.269848,0.658301,-0.039278,-0.033497,-0.298578,-0.097690,0.140637,0.533934,0.750312,0.108124,0.085002,0.174143,-0.480157,0.388116,-0.249564,0.040414,-0.173998,-0.238704,-0.175543,0.532673,-0.268561,-0.299269,0.296690,-0.021173,0.183787,-0.099682,0.093817,-0.019450,-0.109380,-0.166488,-0.287739,0.122987,0.136811,0.107286,0.630799,-0.214633,-0.080927,0.258880,0.340147,-0.253734,0.009264,-0.401413,0.640566,-0.153219,0.126445,-0.167740,-0.035529,-0.058407,-0.100899,-0.408107,0.635030,-0.028571,-0.250270,-0.099789,-0.389762,0.370752,0.038977,-0.675199,0.180775,0.554720,-0.245635,-0.059608,0.117445,0.116546,0.001233,0.287870,-0.019807,0.344867,-0.209333,0.230740,0.553236,0.390396,0.313919,-0.126014,-0.484003,-0.046623,-0.456888,0.113036,0.259821,-0.523672,0.446523,0.028456,0.135857,-0.059340,0.401461,0.614325,0.301781,-0.281206,-0.259564,0.249015,0.247268,-0.203258,-0.270380,-0.304485,-0.033906,-0.190616,0.267907,0.067282,-0.362016,-0.511101,0.040105,-0.048221,0.047312,0.003105,-0.339456,-0.155434,0.713569,-0.149011,-0.156264,-0.037410,-0.241234,-0.197691,0.252867,0.076866,0.296924,-0.212135,0.030029,0.169526,0.050389,-0.086008,0.045564,0.240175,0.357636,0.894212,-0.013110,0.218317,0.308662,-0.343076,1.140206,0.179509,-0.020342,0.414391,0.113895,0.193070,0.142126,-0.260747,-0.319477,-0.060503,-0.411057,0.164231,-0.132342,-0.363970,0.223053,-0.343534,0.518391,-0.124218,-0.314500,-0.035045,0.329401,0.265081,0.032260,-0.528768,0.130266,-0.094219,0.181800,0.214674,-0.098694,-0.502617,0.390131,-0.042635,0.164257,-0.075182,-0.187608,0.287944,0.164811,-0.223423,0.139304,-0.158833,-0.127056,-0.278364,-0.160438,0.002144,-0.334957,0.083602,0.076813,-0.283461,0.139997,0.527774,0.092825,-0.026221,-0.187633,-0.144091,0.061238,-0.838235,0.134926,-0.107170,0.270195,-0.110178,0.473434,0.123206,0.754454,-0.662772,0.468014,0.004359,0.078914,-0.245928,-0.324338,0.101590,0.561800,0.011532,0.407856,0.066162,-0.066170,0.139890,-0.316708,-0.147688,0.187631,-0.136392,0.147054,-0.294565,-0.114372,-0.064825,-0.294966,0.581459,0.142460,-0.044039,-0.182746,-0.134558,0.269226,-0.013457,-0.365603,0.035424,-0.283054,0.055561,-0.082557,0.226011,0.760029,-0.218067,0.033086,0.247673,-0.430852,0.056432,-0.008771,-0.370639,-0.048724,-0.475007,-0.042963,0.343371,-0.428706,-0.145876,-0.037712,0.379184,-0.662626,-0.089251,-0.249150,0.348834,-0.127636,0.022060,-0.389093,0.250861,-0.004381,0.154074,-0.270399,0.910895,0.135954,-0.392446,0.053321,0.661969,-0.107763,0.106611,-0.044202,0.036053,-0.073214,-0.486110,-0.016903,-0.031882,-0.082154,-0.387264,0.116012,0.026405,0.103052,-0.421729,0.454212,0.013706,0.177189,-0.032457,0.212597,0.104631,0.189599,-0.067778,0.239967,0.283169,0.134828,0.048805,-0.050317,0.434774,0.252048,-0.053479,0.004143,-0.087962,-0.077725,-0.155544,-0.319073,0.031803,-0.037574,-0.244505,-0.112078,-0.518378,-0.099697,0.076911,-0.238126,0.055962,-0.231623,0.396836,-0.156271,-0.286509,-0.112614,0.324583,0.161610,0.558505,-0.527096,-0.143073,0.072830,0.117353,0.022084,-0.113330,-0.219815,-0.086166,-0.361659,0.100614,-0.407271,-0.169383,0.546190,-0.016623,0.052910,0.351328,-0.036547,-0.308396,-0.422531,0.103668,-0.287867,0.903185,0.461600,-0.251327,0.206975,0.257970,0.035895,0.079258,0.233674,0.535793,-0.350987,0.406640,-0.213571,-0.202586,0.252794,-0.391276,0.000965,0.406476,-0.039286,0.249293,0.285732,-0.110825,-0.055253,0.277446,0.075142,-0.047381,-0.062014,-0.266382,-0.081794,0.027558,0.119077,0.407062,0.506548,0.042615,-0.486236,0.403451,0.173965,-0.096415,0.451576,-0.092684,0.166198,0.301266,-0.384586,-0.076184,0.288484,-1.124721,0.394798,0.003337,0.642867,-0.396046,0.284760,0.164740,0.141169,0.227070,0.186219,0.310421,0.018459,0.707950,-0.699964,0.739053,-0.383082,-0.262823,-0.002388,-0.001530,0.212876,1.440470,0.245020,-0.167326,0.220204,-0.038878,-0.153669,-0.225064,0.149158,0.415179,0.505656,0.496034,0.436554,0.077368,-0.010314,0.069668,-0.111787,0.107162,-0.248918,0.222103,-0.275128,-0.102423,-0.011414,0.368800,-0.087413,-0.291734,-0.223807,-0.061030,0.224558,-0.159397,-0.177687,0.121245,0.325714,0.122287,0.413205,-0.332836,0.102454,-0.544692,-0.047948,-0.098138,0.263908,0.571359,0.053425,0.134696,-0.341223,-0.209174,0.131136,-0.024108,0.356611,-0.017702,-0.520219,-0.621064,-0.203937,-0.410733,-0.002054,0.536269,-0.036344,0.189725,0.218177,0.115696,-0.178005,0.221680,-0.290269,-0.213769,-0.096477,0.645214,0.335296,-0.210997,-0.182187,-0.545383,-0.765329,0.106801,0.043314,-0.308093,-0.013998,0.697021,0.130688,0.061197,-0.229475,-0.147558,-0.246342,-0.049603,0.321496,-0.698966,-0.218001,-0.091104,-0.206921,-0.099565,0.567507,-0.085544,0.203193,-0.027715,-0.241943,0.091519,0.025168,0.086186,-0.365951,-0.091447,0.393139,0.151081,-0.262686,0.131128,0.139899,-0.178954,-0.500259,-0.296690,-0.117886,-0.264502,0.398795,0.237200,-0.156758,0.418757,-0.150126,0.048300,-0.221222,-0.137151,0.173061,0.462978,0.189388,-0.137780,-0.049913,0.581461,0.216999,-0.186301,0.110691,-0.341764,-0.782152,0.163231,-0.066736,0.552256,0.260156,-0.283489,-0.162588,0.062367,-0.187105,-0.419875,-0.160112,-0.388042,0.074066,0.298071,-0.284762,-0.228324,0.161454,-0.092869,-0.024446,-0.255160,0.076736,-0.460607,0.501416,0.122885,-0.253256,0.180943,